double score(double * input) {
    double var0;
    if (input[2] < 405.0) {
        if (input[2] < 242.4) {
            if (input[0] < 242.3) {
                if (input[4] < 608.6) {
                    if (input[4] < 301.8) {
                        var0 = -0.14676324;
                    } else {
                        var0 = -0.113004185;
                    }
                } else {
                    if (input[5] < 0.6272727) {
                        var0 = -0.055997252;
                    } else {
                        var0 = 0.091722;
                    }
                }
            } else {
                if (input[3] < 0.6272727) {
                    if (input[3] < 0.43939394) {
                        var0 = -0.038559794;
                    } else {
                        var0 = -0.14878531;
                    }
                } else {
                    if (input[3] < 0.93030304) {
                        var0 = 0.005938812;
                    } else {
                        var0 = -0.1482353;
                    }
                }
            }
        } else {
            if (input[5] < 0.43939394) {
                if (input[3] < 0.15454546) {
                    var0 = -0.14895105;
                } else {
                    if (input[0] < 267.0) {
                        var0 = -0.037144583;
                    } else {
                        var0 = 0.09860902;
                    }
                }
            } else {
                if (input[3] < 0.6484848) {
                    if (input[3] < 0.6333333) {
                        var0 = -0.14934859;
                    } else {
                        var0 = -0.09562855;
                    }
                } else {
                    if (input[0] < 288.7) {
                        var0 = -0.06869797;
                    } else {
                        var0 = 0.08504081;
                    }
                }
            }
        }
    } else {
        if (input[4] < 418.0) {
            if (input[5] < 0.58484846) {
                if (input[5] < 0.42727274) {
                    if (input[5] < 0.15454546) {
                        var0 = -0.14895834;
                    } else {
                        var0 = 0.11524689;
                    }
                } else {
                    var0 = -0.14928198;
                }
            } else {
                if (input[3] < 0.95757574) {
                    if (input[4] < 5.4) {
                        var0 = -0.14347827;
                    } else {
                        var0 = 0.14241743;
                    }
                } else {
                    if (input[4] < 328.7) {
                        var0 = -0.1292692;
                    } else {
                        var0 = -0.044782273;
                    }
                }
            }
        } else {
            if (input[0] < 343.1) {
                if (input[4] < 476.4) {
                    if (input[3] < 0.57272726) {
                        var0 = -0.123470895;
                    } else {
                        var0 = 0.019196017;
                    }
                } else {
                    if (input[4] < 800.7) {
                        var0 = 0.02906864;
                    } else {
                        var0 = -0.13342509;
                    }
                }
            } else {
                if (input[5] < 0.15454546) {
                    var0 = -0.14117648;
                } else {
                    if (input[0] < 405.0) {
                        var0 = 0.07840392;
                    } else {
                        var0 = 0.13785869;
                    }
                }
            }
        }
    }
    double var1;
    if (input[4] < 418.0) {
        if (input[0] < 277.1) {
            if (input[0] < 192.5) {
                if (input[4] < 267.1) {
                    if (input[4] < 147.8) {
                        var1 = -0.10496067;
                    } else {
                        var1 = -0.10071058;
                    }
                } else {
                    if (input[2] < 608.6) {
                        var1 = -0.08636345;
                    } else {
                        var1 = -0.010489209;
                    }
                }
            } else {
                if (input[1] < 0.43939394) {
                    if (input[5] < 0.23030303) {
                        var1 = -0.10544137;
                    } else {
                        var1 = -0.043519307;
                    }
                } else {
                    if (input[1] < 0.9) {
                        var1 = -0.09589892;
                    } else {
                        var1 = -0.04777885;
                    }
                }
            }
        } else {
            if (input[5] < 0.6151515) {
                if (input[5] < 0.44545454) {
                    if (input[5] < 0.1969697) {
                        var1 = -0.11473814;
                    } else {
                        var1 = 0.07231081;
                    }
                } else {
                    if (input[5] < 0.45454547) {
                        var1 = -0.054722264;
                    } else {
                        var1 = -0.10419035;
                    }
                }
            } else {
                if (input[1] < 0.95757574) {
                    if (input[4] < 5.4) {
                        var1 = -0.10531322;
                    } else {
                        var1 = 0.08846767;
                    }
                } else {
                    if (input[4] < 358.1) {
                        var1 = -0.102639;
                    } else {
                        var1 = 0.08833059;
                    }
                }
            }
        }
    } else {
        if (input[2] < 405.0) {
            if (input[5] < 0.6272727) {
                if (input[5] < 0.43939394) {
                    if (input[3] < 0.42424244) {
                        var1 = -0.039567564;
                    } else {
                        var1 = 0.12183535;
                    }
                } else {
                    if (input[0] < 445.5) {
                        var1 = -0.11858526;
                    } else {
                        var1 = -0.10454873;
                    }
                }
            } else {
                if (input[3] < 0.5212121) {
                    if (input[5] < 0.96363634) {
                        var1 = 0.1369721;
                    } else {
                        var1 = -0.10065603;
                    }
                } else {
                    if (input[5] < 0.96363634) {
                        var1 = -0.008706102;
                    } else {
                        var1 = -0.11746317;
                    }
                }
            }
        } else {
            if (input[0] < 372.7) {
                if (input[0] < 176.8) {
                    if (input[5] < 0.6333333) {
                        var1 = -0.07748246;
                    } else {
                        var1 = 0.060895637;
                    }
                } else {
                    if (input[2] < 675.4) {
                        var1 = 0.036084604;
                    } else {
                        var1 = -0.098465495;
                    }
                }
            } else {
                if (input[5] < 0.15454546) {
                    var1 = -0.10131489;
                } else {
                    if (input[2] < 800.7) {
                        var1 = 0.09668063;
                    } else {
                        var1 = 0.053347714;
                    }
                }
            }
        }
    }
    double var2;
    if (input[2] < 418.0) {
        if (input[2] < 249.9) {
            if (input[0] < 221.8) {
                if (input[4] < 605.6) {
                    if (input[4] < 372.8) {
                        var2 = -0.07229851;
                    } else {
                        var2 = -0.049693875;
                    }
                } else {
                    if (input[5] < 0.43939394) {
                        var2 = 0.057419494;
                    } else {
                        var2 = -0.03366981;
                    }
                }
            } else {
                if (input[2] < 85.3) {
                    if (input[3] < 0.11212121) {
                        var2 = -0.109389454;
                    } else {
                        var2 = -0.07313529;
                    }
                } else {
                    if (input[0] < 315.2) {
                        var2 = -0.053980857;
                    } else {
                        var2 = -0.0069511137;
                    }
                }
            }
        } else {
            if (input[0] < 573.2) {
                if (input[3] < 0.42727274) {
                    if (input[1] < 0.23030303) {
                        var2 = -0.04774181;
                    } else {
                        var2 = 0.029561501;
                    }
                } else {
                    if (input[3] < 0.6484848) {
                        var2 = -0.07320508;
                    } else {
                        var2 = -0.008692507;
                    }
                }
            } else {
                if (input[3] < 0.57272726) {
                    if (input[3] < 0.42424244) {
                        var2 = 0.0491158;
                    } else {
                        var2 = -0.07230565;
                    }
                } else {
                    if (input[1] < 0.96363634) {
                        var2 = 0.09132561;
                    } else {
                        var2 = -0.10296646;
                    }
                }
            }
        }
    } else {
        if (input[4] < 428.8) {
            if (input[5] < 0.58484846) {
                if (input[5] < 0.43939394) {
                    if (input[5] < 0.15454546) {
                        var2 = -0.07453163;
                    } else {
                        var2 = 0.0680095;
                    }
                } else {
                    if (input[4] < 418.0) {
                        var2 = -0.07536587;
                    } else {
                        var2 = -0.10979808;
                    }
                }
            } else {
                if (input[3] < 0.96363634) {
                    if (input[4] < 5.4) {
                        var2 = -0.07271022;
                    } else {
                        var2 = 0.077592194;
                    }
                } else {
                    if (input[5] < 0.93939394) {
                        var2 = -0.0075496985;
                    } else {
                        var2 = -0.088943966;
                    }
                }
            }
        } else {
            if (input[0] < 389.2) {
                if (input[4] < 529.5) {
                    if (input[3] < 0.43030304) {
                        var2 = 0.039769858;
                    } else {
                        var2 = -0.06257269;
                    }
                } else {
                    if (input[4] < 800.7) {
                        var2 = 0.029877068;
                    } else {
                        var2 = -0.07356167;
                    }
                }
            } else {
                if (input[4] < 617.1) {
                    if (input[2] < 800.7) {
                        var2 = 0.063230634;
                    } else {
                        var2 = -0.1382272;
                    }
                } else {
                    if (input[5] < 0.15454546) {
                        var2 = -0.06759602;
                    } else {
                        var2 = 0.069944054;
                    }
                }
            }
        }
    }
    double var3;
    if (input[2] < 389.2) {
        if (input[0] < 249.9) {
            if (input[4] < 454.4) {
                if (input[0] < 159.7) {
                    if (input[4] < 199.6) {
                        var3 = -0.051821537;
                    } else {
                        var3 = -0.046437606;
                    }
                } else {
                    if (input[1] < 0.9) {
                        var3 = -0.046914086;
                    } else {
                        var3 = -0.012127265;
                    }
                }
            } else {
                if (input[5] < 0.6272727) {
                    if (input[5] < 0.43939394) {
                        var3 = 0.014399356;
                    } else {
                        var3 = -0.0700819;
                    }
                } else {
                    if (input[3] < 0.5212121) {
                        var3 = 0.09427081;
                    } else {
                        var3 = -0.014948552;
                    }
                }
            }
        } else {
            if (input[3] < 0.6272727) {
                if (input[3] < 0.43939394) {
                    if (input[3] < 0.1969697) {
                        var3 = -0.07209269;
                    } else {
                        var3 = 0.04458931;
                    }
                } else {
                    if (input[5] < 0.36363637) {
                        var3 = 0.089560516;
                    } else {
                        var3 = -0.055373877;
                    }
                }
            } else {
                if (input[1] < 0.95151514) {
                    if (input[0] < 301.8) {
                        var3 = -0.0091155;
                    } else {
                        var3 = 0.059341498;
                    }
                } else {
                    if (input[0] < 573.2) {
                        var3 = -0.078017175;
                    } else {
                        var3 = 0.0013950538;
                    }
                }
            }
        }
    } else {
        if (input[4] < 428.8) {
            if (input[5] < 0.58484846) {
                if (input[5] < 0.43939394) {
                    if (input[5] < 0.21212122) {
                        var3 = -0.039901868;
                    } else {
                        var3 = 0.061976314;
                    }
                } else {
                    if (input[4] < 418.0) {
                        var3 = -0.052649323;
                    } else {
                        var3 = -0.07741695;
                    }
                }
            } else {
                if (input[3] < 0.95757574) {
                    if (input[4] < 5.4) {
                        var3 = -0.053843196;
                    } else {
                        var3 = 0.05514963;
                    }
                } else {
                    if (input[1] < 0.95454544) {
                        var3 = 0.008463748;
                    } else {
                        var3 = -0.055663858;
                    }
                }
            }
        } else {
            if (input[0] < 315.2) {
                if (input[5] < 0.6333333) {
                    if (input[5] < 0.43030304) {
                        var3 = 0.029884642;
                    } else {
                        var3 = -0.08894926;
                    }
                } else {
                    if (input[3] < 0.96363634) {
                        var3 = 0.031218238;
                    } else {
                        var3 = -0.1306187;
                    }
                }
            } else {
                if (input[0] < 428.8) {
                    if (input[2] < 724.1) {
                        var3 = 0.028332815;
                    } else {
                        var3 = -0.09538542;
                    }
                } else {
                    if (input[5] < 0.76363635) {
                        var3 = 0.04512032;
                    } else {
                        var3 = 0.05232172;
                    }
                }
            }
        }
    }
    double var4;
    if (input[2] < 418.0) {
        if (input[2] < 277.1) {
            if (input[0] < 267.0) {
                if (input[4] < 454.4) {
                    if (input[4] < 70.6) {
                        var4 = -0.036717415;
                    } else {
                        var4 = -0.033560727;
                    }
                } else {
                    if (input[5] < 0.15454546) {
                        var4 = -0.11064788;
                    } else {
                        var4 = -0.0072475285;
                    }
                }
            } else {
                if (input[3] < 0.6151515) {
                    if (input[3] < 0.43939394) {
                        var4 = -0.00062586414;
                    } else {
                        var4 = -0.040142573;
                    }
                } else {
                    if (input[3] < 0.8636364) {
                        var4 = 0.049310964;
                    } else {
                        var4 = -0.036611866;
                    }
                }
            }
        } else {
            if (input[5] < 0.6151515) {
                if (input[5] < 0.43939394) {
                    if (input[3] < 0.21515152) {
                        var4 = -0.026119752;
                    } else {
                        var4 = 0.023195127;
                    }
                } else {
                    if (input[4] < 580.7) {
                        var4 = -0.03534685;
                    } else {
                        var4 = -0.051522836;
                    }
                }
            } else {
                if (input[0] < 428.8) {
                    if (input[1] < 0.94848484) {
                        var4 = -0.0018321251;
                    } else {
                        var4 = -0.08796387;
                    }
                } else {
                    if (input[1] < 0.96363634) {
                        var4 = 0.05787839;
                    } else {
                        var4 = -0.070899315;
                    }
                }
            }
        }
    } else {
        if (input[4] < 454.4) {
            if (input[5] < 0.58484846) {
                if (input[5] < 0.43939394) {
                    if (input[5] < 0.15454546) {
                        var4 = -0.045894288;
                    } else {
                        var4 = 0.037097063;
                    }
                } else {
                    if (input[4] < 428.8) {
                        var4 = -0.03784011;
                    } else {
                        var4 = -0.095920496;
                    }
                }
            } else {
                if (input[3] < 0.96363634) {
                    if (input[4] < 5.4) {
                        var4 = -0.037758205;
                    } else {
                        var4 = 0.039324127;
                    }
                } else {
                    if (input[5] < 0.93939394) {
                        var4 = 0.013964127;
                    } else {
                        var4 = -0.056697927;
                    }
                }
            }
        } else {
            if (input[0] < 418.0) {
                if (input[2] < 724.1) {
                    if (input[5] < 0.6333333) {
                        var4 = -0.0029253452;
                    } else {
                        var4 = 0.022542847;
                    }
                } else {
                    if (input[4] < 594.5) {
                        var4 = -0.08957967;
                    } else {
                        var4 = -0.005037086;
                    }
                }
            } else {
                if (input[5] < 0.96363634) {
                    if (input[5] < 0.77575755) {
                        var4 = 0.032052834;
                    } else {
                        var4 = 0.037296485;
                    }
                } else {
                    if (input[3] < 0.96363634) {
                        var4 = 0.013946206;
                    } else {
                        var4 = -0.11731868;
                    }
                }
            }
        }
    }
    double var5;
    if (input[2] < 372.8) {
        if (input[0] < 221.8) {
            if (input[4] < 554.4) {
                if (input[4] < 249.9) {
                    if (input[2] < 242.4) {
                        var5 = -0.024982749;
                    } else {
                        var5 = -0.046420045;
                    }
                } else {
                    if (input[5] < 0.42727274) {
                        var5 = -0.007861002;
                    } else {
                        var5 = -0.024875192;
                    }
                }
            } else {
                if (input[5] < 0.6272727) {
                    if (input[5] < 0.43939394) {
                        var5 = 0.038142554;
                    } else {
                        var5 = -0.05407499;
                    }
                } else {
                    if (input[5] < 0.95757574) {
                        var5 = 0.07414671;
                    } else {
                        var5 = -0.08024226;
                    }
                }
            }
        } else {
            if (input[3] < 0.43939394) {
                if (input[3] < 0.23030303) {
                    if (input[5] < 0.1969697) {
                        var5 = -0.04868307;
                    } else {
                        var5 = -0.008068323;
                    }
                } else {
                    if (input[0] < 231.0) {
                        var5 = 0.003547243;
                    } else {
                        var5 = 0.0398712;
                    }
                }
            } else {
                if (input[1] < 0.6272727) {
                    if (input[2] < 249.9) {
                        var5 = -0.032365922;
                    } else {
                        var5 = -0.02392044;
                    }
                } else {
                    if (input[4] < 199.6) {
                        var5 = 0.010594298;
                    } else {
                        var5 = -0.016838895;
                    }
                }
            }
        }
    } else {
        if (input[4] < 467.9) {
            if (input[5] < 0.6333333) {
                if (input[5] < 0.43939394) {
                    if (input[5] < 0.2090909) {
                        var5 = -0.023243772;
                    } else {
                        var5 = 0.03357937;
                    }
                } else {
                    if (input[4] < 428.8) {
                        var5 = -0.026202828;
                    } else {
                        var5 = -0.077724285;
                    }
                }
            } else {
                if (input[3] < 0.96363634) {
                    if (input[1] < 0.96363634) {
                        var5 = 0.027704882;
                    } else {
                        var5 = -0.059350606;
                    }
                } else {
                    if (input[2] < 608.6) {
                        var5 = -0.011334278;
                    } else {
                        var5 = -0.07622829;
                    }
                }
            }
        } else {
            if (input[5] < 0.15454546) {
                if (input[4] < 536.6) {
                    var5 = -0.12068205;
                } else {
                    var5 = -0.07480841;
                }
            } else {
                if (input[0] < 445.5) {
                    if (input[2] < 768.9) {
                        var5 = 0.011086283;
                    } else {
                        var5 = -0.056552798;
                    }
                } else {
                    if (input[5] < 0.43939394) {
                        var5 = 0.027232016;
                    } else {
                        var5 = 0.021664154;
                    }
                }
            }
        }
    }
    double var6;
    if (input[2] < 428.8) {
        if (input[0] < 301.8) {
            if (input[4] < 522.2) {
                if (input[0] < 188.5) {
                    if (input[4] < 161.4) {
                        var6 = -0.018087033;
                    } else {
                        var6 = -0.015983982;
                    }
                } else {
                    if (input[1] < 0.43939394) {
                        var6 = -0.0036648232;
                    } else {
                        var6 = -0.016907442;
                    }
                }
            } else {
                if (input[5] < 0.15454546) {
                    if (input[4] < 605.6) {
                        var6 = -0.06632492;
                    } else {
                        var6 = -0.1262366;
                    }
                } else {
                    if (input[5] < 0.43939394) {
                        var6 = 0.032849282;
                    } else {
                        var6 = -0.008142266;
                    }
                }
            }
        } else {
            if (input[5] < 0.6060606) {
                if (input[5] < 0.44545454) {
                    if (input[3] < 0.21515152) {
                        var6 = -0.022413628;
                    } else {
                        var6 = 0.02916266;
                    }
                } else {
                    if (input[3] < 0.24545455) {
                        var6 = -0.13434249;
                    } else {
                        var6 = -0.018656757;
                    }
                }
            } else {
                if (input[1] < 0.95757574) {
                    if (input[2] < 122.0) {
                        var6 = -0.031609777;
                    } else {
                        var6 = 0.03104664;
                    }
                } else {
                    if (input[4] < 301.8) {
                        var6 = -0.044229656;
                    } else {
                        var6 = 0.019499088;
                    }
                }
            }
        }
    } else {
        if (input[4] < 467.9) {
            if (input[5] < 0.6333333) {
                if (input[5] < 0.43939394) {
                    if (input[5] < 0.15454546) {
                        var6 = -0.02556103;
                    } else {
                        var6 = 0.019203184;
                    }
                } else {
                    if (input[4] < 418.0) {
                        var6 = -0.017900128;
                    } else {
                        var6 = -0.0513665;
                    }
                }
            } else {
                if (input[3] < 0.96363634) {
                    if (input[0] < 5.4) {
                        var6 = 0.055528216;
                    } else {
                        var6 = 0.016425345;
                    }
                } else {
                    if (input[2] < 620.1) {
                        var6 = -0.0066476585;
                    } else {
                        var6 = -0.059192006;
                    }
                }
            }
        } else {
            if (input[5] < 0.96363634) {
                if (input[5] < 0.15454546) {
                    if (input[4] < 536.6) {
                        var6 = -0.09117458;
                    } else {
                        var6 = -0.050975222;
                    }
                } else {
                    if (input[0] < 626.0) {
                        var6 = 0.013640233;
                    } else {
                        var6 = 0.018569175;
                    }
                }
            } else {
                if (input[3] < 0.96363634) {
                    if (input[3] < 0.8060606) {
                        var6 = -0.16099788;
                    } else {
                        var6 = 0.01794375;
                    }
                } else {
                    if (input[0] < 800.7) {
                        var6 = -0.11530972;
                    } else {
                        var6 = 0.0677711;
                    }
                }
            }
        }
    }
    double var7;
    if (input[2] < 428.8) {
        if (input[0] < 358.0) {
            if (input[4] < 554.4) {
                if (input[1] < 0.75454545) {
                    if (input[5] < 0.830303) {
                        var7 = -0.012509849;
                    } else {
                        var7 = 0.07056863;
                    }
                } else {
                    if (input[5] < 0.4212121) {
                        var7 = 0.13207816;
                    } else {
                        var7 = -0.009859836;
                    }
                }
            } else {
                if (input[5] < 0.15454546) {
                    if (input[4] < 605.6) {
                        var7 = -0.051716417;
                    } else {
                        var7 = -0.09059333;
                    }
                } else {
                    if (input[5] < 0.96363634) {
                        var7 = 0.0069473344;
                    } else {
                        var7 = -0.05828621;
                    }
                }
            }
        } else {
            if (input[5] < 0.6) {
                if (input[1] < 0.43939394) {
                    if (input[3] < 0.15454546) {
                        var7 = -0.02369283;
                    } else {
                        var7 = 0.013635618;
                    }
                } else {
                    if (input[3] < 0.11212121) {
                        var7 = -0.04345499;
                    } else {
                        var7 = -0.012633191;
                    }
                }
            } else {
                if (input[1] < 0.95757574) {
                    if (input[2] < 122.0) {
                        var7 = -0.032037318;
                    } else {
                        var7 = 0.026801065;
                    }
                } else {
                    if (input[4] < 343.1) {
                        var7 = -0.030953126;
                    } else {
                        var7 = 0.022547318;
                    }
                }
            }
        }
    } else {
        if (input[4] < 472.3) {
            if (input[5] < 0.6333333) {
                if (input[5] < 0.43939394) {
                    if (input[5] < 0.21818182) {
                        var7 = -0.010280265;
                    } else {
                        var7 = 0.018055454;
                    }
                } else {
                    if (input[4] < 454.4) {
                        var7 = -0.014434149;
                    } else {
                        var7 = -0.08507943;
                    }
                }
            } else {
                if (input[3] < 0.96363634) {
                    if (input[4] < 5.4) {
                        var7 = -0.04193952;
                    } else {
                        var7 = 0.013890632;
                    }
                } else {
                    if (input[5] < 0.93939394) {
                        var7 = 0.017349634;
                    } else {
                        var7 = -0.02658257;
                    }
                }
            }
        } else {
            if (input[0] < 2.6) {
                if (input[4] < 675.4) {
                    var7 = -0.10541786;
                } else {
                    var7 = -0.029994424;
                }
            } else {
                if (input[5] < 0.43939394) {
                    if (input[0] < 5.4) {
                        var7 = 0.07427636;
                    } else {
                        var7 = 0.013590855;
                    }
                } else {
                    if (input[5] < 0.59090906) {
                        var7 = -0.1880994;
                    } else {
                        var7 = 0.01300752;
                    }
                }
            }
        }
    }
    double var8;
    if (input[2] < 315.4) {
        if (input[5] < 0.1969697) {
            if (input[4] < 343.1) {
                if (input[0] < 242.3) {
                    if (input[4] < 78.2) {
                        var8 = -0.009752509;
                    } else {
                        var8 = -0.014157267;
                    }
                } else {
                    if (input[2] < 249.9) {
                        var8 = -0.034385912;
                    } else {
                        var8 = -0.0035030486;
                    }
                }
            } else {
                if (input[3] < 0.2060606) {
                    if (input[3] < 0.1969697) {
                        var8 = -0.04247555;
                    } else {
                        var8 = -0.0032594951;
                    }
                } else {
                    if (input[5] < 0.15454546) {
                        var8 = -0.08096939;
                    } else {
                        var8 = 0.01836337;
                    }
                }
            }
        } else {
            if (input[5] < 0.38787878) {
                if (input[2] < 3.3) {
                    if (input[5] < 0.23030303) {
                        var8 = 0.009610837;
                    } else {
                        var8 = 0.10843191;
                    }
                } else {
                    if (input[0] < 213.9) {
                        var8 = -0.007926232;
                    } else {
                        var8 = 0.017779335;
                    }
                }
            } else {
                if (input[5] < 0.96363634) {
                    if (input[4] < 692.2) {
                        var8 = -0.008509328;
                    } else {
                        var8 = 0.01716882;
                    }
                } else {
                    if (input[4] < 454.4) {
                        var8 = -0.017881393;
                    } else {
                        var8 = -0.04348716;
                    }
                }
            }
        }
    } else {
        if (input[4] < 472.3) {
            if (input[5] < 0.59090906) {
                if (input[5] < 0.43939394) {
                    if (input[5] < 0.15454546) {
                        var8 = -0.015048607;
                    } else {
                        var8 = 0.011351565;
                    }
                } else {
                    if (input[4] < 467.9) {
                        var8 = -0.010020442;
                    } else {
                        var8 = -0.1186176;
                    }
                }
            } else {
                if (input[1] < 0.96363634) {
                    if (input[4] < 5.4) {
                        var8 = -0.032271918;
                    } else {
                        var8 = 0.011430915;
                    }
                } else {
                    if (input[3] < 0.93030304) {
                        var8 = 0.12840088;
                    } else {
                        var8 = -0.036743667;
                    }
                }
            }
        } else {
            if (input[5] < 0.15454546) {
                if (input[0] < 3.2) {
                    if (input[0] < 2.6) {
                        var8 = -0.019260585;
                    } else {
                        var8 = -0.08408626;
                    }
                } else {
                    if (input[2] < 748.8) {
                        var8 = -0.04279659;
                    } else {
                        var8 = -0.021065455;
                    }
                }
            } else {
                if (input[5] < 0.96363634) {
                    if (input[0] < 3.2) {
                        var8 = 0.032873508;
                    } else {
                        var8 = 0.0077392054;
                    }
                } else {
                    if (input[3] < 0.96363634) {
                        var8 = -0.0014209503;
                    } else {
                        var8 = -0.0677324;
                    }
                }
            }
        }
    }
    double var9;
    if (input[2] < 462.7) {
        if (input[0] < 405.0) {
            if (input[2] < 405.0) {
                if (input[4] < 554.4) {
                    if (input[1] < 0.6212121) {
                        var9 = -0.0064325235;
                    } else {
                        var9 = -0.0045092315;
                    }
                } else {
                    if (input[5] < 0.6272727) {
                        var9 = -0.013254624;
                    } else {
                        var9 = 0.025551753;
                    }
                }
            } else {
                if (input[4] < 515.7) {
                    if (input[3] < 0.2090909) {
                        var9 = -0.022071607;
                    } else {
                        var9 = -0.0009896323;
                    }
                } else {
                    if (input[0] < 277.1) {
                        var9 = -0.038525574;
                    } else {
                        var9 = -0.010636883;
                    }
                }
            }
        } else {
            if (input[5] < 0.59090906) {
                if (input[5] < 0.43939394) {
                    if (input[5] < 0.2060606) {
                        var9 = -0.009609639;
                    } else {
                        var9 = 0.011474244;
                    }
                } else {
                    if (input[3] < 0.57272726) {
                        var9 = -0.0063209175;
                    } else {
                        var9 = -0.07679385;
                    }
                }
            } else {
                if (input[1] < 0.96363634) {
                    if (input[2] < 405.0) {
                        var9 = 0.02436176;
                    } else {
                        var9 = 0.006384274;
                    }
                } else {
                    if (input[4] < 343.1) {
                        var9 = -0.026487963;
                    } else {
                        var9 = 0.02496786;
                    }
                }
            }
        }
    } else {
        if (input[4] < 472.3) {
            if (input[5] < 0.58484846) {
                if (input[5] < 0.5272727) {
                    if (input[3] < 0.11212121) {
                        var9 = -0.018074282;
                    } else {
                        var9 = 0.0007337175;
                    }
                } else {
                    if (input[0] < 301.8) {
                        var9 = 0.0025586407;
                    } else {
                        var9 = -0.074166805;
                    }
                }
            } else {
                if (input[5] < 0.95757574) {
                    if (input[1] < 0.6636364) {
                        var9 = 0.023081018;
                    } else {
                        var9 = 0.0048284666;
                    }
                } else {
                    if (input[2] < 663.6) {
                        var9 = -0.0018339517;
                    } else {
                        var9 = -0.083369166;
                    }
                }
            }
        } else {
            if (input[5] < 0.75757575) {
                if (input[3] < 0.7878788) {
                    if (input[5] < 0.43939394) {
                        var9 = 0.007805875;
                    } else {
                        var9 = -0.0003558124;
                    }
                } else {
                    if (input[5] < 0.43939394) {
                        var9 = -0.01568204;
                    } else {
                        var9 = -0.11504749;
                    }
                }
            } else {
                if (input[5] < 0.96363634) {
                    if (input[0] < 3.2) {
                        var9 = 0.075817436;
                    } else {
                        var9 = 0.008088254;
                    }
                } else {
                    if (input[3] < 0.8060606) {
                        var9 = -0.11018554;
                    } else {
                        var9 = -0.008356836;
                    }
                }
            }
        }
    }
    return 0.5 + (var0 + var1 + var2 + var3 + var4 + var5 + var6 + var7 + var8 + var9);
}
