{"learner":{"attributes":{"scikit_learn":"{\"_estimator_type\": \"regressor\"}"},"feature_names":[],"feature_types":[],"gradient_booster":{"model":{"gbtree_model_param":{"num_parallel_tree":"1","num_trees":"10"},"iteration_indptr":[0,1,2,3,4,5,6,7,8,9,10],"tree_info":[0,0,0,0,0,0,0,0,0,0],"trees":[{"base_weights":[-8.434538E-2,-4.483915E-1,3.907178E-1,-4.7069302E-1,-2.2192091E-1,-1.9729276E-1,4.3829134E-1,-4.8113984E-1,-3.238282E-1,3.547643E-2,-3.0273044E-1,-3.388955E-1,2.7877057E-1,-3.3104476E-2,4.5635268E-1,-4.8534772E-1,-2.8869327E-2,-4.0436363E-1,-5.77579E-2,-1.4895105E-1,1.418228E-1,-4.9343866E-1,-4.813946E-2,1.1048887E-1,-1.4928198E-1,4.242684E-1,-3.302034E-1,-3.4261477E-1,7.0765816E-2,-1.4117648E-1,4.56914E-1,-1.4676324E-1,-1.13004185E-1,-5.5997252E-2,9.1722E-2,-3.8559794E-2,-1.4878531E-1,5.938812E-3,-1.482353E-1,-3.7144583E-2,9.860902E-2,-1.4934859E-1,-9.562855E-2,-6.869797E-2,8.504081E-2,-1.4895834E-1,1.1524689E-1,-1.4347827E-1,1.4241743E-1,-1.292692E-1,-4.4782273E-2,-1.23470895E-1,1.9196017E-2,2.906864E-2,-1.3342509E-1,7.840392E-2,1.3785869E-1],"categories":[],"categories_nodes":[],"categories_segments":[],"categories_sizes":[],"default_left":[0,0,0,0,0,0,0,0,0,0,0,0,0,0,0,0,0,0,0,0,0,0,0,0,0,0,0,0,0,0,0,0,0,0,0,0,0,0,0,0,0,0,0,0,0,0,0,0,0,0,0,0,0,0,0,0,0],"id":0,"left_children":[1,3,5,7,9,11,13,15,17,19,21,23,25,27,29,31,33,35,37,-1,39,41,43,45,-1,47,49,51,53,-1,55,-1,-1,-1,-1,-1,-1,-1,-1,-1,-1,-1,-1,-1,-1,-1,-1,-1,-1,-1,-1,-1,-1,-1,-1,-1,-1],"loss_changes":[1.2202821E4,2.0165332E2,8.5641846E2,5.5638184E1,7.4537704E1,1.5460245E2,2.4114209E2,6.4592285E1,5.1789703E1,4.8554447E1,1.3237915E2,1.2608145E2,4.674601E1,3.3652023E1,1.4406738E1,1.3935547E1,1.663545E1,4.682373E1,1.9062498E1,0E0,3.553389E1,1.0368042E0,7.0173004E1,7.69385E1,0E0,1.9580833E1,1.7939615E0,7.4001045E0,1.0603772E1,0E0,1.38203125E1,0E0,0E0,0E0,0E0,0E0,0E0,0E0,0E0,0E0,0E0,0E0,0E0,0E0,0E0,0E0,0E0,0E0,0E0,0E0,0E0,0E0,0E0,0E0,0E0,0E0,0E0],"parents":[2147483647,0,0,1,1,2,2,3,3,4,4,5,5,6,6,7,7,8,8,9,9,10,10,11,11,12,12,13,13,14,14,15,15,16,16,17,17,18,18,20,20,21,21,22,22,23,23,25,25,26,26,27,27,28,28,30,30],"right_children":[2,4,6,8,10,12,14,16,18,20,22,24,26,28,30,32,34,36,38,-1,40,42,44,46,-1,48,50,52,54,-1,56,-1,-1,-1,-1,-1,-1,-1,-1,-1,-1,-1,-1,-1,-1,-1,-1,-1,-1,-1,-1,-1,-1,-1,-1,-1,-1],"split_conditions":[4.05E2,2.424E2,4.18E2,2.423E2,4.3939394E-1,5.8484846E-1,3.431E2,6.086E2,6.272727E-1,1.5454546E-1,6.484848E-1,4.2727274E-1,9.5757574E-1,4.764E2,1.5454546E-1,3.018E2,6.272727E-1,4.3939394E-1,9.3030304E-1,-1.4895105E-1,2.67E2,6.333333E-1,2.887E2,1.5454546E-1,-1.4928198E-1,5.4E0,3.287E2,5.7272726E-1,8.007E2,-1.4117648E-1,4.05E2,-1.4676324E-1,-1.13004185E-1,-5.5997252E-2,9.1722E-2,-3.8559794E-2,-1.4878531E-1,5.938812E-3,-1.482353E-1,-3.7144583E-2,9.860902E-2,-1.4934859E-1,-9.562855E-2,-6.869797E-2,8.504081E-2,-1.4895834E-1,1.1524689E-1,-1.4347827E-1,1.4241743E-1,-1.292692E-1,-4.4782273E-2,-1.23470895E-1,1.9196017E-2,2.906864E-2,-1.3342509E-1,7.840392E-2,1.3785869E-1],"split_indices":[2,2,4,0,5,5,0,4,3,3,3,5,3,4,5,4,5,3,3,0,0,3,0,5,0,4,4,3,4,0,0,0,0,0,0,0,0,0,0,0,0,0,0,0,0,0,0,0,0,0,0,0,0,0,0,0,0],"split_type":[0,0,0,0,0,0,0,0,0,0,0,0,0,0,0,0,0,0,0,0,0,0,0,0,0,0,0,0,0,0,0,0,0,0,0,0,0,0,0,0,0,0,0,0,0,0,0,0,0,0,0,0,0,0,0,0,0],"sum_hessian":[7.0557E4,3.9946E4,3.0611E4,3.6364E4,3.582E3,2.291E3,2.832E4,3.3947E4,2.417E3,8.56E2,2.726E3,1.766E3,5.25E2,1.045E3,2.7275E4,3.3634E4,3.13E2,1.855E3,5.62E2,1.42E2,7.14E2,1.558E3,1.168E3,4.61E2,1.305E3,4.24E2,1.01E2,2.62E2,7.83E2,1.6E1,2.7259E4,3.2476E4,1.158E3,2.13E2,1E2,4.63E2,1.392E3,4.78E2,8.4E1,2.95E2,4.19E2,1.518E3,4E1,7.56E2,4.12E2,1.43E2,3.18E2,2.2E1,4.02E2,6.4E1,3.7E1,2.24E2,3.8E1,7.46E2,3.7E1,3.61E2,2.6898E4],"tree_param":{"num_deleted":"0","num_feature":"6","num_nodes":"57","size_leaf_vector":"1"}},{"base_weights":[-5.9061058E-2,-3.120564E-1,2.7641097E-1,-3.380329E-1,-1.3179445E-1,-1.5083563E-1,3.067992E-1,-3.438223E-1,-2.9660556E-1,-2.2495027E-1,1.861364E-1,-2.322529E-1,-7.508654E-3,-3.3325833E-4,3.2053062E-1,-3.4676948E-1,-2.7086395E-1,-2.0934533E-1,-3.1468248E-1,7.746486E-2,-3.4624663E-1,2.695908E-1,-3.096784E-1,-3.243791E-3,-3.800344E-1,4.018631E-1,-6.707683E-2,-1.6014051E-1,1.13493256E-1,-1.0131489E-1,3.2093182E-1,-1.0496067E-1,-1.0071058E-1,-8.636345E-2,-1.0489209E-2,-1.0544137E-1,-4.3519307E-2,-9.589892E-2,-4.777885E-2,-1.1473814E-1,7.231081E-2,-5.4722264E-2,-1.0419035E-1,-1.0531322E-1,8.846767E-2,-1.02639E-1,8.833059E-2,-3.9567564E-2,1.2183535E-1,-1.1858526E-1,-1.0454873E-1,1.369721E-1,-1.0065603E-1,-8.706102E-3,-1.1746317E-1,-7.748246E-2,6.0895637E-2,3.6084604E-2,-9.8465495E-2,9.668063E-2,5.3347714E-2],"categories":[],"categories_nodes":[],"categories_segments":[],"categories_sizes":[],"default_left":[0,0,0,0,0,0,0,0,0,0,0,0,0,0,0,0,0,0,0,0,0,0,0,0,0,0,0,0,0,0,0,0,0,0,0,0,0,0,0,0,0,0,0,0,0,0,0,0,0,0,0,0,0,0,0,0,0,0,0,0,0],"id":1,"left_children":[1,3,5,7,9,11,13,15,17,19,21,23,25,27,29,31,33,35,37,39,41,43,45,47,49,51,53,55,57,-1,59,-1,-1,-1,-1,-1,-1,-1,-1,-1,-1,-1,-1,-1,-1,-1,-1,-1,-1,-1,-1,-1,-1,-1,-1,-1,-1,-1,-1,-1,-1],"loss_changes":[5.9885454E3,1.8830713E2,3.9389404E2,8.330322E0,1.5014134E2,2.3511879E1,1.1943994E2,6.5373535E0,6.745331E0,1.4381967E2,4.7626724E1,4.348741E1,1.7852777E1,2.208301E1,7.267578E0,8.9941406E-1,4.8143387E0,6.746189E0,2.7164001E0,8.457606E1,4.2007446E-1,1.5555229E1,3.355071E0,2.6648674E1,2.3786926E-1,3.905056E0,7.879059E0,1.8048164E1,2.165534E0,0E0,5.1262207E0,0E0,0E0,0E0,0E0,0E0,0E0,0E0,0E0,0E0,0E0,0E0,0E0,0E0,0E0,0E0,0E0,0E0,0E0,0E0,0E0,0E0,0E0,0E0,0E0,0E0,0E0,0E0,0E0,0E0,0E0],"parents":[2147483647,0,0,1,1,2,2,3,3,4,4,5,5,6,6,7,7,8,8,9,9,10,10,11,11,12,12,13,13,14,14,15,15,16,16,17,17,18,18,19,19,20,20,21,21,22,22,23,23,24,24,25,25,26,26,27,27,28,28,30,30],"right_children":[2,4,6,8,10,12,14,16,18,20,22,24,26,28,30,32,34,36,38,40,42,44,46,48,50,52,54,56,58,-1,60,-1,-1,-1,-1,-1,-1,-1,-1,-1,-1,-1,-1,-1,-1,-1,-1,-1,-1,-1,-1,-1,-1,-1,-1,-1,-1,-1,-1,-1,-1],"split_conditions":[4.18E2,2.771E2,4.05E2,1.925E2,6.151515E-1,6.272727E-1,3.727E2,2.671E2,4.3939394E-1,4.4545454E-1,9.5757574E-1,4.3939394E-1,5.212121E-1,1.768E2,1.5454546E-1,1.478E2,6.086E2,2.3030303E-1,9E-1,1.969697E-1,4.5454547E-1,5.4E0,3.581E2,4.2424244E-1,4.455E2,9.6363634E-1,9.6363634E-1,6.333333E-1,6.754E2,-1.0131489E-1,8.007E2,-1.0496067E-1,-1.0071058E-1,-8.636345E-2,-1.0489209E-2,-1.0544137E-1,-4.3519307E-2,-9.589892E-2,-4.777885E-2,-1.1473814E-1,7.231081E-2,-5.4722264E-2,-1.0419035E-1,-1.0531322E-1,8.846767E-2,-1.02639E-1,8.833059E-2,-3.9567564E-2,1.2183535E-1,-1.1858526E-1,-1.0454873E-1,1.369721E-1,-1.0065603E-1,-8.706102E-3,-1.1746317E-1,-7.748246E-2,6.0895637E-2,3.6084604E-2,-9.8465495E-2,9.668063E-2,5.3347714E-2],"split_indices":[4,0,2,0,5,5,0,4,1,5,1,5,3,0,5,4,2,5,1,5,5,4,4,3,0,5,5,5,2,0,2,0,0,0,0,0,0,0,0,0,0,0,0,0,0,0,0,0,0,0,0,0,0,0,0,0,0,0,0,0,0],"split_type":[0,0,0,0,0,0,0,0,0,0,0,0,0,0,0,0,0,0,0,0,0,0,0,0,0,0,0,0,0,0,0,0,0,0,0,0,0,0,0,0,0,0,0,0,0,0,0,0,0,0,0,0,0,0,0,0,0,0,0,0,0],"sum_hessian":[7.0557E4,4.0223E4,3.0334E4,3.5156E4,5.067E3,2.014E3,2.832E4,3.0839E4,4.317E3,3.919E3,1.148E3,1.284E3,7.3E2,1.212E3,2.7108E4,2.9638E4,1.201E3,7.43E2,3.574E3,1.122E3,2.797E3,9.83E2,1.65E2,5.04E2,7.8E2,9.2E1,6.38E2,5.04E2,7.08E2,1.6E1,2.7092E4,2.313E4,6.508E3,1.12E3,8.1E1,2.3E2,5.13E2,3.462E3,1.12E2,2.94E2,8.28E2,1.9E1,2.778E3,3.8E1,9.45E2,1.57E2,8E0,3.84E2,1.2E2,5.18E2,2.62E2,8.6E1,6E0,5.72E2,6.6E1,3.97E2,1.07E2,6.98E2,1E1,2.684E4,2.52E2],"tree_param":{"num_deleted":"0","num_feature":"6","num_nodes":"61","size_leaf_vector":"1"}},{"base_weights":[-4.135817E-2,-2.1867687E-1,1.9376655E-1,-2.309428E-1,-9.213072E-2,-7.993658E-2,2.1652018E-1,-2.3719108E-1,-1.7008884E-1,-1.1734123E-1,1.3623475E-1,-1.6017874E-1,1.6739424E-1,1.9307248E-2,2.2510959E-1,-2.3925208E-1,-2.4340665E-2,-2.5870627E-1,-1.4251114E-1,1.31264925E-2,-1.5654515E-1,3.473232E-2,2.4840568E-1,8.974769E-2,-2.5675374E-1,2.337086E-1,-2.4253161E-1,-1.3061169E-1,8.138803E-2,2.065008E-1,2.3296477E-1,-7.229851E-2,-4.9693875E-2,5.7419494E-2,-3.366981E-2,-1.09389454E-1,-7.313529E-2,-5.3980857E-2,-6.9511137E-3,-4.774181E-2,2.9561501E-2,-7.320508E-2,-8.692507E-3,4.91158E-2,-7.230565E-2,9.132561E-2,-1.0296646E-1,-7.453163E-2,6.80095E-2,-7.536587E-2,-1.0979808E-1,-7.271022E-2,7.7592194E-2,-7.5496985E-3,-8.8943966E-2,3.9769858E-2,-6.257269E-2,2.9877068E-2,-7.356167E-2,6.3230634E-2,-1.382272E-1,-6.759602E-2,6.9944054E-2],"categories":[],"categories_nodes":[],"categories_segments":[],"categories_sizes":[],"default_left":[0,0,0,0,0,0,0,0,0,0,0,0,0,0,0,0,0,0,0,0,0,0,0,0,0,0,0,0,0,0,0,0,0,0,0,0,0,0,0,0,0,0,0,0,0,0,0,0,0,0,0,0,0,0,0,0,0,0,0,0,0,0,0],"id":2,"left_children":[1,3,5,7,9,11,13,15,17,19,21,23,25,27,29,31,33,35,37,39,41,43,45,47,49,51,53,55,57,59,61,-1,-1,-1,-1,-1,-1,-1,-1,-1,-1,-1,-1,-1,-1,-1,-1,-1,-1,-1,-1,-1,-1,-1,-1,-1,-1,-1,-1,-1,-1,-1,-1],"loss_changes":[2.941747E3,6.2414673E1,1.8893567E2,1.3902344E1,2.0488617E1,4.6248978E1,4.7437866E1,1.4581299E1,8.316261E0,1.6384903E1,4.0218816E0,4.2479412E1,1.55787325E1,1.0899919E1,3.875E0,4.1853027E0,6.0892367E0,1.1914062E0,1.1648499E1,1.0918417E1,2.747702E1,6.6907344E0,5.6718035E0,2.2796911E1,6.7523193E-1,5.9025E0,9.306607E-1,7.065454E0,4.9466505E0,2.2808594E1,1.626648E0,0E0,0E0,0E0,0E0,0E0,0E0,0E0,0E0,0E0,0E0,0E0,0E0,0E0,0E0,0E0,0E0,0E0,0E0,0E0,0E0,0E0,0E0,0E0,0E0,0E0,0E0,0E0,0E0,0E0,0E0,0E0,0E0],"parents":[2147483647,0,0,1,1,2,2,3,3,4,4,5,5,6,6,7,7,8,8,9,9,10,10,11,11,12,12,13,13,14,14,15,15,16,16,17,17,18,18,19,19,20,20,21,21,22,22,23,23,24,24,25,25,26,26,27,27,28,28,29,29,30,30],"right_children":[2,4,6,8,10,12,14,16,18,20,22,24,26,28,30,32,34,36,38,40,42,44,46,48,50,52,54,56,58,60,62,-1,-1,-1,-1,-1,-1,-1,-1,-1,-1,-1,-1,-1,-1,-1,-1,-1,-1,-1,-1,-1,-1,-1,-1,-1,-1,-1,-1,-1,-1,-1,-1],"split_conditions":[4.18E2,2.499E2,4.288E2,2.218E2,5.732E2,5.8484846E-1,3.892E2,6.056E2,8.53E1,4.2727274E-1,5.7272726E-1,4.3939394E-1,9.6363634E-1,5.295E2,6.171E2,3.728E2,4.3939394E-1,1.1212121E-1,3.152E2,2.3030303E-1,6.484848E-1,4.2424244E-1,9.6363634E-1,1.5454546E-1,4.18E2,5.4E0,9.3939394E-1,4.3030304E-1,8.007E2,8.007E2,1.5454546E-1,-7.229851E-2,-4.9693875E-2,5.7419494E-2,-3.366981E-2,-1.09389454E-1,-7.313529E-2,-5.3980857E-2,-6.9511137E-3,-4.774181E-2,2.9561501E-2,-7.320508E-2,-8.692507E-3,4.91158E-2,-7.230565E-2,9.132561E-2,-1.0296646E-1,-7.453163E-2,6.80095E-2,-7.536587E-2,-1.0979808E-1,-7.271022E-2,7.7592194E-2,-7.5496985E-3,-8.8943966E-2,3.9769858E-2,-6.257269E-2,2.9877068E-2,-7.356167E-2,6.3230634E-2,-1.382272E-1,-6.759602E-2,6.9944054E-2],"split_indices":[2,2,4,0,0,5,0,4,2,3,3,5,3,4,4,4,5,3,0,1,3,3,1,5,4,4,5,3,4,2,5,0,0,0,0,0,0,0,0,0,0,0,0,0,0,0,0,0,0,0,0,0,0,0,0,0,0,0,0,0,0,0,0],"split_type":[0,0,0,0,0,0,0,0,0,0,0,0,0,0,0,0,0,0,0,0,0,0,0,0,0,0,0,0,0,0,0,0,0,0,0,0,0,0,0,0,0,0,0,0,0,0,0,0,0,0,0,0,0,0,0,0,0,0,0,0,0,0,0],"sum_hessian":[7.0557E4,4.0223E4,3.0334E4,3.6668E4,3.555E3,2.328E3,2.8006E4,3.3251E4,3.417E3,3.202E3,3.53E2,1.758E3,5.7E2,1.169E3,2.6837E4,3.2932E4,3.19E2,8.09E2,2.608E3,7.4E2,2.462E3,1.86E2,1.67E2,4.9E2,1.268E3,4.91E2,7.9E1,3.42E2,8.27E2,7.974E3,1.8863E4,3.2168E4,7.64E2,9.2E1,2.27E2,9.7E1,7.12E2,1.985E3,6.23E2,2.45E2,4.95E2,1.46E3,1.002E3,1.27E2,5.9E1,1.53E2,1.4E1,1.41E2,3.49E2,1.21E3,5.8E1,2.4E1,4.67E2,1.6E1,6.3E1,7.8E1,2.64E2,7.84E2,4.3E1,7.924E3,5E1,7E0,1.8856E4],"tree_param":{"num_deleted":"0","num_feature":"6","num_nodes":"63","size_leaf_vector":"1"}},{"base_weights":[-2.8963469E-2,-1.5509863E-1,1.3305782E-1,-1.6398981E-1,-8.280654E-2,-5.742184E-2,1.5092933E-1,-1.6746378E-1,-6.615123E-2,-1.2503788E-1,7.507612E-2,-1.10817514E-1,1.13959216E-1,-2.195132E-2,1.5670021E-1,-1.7183626E-1,-1.5448539E-1,-1.17995836E-1,2.5524667E-2,3.344073E-2,-1.8426655E-1,1.251332E-1,-1.970873E-1,6.510526E-2,-1.7896134E-1,1.6732225E-1,-1.2904643E-1,-9.136645E-2,6.890471E-2,9.041669E-2,1.5868305E-1,-5.1821537E-2,-4.6437606E-2,-4.6914086E-2,-1.2127265E-2,1.4399356E-2,-7.00819E-2,9.427081E-2,-1.4948552E-2,-7.209269E-2,4.458931E-2,8.9560516E-2,-5.5373877E-2,-9.1155E-3,5.9341498E-2,-7.8017175E-2,1.3950538E-3,-3.9901868E-2,6.1976314E-2,-5.2649323E-2,-7.741695E-2,-5.3843196E-2,5.514963E-2,8.463748E-3,-5.5663858E-2,2.9884642E-2,-8.894926E-2,3.1218238E-2,-1.306187E-1,2.8332815E-2,-9.538542E-2,4.512032E-2,5.232172E-2],"categories":[],"categories_nodes":[],"categories_segments":[],"categories_sizes":[],"default_left":[0,0,0,0,0,0,0,0,0,0,0,0,0,0,0,0,0,0,0,0,0,0,0,0,0,0,0,0,0,0,0,0,0,0,0,0,0,0,0,0,0,0,0,0,0,0,0,0,0,0,0,0,0,0,0,0,0,0,0,0,0,0,0],"id":3,"left_children":[1,3,5,7,9,11,13,15,17,19,21,23,25,27,29,31,33,35,37,39,41,43,45,47,49,51,53,55,57,59,61,-1,-1,-1,-1,-1,-1,-1,-1,-1,-1,-1,-1,-1,-1,-1,-1,-1,-1,-1,-1,-1,-1,-1,-1,-1,-1,-1,-1,-1,-1,-1,-1],"loss_changes":[1.441985E3,2.5486755E1,1.05149536E2,1.1996094E1,2.8993425E1,2.4262796E1,2.8174744E1,1.9093628E0,5.7682805E0,3.2201782E1,1.2531225E1,2.4239502E1,8.191128E0,5.7643886E0,3.5769653E0,3.6547852E-1,1.8539429E0,1.4883938E1,9.56624E0,2.9487831E1,4.324875E-1,8.776197E0,1.8177953E0,1.5864027E1,3.5386276E-1,2.9931326E0,1.0181351E0,2.0322874E1,7.0660796E0,1.3387289E0,3.4284058E0,0E0,0E0,0E0,0E0,0E0,0E0,0E0,0E0,0E0,0E0,0E0,0E0,0E0,0E0,0E0,0E0,0E0,0E0,0E0,0E0,0E0,0E0,0E0,0E0,0E0,0E0,0E0,0E0,0E0,0E0,0E0,0E0],"parents":[2147483647,0,0,1,1,2,2,3,3,4,4,5,5,6,6,7,7,8,8,9,9,10,10,11,11,12,12,13,13,14,14,15,15,16,16,17,17,18,18,19,19,20,20,21,21,22,22,23,23,24,24,25,25,26,26,27,27,28,28,29,29,30,30],"right_children":[2,4,6,8,10,12,14,16,18,20,22,24,26,28,30,32,34,36,38,40,42,44,46,48,50,52,54,56,58,60,62,-1,-1,-1,-1,-1,-1,-1,-1,-1,-1,-1,-1,-1,-1,-1,-1,-1,-1,-1,-1,-1,-1,-1,-1,-1,-1,-1,-1,-1,-1,-1,-1],"split_conditions":[3.892E2,2.499E2,4.288E2,4.544E2,6.272727E-1,5.8484846E-1,3.152E2,1.597E2,6.272727E-1,4.3939394E-1,9.5151514E-1,4.3939394E-1,9.5757574E-1,6.333333E-1,4.288E2,1.996E2,9E-1,4.3939394E-1,5.212121E-1,1.969697E-1,3.6363637E-1,3.018E2,5.732E2,2.1212122E-1,4.18E2,5.4E0,9.5454544E-1,4.3030304E-1,9.6363634E-1,7.241E2,7.6363635E-1,-5.1821537E-2,-4.6437606E-2,-4.6914086E-2,-1.2127265E-2,1.4399356E-2,-7.00819E-2,9.427081E-2,-1.4948552E-2,-7.209269E-2,4.458931E-2,8.9560516E-2,-5.5373877E-2,-9.1155E-3,5.9341498E-2,-7.8017175E-2,1.3950538E-3,-3.9901868E-2,6.1976314E-2,-5.2649323E-2,-7.741695E-2,-5.3843196E-2,5.514963E-2,8.463748E-3,-5.5663858E-2,2.9884642E-2,-8.894926E-2,3.1218238E-2,-1.306187E-1,2.8332815E-2,-9.538542E-2,4.512032E-2,5.232172E-2],"split_indices":[2,0,4,4,3,5,0,0,5,3,1,5,3,5,0,4,1,5,3,3,5,0,0,5,4,4,1,5,3,2,5,0,0,0,0,0,0,0,0,0,0,0,0,0,0,0,0,0,0,0,0,0,0,0,0,0,0,0,0,0,0,0,0],"split_type":[0,0,0,0,0,0,0,0,0,0,0,0,0,0,0,0,0,0,0,0,0,0,0,0,0,0,0,0,0,0,0,0,0,0,0,0,0,0,0,0,0,0,0,0,0,0,0,0,0,0,0,0,0,0,0,0,0,0,0,0,0,0,0],"sum_hessian":[7.0557E4,3.9672E4,3.0885E4,3.5326E4,4.346E3,2.649E3,2.8236E4,3.4114E4,1.212E3,3.429E3,9.17E2,2.02E3,6.29E2,9.12E2,2.7324E4,2.5508E4,8.606E3,7.74E2,4.38E2,9.33E2,2.496E3,7.75E2,1.42E2,5.64E2,1.456E3,5.16E2,1.13E2,5.17E2,3.95E2,7.95E2,2.6529E4,2.4217E4,1.291E3,8.465E3,1.41E2,3.18E2,4.56E2,9E1,3.48E2,2.76E2,6.57E2,1E0,2.495E3,2.47E2,5.28E2,1.08E2,3.4E1,2.35E2,3.29E2,1.398E3,5.8E1,2.3E1,4.93E2,3E1,8.3E1,2.68E2,2.49E2,3.7E2,2.5E1,7.88E2,7E0,1.7383E4,9.146E3],"tree_param":{"num_deleted":"0","num_feature":"6","num_nodes":"63","size_leaf_vector":"1"}},{"base_weights":[-2.0280594E-2,-1.072379E-1,9.502486E-2,-1.1280032E-1,-3.1663798E-2,-2.47683E-2,1.0782375E-1,-1.1566929E-1,-7.205182E-2,-6.519971E-2,3.3511143E-2,-7.938853E-2,9.82608E-2,2.6825543E-2,1.1171621E-1,-1.17357746E-1,-4.6781655E-2,-1.0044705E-1,4.3897524E-2,2.343557E-2,-1.18494935E-1,-2.2923207E-2,1.4052847E-1,5.7593774E-2,-1.4283499E-1,1.2335014E-1,-1.3493228E-1,3.8964313E-2,-2.0796369E-1,1.1254588E-1,-3.0929439E-2,-3.6717415E-2,-3.3560727E-2,-1.1064788E-1,-7.2475285E-3,-6.2586414E-4,-4.0142573E-2,4.9310964E-2,-3.6611866E-2,-2.6119752E-2,2.3195127E-2,-3.534685E-2,-5.1522836E-2,-1.8321251E-3,-8.796387E-2,5.787839E-2,-7.0899315E-2,-4.5894288E-2,3.7097063E-2,-3.784011E-2,-9.5920496E-2,-3.7758205E-2,3.9324127E-2,1.3964127E-2,-5.6697927E-2,-2.9253452E-3,2.2542847E-2,-8.957967E-2,-5.037086E-3,3.2052834E-2,3.7296485E-2,1.3946206E-2,-1.1731868E-1],"categories":[],"categories_nodes":[],"categories_segments":[],"categories_sizes":[],"default_left":[0,0,0,0,0,0,0,0,0,0,0,0,0,0,0,0,0,0,0,0,0,0,0,0,0,0,0,0,0,0,0,0,0,0,0,0,0,0,0,0,0,0,0,0,0,0,0,0,0,0,0,0,0,0,0,0,0,0,0,0,0,0,0],"id":4,"left_children":[1,3,5,7,9,11,13,15,17,19,21,23,25,27,29,31,33,35,37,39,41,43,45,47,49,51,53,55,57,59,61,-1,-1,-1,-1,-1,-1,-1,-1,-1,-1,-1,-1,-1,-1,-1,-1,-1,-1,-1,-1,-1,-1,-1,-1,-1,-1,-1,-1,-1,-1,-1,-1],"loss_changes":[7.0747064E2,1.6905579E1,4.651288E1,4.371704E0,6.032534E0,1.9690321E1,8.637939E0,4.0654907E0,8.126779E0,8.60961E0,5.668229E0,1.764235E1,5.2880907E0,3.5934691E0,3.098297E0,9.3011475E-1,6.103782E0,6.5035877E0,9.735602E0,4.0852103E0,2.0490646E-2,2.7935226E0,6.443701E0,8.963831E0,4.0575047E0,1.5846443E0,8.7215805E-1,2.110389E0,1.0692627E0,1.7327576E0,4.2559896E0,0E0,0E0,0E0,0E0,0E0,0E0,0E0,0E0,0E0,0E0,0E0,0E0,0E0,0E0,0E0,0E0,0E0,0E0,0E0,0E0,0E0,0E0,0E0,0E0,0E0,0E0,0E0,0E0,0E0,0E0,0E0,0E0],"parents":[2147483647,0,0,1,1,2,2,3,3,4,4,5,5,6,6,7,7,8,8,9,9,10,10,11,11,12,12,13,13,14,14,15,15,16,16,17,17,18,18,19,19,20,20,21,21,22,22,23,23,24,24,25,25,26,26,27,27,28,28,29,29,30,30],"right_children":[2,4,6,8,10,12,14,16,18,20,22,24,26,28,30,32,34,36,38,40,42,44,46,48,50,52,54,56,58,60,62,-1,-1,-1,-1,-1,-1,-1,-1,-1,-1,-1,-1,-1,-1,-1,-1,-1,-1,-1,-1,-1,-1,-1,-1,-1,-1,-1,-1,-1,-1,-1,-1],"split_conditions":[4.18E2,2.771E2,4.544E2,2.67E2,6.151515E-1,5.8484846E-1,4.18E2,4.544E2,6.151515E-1,4.3939394E-1,4.288E2,4.3939394E-1,9.6363634E-1,7.241E2,9.6363634E-1,7.06E1,1.5454546E-1,4.3939394E-1,8.636364E-1,2.1515152E-1,5.807E2,9.4848484E-1,9.6363634E-1,1.5454546E-1,4.288E2,5.4E0,9.3939394E-1,6.333333E-1,5.945E2,7.7575755E-1,9.6363634E-1,-3.6717415E-2,-3.3560727E-2,-1.1064788E-1,-7.2475285E-3,-6.2586414E-4,-4.0142573E-2,4.9310964E-2,-3.6611866E-2,-2.6119752E-2,2.3195127E-2,-3.534685E-2,-5.1522836E-2,-1.8321251E-3,-8.796387E-2,5.787839E-2,-7.0899315E-2,-4.5894288E-2,3.7097063E-2,-3.784011E-2,-9.5920496E-2,-3.7758205E-2,3.9324127E-2,1.3964127E-2,-5.6697927E-2,-2.9253452E-3,2.2542847E-2,-8.957967E-2,-5.037086E-3,3.2052834E-2,3.7296485E-2,1.3946206E-2,-1.1731868E-1],"split_indices":[2,2,4,0,5,5,0,4,3,5,0,5,3,2,5,4,5,3,3,3,4,1,1,5,4,4,5,5,4,5,3,0,0,0,0,0,0,0,0,0,0,0,0,0,0,0,0,0,0,0,0,0,0,0,0,0,0,0,0,0,0,0,0],"split_type":[0,0,0,0,0,0,0,0,0,0,0,0,0,0,0,0,0,0,0,0,0,0,0,0,0,0,0,0,0,0,0,0,0,0,0,0,0,0,0,0,0,0,0,0,0,0,0,0,0,0,0,0,0,0,0,0,0,0,0,0,0,0,0],"sum_hessian":[7.0557E4,4.0223E4,3.0334E4,3.7465E4,2.758E3,2.928E3,2.7406E4,3.4999E4,2.466E3,1.821E3,9.37E2,2.028E3,9E2,1.257E3,2.6149E4,3.4161E4,8.38E2,1.981E3,4.85E2,6.84E2,1.137E3,6.14E2,3.23E2,6.42E2,1.386E3,8.13E2,8.7E1,1.196E3,6.1E1,2.5998E4,1.51E2,1.7808E4,1.6353E4,5.4E1,7.84E2,5.02E2,1.479E3,2.81E2,2.04E2,2.24E2,4.6E2,1.126E3,1.1E1,5.79E2,3.5E1,2.84E2,3.9E1,1.53E2,4.89E2,1.268E3,1.18E2,2.4E1,7.89E2,2E1,6.7E1,5.1E2,6.86E2,4.1E1,2E1,1.7522E4,8.476E3,1.25E2,2.6E1],"tree_param":{"num_deleted":"0","num_feature":"6","num_nodes":"63","size_leaf_vector":"1"}},{"base_weights":[-1.4206354E-2,-7.6564975E-2,6.46364E-2,-8.1606925E-2,-4.4982474E-2,-1.3210257E-2,7.576069E-2,-8.268154E-2,-4.49666E-3,2.5697712E-2,-6.2899284E-2,-5.677348E-2,7.0054494E-2,-3.2152972E-1,7.621013E-2,-8.373458E-2,-6.62001E-2,-5.9739493E-2,1.20214574E-1,-1.1368385E-1,1.2157673E-1,-9.684788E-2,-7.1222507E-3,4.5588803E-2,-1.0429145E-1,8.492945E-2,-1.1311507E-1,-1.2068205E-1,-7.480841E-2,3.2985076E-2,7.948904E-2,-2.4982749E-2,-4.6420045E-2,-7.861002E-3,-2.4875192E-2,3.8142554E-2,-5.407499E-2,7.414671E-2,-8.024226E-2,-4.868307E-2,-8.068323E-3,3.547243E-3,3.98712E-2,-3.2365922E-2,-2.392044E-2,1.0594298E-2,-1.6838895E-2,-2.3243772E-2,3.357937E-2,-2.6202828E-2,-7.7724285E-2,2.7704882E-2,-5.9350606E-2,-1.1334278E-2,-7.622829E-2,1.1086283E-2,-5.6552798E-2,2.7232016E-2,2.1664154E-2],"categories":[],"categories_nodes":[],"categories_segments":[],"categories_sizes":[],"default_left":[0,0,0,0,0,0,0,0,0,0,0,0,0,0,0,0,0,0,0,0,0,0,0,0,0,0,0,0,0,0,0,0,0,0,0,0,0,0,0,0,0,0,0,0,0,0,0,0,0,0,0,0,0,0,0,0,0,0,0],"id":5,"left_children":[1,3,5,7,9,11,13,15,17,19,21,23,25,27,29,31,33,35,37,39,41,43,45,47,49,51,53,-1,-1,55,57,-1,-1,-1,-1,-1,-1,-1,-1,-1,-1,-1,-1,-1,-1,-1,-1,-1,-1,-1,-1,-1,-1,-1,-1,-1,-1,-1,-1],"loss_changes":[3.4690518E2,6.269943E0,2.6986084E1,2.8147583E0,6.872904E0,1.4139491E1,4.8927917E0,5.759735E-1,3.231422E0,1.4687238E1,8.196495E0,1.2451852E1,3.657899E0,8.033013E-2,3.8574219E0,1.0127869E0,1.3464622E0,7.3422937E0,7.152873E0,1.885014E0,8.0774784E-1,4.997368E-1,3.4106205E0,6.638354E0,4.5632114E0,2.6178875E0,1.0630757E0,0E0,0E0,1.6967044E0,2.0716248E0,0E0,0E0,0E0,0E0,0E0,0E0,0E0,0E0,0E0,0E0,0E0,0E0,0E0,0E0,0E0,0E0,0E0,0E0,0E0,0E0,0E0,0E0,0E0,0E0,0E0,0E0,0E0,0E0],"parents":[2147483647,0,0,1,1,2,2,3,3,4,4,5,5,6,6,7,7,8,8,9,9,10,10,11,11,12,12,13,13,14,14,15,15,16,16,17,17,18,18,19,19,20,20,21,21,22,22,23,23,24,24,25,25,26,26,29,29,30,30],"right_children":[2,4,6,8,10,12,14,16,18,20,22,24,26,28,30,32,34,36,38,40,42,44,46,48,50,52,54,-1,-1,56,58,-1,-1,-1,-1,-1,-1,-1,-1,-1,-1,-1,-1,-1,-1,-1,-1,-1,-1,-1,-1,-1,-1,-1,-1,-1,-1,-1,-1],"split_conditions":[3.728E2,2.218E2,4.679E2,5.544E2,4.3939394E-1,6.333333E-1,1.5454546E-1,2.499E2,6.272727E-1,2.3030303E-1,6.272727E-1,4.3939394E-1,9.6363634E-1,5.366E2,4.455E2,2.424E2,4.2727274E-1,4.3939394E-1,9.5757574E-1,1.969697E-1,2.31E2,2.499E2,1.996E2,2.090909E-1,4.288E2,9.6363634E-1,6.086E2,-1.2068205E-1,-7.480841E-2,7.689E2,4.3939394E-1,-2.4982749E-2,-4.6420045E-2,-7.861002E-3,-2.4875192E-2,3.8142554E-2,-5.407499E-2,7.414671E-2,-8.024226E-2,-4.868307E-2,-8.068323E-3,3.547243E-3,3.98712E-2,-3.2365922E-2,-2.392044E-2,1.0594298E-2,-1.6838895E-2,-2.3243772E-2,3.357937E-2,-2.6202828E-2,-7.7724285E-2,2.7704882E-2,-5.9350606E-2,-1.1334278E-2,-7.622829E-2,1.1086283E-2,-5.6552798E-2,2.7232016E-2,2.1664154E-2],"split_indices":[2,0,4,4,3,5,5,4,5,3,1,5,3,4,0,2,5,5,5,5,0,2,4,5,4,1,2,0,0,2,5,0,0,0,0,0,0,0,0,0,0,0,0,0,0,0,0,0,0,0,0,0,0,0,0,0,0,0,0],"split_type":[0,0,0,0,0,0,0,0,0,0,0,0,0,0,0,0,0,0,0,0,0,0,0,0,0,0,0,0,0,0,0,0,0,0,0,0,0,0,0,0,0,0,0,0,0,0,0,0,0,0,0,0,0,0,0,0,0,0,0],"sum_hessian":[7.0557E4,3.9397E4,3.116E4,3.3972E4,5.425E3,3.896E3,2.7264E4,3.3505E4,4.67E2,1.097E3,4.328E3,2.558E3,1.338E3,3E1,2.7234E4,3.1489E4,2.016E3,3.24E2,1.43E2,4.47E2,6.5E2,2.69E3,1.638E3,8.11E2,1.747E3,1.238E3,1E2,1.2E1,1.8E1,1.921E3,2.5313E4,3.1289E4,2E2,5.95E2,1.421E3,1.27E2,1.97E2,1.08E2,3.5E1,2.86E2,1.61E2,6.1E1,5.89E2,1.632E3,1.058E3,8.78E2,7.6E2,2.84E2,5.27E2,1.576E3,1.71E2,1.207E3,3.1E1,6.6E1,3.4E1,1.888E3,3.3E1,9.918E3,1.5395E4],"tree_param":{"num_deleted":"0","num_feature":"6","num_nodes":"59","size_leaf_vector":"1"}},{"base_weights":[-9.953042E-3,-5.2277733E-2,4.706025E-2,-5.6128047E-2,-1.5445105E-2,-7.947841E-3,5.367751E-2,-5.7324983E-2,-1.0026082E-2,-3.8273655E-2,6.157005E-2,-4.1785676E-2,5.022119E-2,5.4463875E-2,-6.574369E-2,-5.8975857E-2,-4.8333786E-2,-3.11485E-1,3.5338984E-3,2.4961367E-2,-6.2579185E-2,9.250251E-2,-1.2183034E-1,3.0921793E-2,-7.794886E-2,6.1360124E-2,-7.7123374E-2,-2.3122402E-1,5.4772917E-2,1.0929939E-2,-2.96013E-1,-1.8087033E-2,-1.5983982E-2,-3.6648232E-3,-1.6907442E-2,-6.632492E-2,-1.262366E-1,3.2849282E-2,-8.142266E-3,-2.2413628E-2,2.916266E-2,-1.3434249E-1,-1.8656757E-2,-3.1609777E-2,3.104664E-2,-4.4229656E-2,1.9499088E-2,-2.556103E-2,1.9203184E-2,-1.7900128E-2,-5.13665E-2,5.5528216E-2,1.6425345E-2,-6.6476585E-3,-5.9192006E-2,-9.117458E-2,-5.0975222E-2,1.3640233E-2,1.8569175E-2,-1.6099788E-1,1.794375E-2,-1.1530972E-1,6.77711E-2],"categories":[],"categories_nodes":[],"categories_segments":[],"categories_sizes":[],"default_left":[0,0,0,0,0,0,0,0,0,0,0,0,0,0,0,0,0,0,0,0,0,0,0,0,0,0,0,0,0,0,0,0,0,0,0,0,0,0,0,0,0,0,0,0,0,0,0,0,0,0,0,0,0,0,0,0,0,0,0,0,0,0,0],"id":6,"left_children":[1,3,5,7,9,11,13,15,17,19,21,23,25,27,29,31,33,35,37,39,41,43,45,47,49,51,53,55,57,59,61,-1,-1,-1,-1,-1,-1,-1,-1,-1,-1,-1,-1,-1,-1,-1,-1,-1,-1,-1,-1,-1,-1,-1,-1,-1,-1,-1,-1,-1,-1,-1,-1],"loss_changes":[1.7026385E2,5.742157E0,1.0943443E1,2.0225372E0,6.7430816E0,6.357785E0,2.523613E0,5.2758026E-1,3.7986455E0,4.547891E0,4.986513E0,5.3715105E0,1.6898904E0,2.3664856E0,3.1106179E0,2.2276306E-1,1.6075296E0,3.0222178E-1,2.8958402E0,5.9266143E0,2.9321194E-1,1.6434569E0,6.170392E-1,2.614475E0,2.3156652E0,8.836713E-1,6.297863E-1,7.7596545E-2,1.7627563E0,3.5921865E0,2.1157916E0,0E0,0E0,0E0,0E0,0E0,0E0,0E0,0E0,0E0,0E0,0E0,0E0,0E0,0E0,0E0,0E0,0E0,0E0,0E0,0E0,0E0,0E0,0E0,0E0,0E0,0E0,0E0,0E0,0E0,0E0,0E0,0E0],"parents":[2147483647,0,0,1,1,2,2,3,3,4,4,5,5,6,6,7,7,8,8,9,9,10,10,11,11,12,12,13,13,14,14,15,15,16,16,17,17,18,18,19,19,20,20,21,21,22,22,23,23,24,24,25,25,26,26,27,27,28,28,29,29,30,30],"right_children":[2,4,6,8,10,12,14,16,18,20,22,24,26,28,30,32,34,36,38,40,42,44,46,48,50,52,54,56,58,60,62,-1,-1,-1,-1,-1,-1,-1,-1,-1,-1,-1,-1,-1,-1,-1,-1,-1,-1,-1,-1,-1,-1,-1,-1,-1,-1,-1,-1,-1,-1,-1,-1],"split_conditions":[4.288E2,3.018E2,4.679E2,5.222E2,6.060606E-1,6.333333E-1,9.6363634E-1,1.885E2,1.5454546E-1,4.4545454E-1,9.5757574E-1,4.3939394E-1,9.6363634E-1,1.5454546E-1,9.6363634E-1,1.614E2,4.3939394E-1,6.056E2,4.3939394E-1,2.1515152E-1,2.4545455E-1,1.22E2,3.018E2,1.5454546E-1,4.18E2,5.4E0,6.201E2,5.366E2,6.26E2,8.060606E-1,8.007E2,-1.8087033E-2,-1.5983982E-2,-3.6648232E-3,-1.6907442E-2,-6.632492E-2,-1.262366E-1,3.2849282E-2,-8.142266E-3,-2.2413628E-2,2.916266E-2,-1.3434249E-1,-1.8656757E-2,-3.1609777E-2,3.104664E-2,-4.4229656E-2,1.9499088E-2,-2.556103E-2,1.9203184E-2,-1.7900128E-2,-5.13665E-2,5.5528216E-2,1.6425345E-2,-6.6476585E-3,-5.9192006E-2,-9.117458E-2,-5.0975222E-2,1.3640233E-2,1.8569175E-2,-1.6099788E-1,1.794375E-2,-1.1530972E-1,6.77711E-2],"split_indices":[2,0,4,4,5,5,5,0,5,5,1,5,3,5,3,4,1,4,5,3,3,2,4,5,4,0,2,4,0,3,0,0,0,0,0,0,0,0,0,0,0,0,0,0,0,0,0,0,0,0,0,0,0,0,0,0,0,0,0,0,0,0,0],"split_type":[0,0,0,0,0,0,0,0,0,0,0,0,0,0,0,0,0,0,0,0,0,0,0,0,0,0,0,0,0,0,0,0,0,0,0,0,0,0,0,0,0,0,0,0,0,0,0,0,0,0,0,0,0,0,0,0,0,0,0,0,0,0,0],"sum_hessian":[7.0557E4,4.0495E4,3.0062E4,3.6662E4,3.833E3,3.228E3,2.6834E4,3.5734E4,9.28E2,2.957E3,8.76E2,2.041E3,1.187E3,2.6659E4,1.75E2,3.0186E4,5.548E3,3.9E1,8.89E2,8.21E2,2.136E3,7.5E2,1.26E2,6.78E2,1.363E3,1.092E3,9.5E1,2.8E1,2.6631E4,1.32E2,4.3E1,2.4519E4,5.667E3,1.009E3,4.539E3,2.3E1,1.6E1,1.99E2,6.9E2,3.45E2,4.76E2,1E0,2.135E3,3.9E1,7.11E2,1.11E2,1.5E1,1.5E2,5.28E2,1.141E3,2.22E2,5.4E1,1.038E3,6.6E1,2.9E1,1.1E1,1.7E1,1.1551E4,1.508E4,1E1,1.22E2,3.7E1,6E0],"tree_param":{"num_deleted":"0","num_feature":"6","num_nodes":"63","size_leaf_vector":"1"}},{"base_weights":[-6.977956E-3,-3.6604144E-2,3.292987E-2,-3.909439E-2,-5.843225E-3,-4.5358934E-3,3.779968E-2,-3.9863355E-2,1.2303431E-3,-2.3532618E-2,5.252E-2,-3.1022713E-2,3.5923183E-2,-3.0106574E-1,3.7963912E-2,-4.1467335E-2,-3.151508E-2,-2.5429884E-1,1.2223097E-2,1.9555813E-2,-4.3690883E-2,8.0164984E-2,-8.591572E-2,2.2752263E-2,-5.8922555E-2,4.268087E-2,-5.2155416E-2,-1.0541786E-1,-2.9994424E-2,4.6765704E-2,3.230715E-2,-1.2509849E-2,7.056863E-2,1.3207816E-1,-9.859836E-3,-5.1716417E-2,-9.059333E-2,6.9473344E-3,-5.828621E-2,-2.369283E-2,1.3635618E-2,-4.345499E-2,-1.2633191E-2,-3.2037318E-2,2.6801065E-2,-3.0953126E-2,2.2547318E-2,-1.0280265E-2,1.8055454E-2,-1.4434149E-2,-8.507943E-2,-4.193952E-2,1.3890632E-2,1.7349634E-2,-2.658257E-2,7.427636E-2,1.3590855E-2,-1.880994E-1,1.300752E-2],"categories":[],"categories_nodes":[],"categories_segments":[],"categories_sizes":[],"default_left":[0,0,0,0,0,0,0,0,0,0,0,0,0,0,0,0,0,0,0,0,0,0,0,0,0,0,0,0,0,0,0,0,0,0,0,0,0,0,0,0,0,0,0,0,0,0,0,0,0,0,0,0,0,0,0,0,0,0,0],"id":7,"left_children":[1,3,5,7,9,11,13,15,17,19,21,23,25,27,29,31,33,35,37,39,41,43,45,47,49,51,53,-1,-1,55,57,-1,-1,-1,-1,-1,-1,-1,-1,-1,-1,-1,-1,-1,-1,-1,-1,-1,-1,-1,-1,-1,-1,-1,-1,-1,-1,-1,-1],"loss_changes":[8.342312E1,3.1018524E0,5.485195E0,1.1617241E0,3.1335678E0,3.7078903E0,1.492073E0,4.9094772E-1,1.9750048E0,2.023796E0,2.708787E0,3.1384962E0,8.170655E-1,9.642732E-2,1.3225479E0,1.9905243E0,3.7935276E0,6.1199665E-2,1.5264766E0,1.8994336E0,2.4759245E-1,1.0195229E0,3.3583552E-1,1.5281575E0,3.3303413E0,8.4701085E-1,3.9804482E-1,0E0,0E0,3.04463E0,1.1800441E2,0E0,0E0,0E0,0E0,0E0,0E0,0E0,0E0,0E0,0E0,0E0,0E0,0E0,0E0,0E0,0E0,0E0,0E0,0E0,0E0,0E0,0E0,0E0,0E0,0E0,0E0,0E0,0E0],"parents":[2147483647,0,0,1,1,2,2,3,3,4,4,5,5,6,6,7,7,8,8,9,9,10,10,11,11,12,12,13,13,14,14,15,15,16,16,17,17,18,18,19,19,20,20,21,21,22,22,23,23,24,24,25,25,26,26,29,29,30,30],"right_children":[2,4,6,8,10,12,14,16,18,20,22,24,26,28,30,32,34,36,38,40,42,44,46,48,50,52,54,-1,-1,56,58,-1,-1,-1,-1,-1,-1,-1,-1,-1,-1,-1,-1,-1,-1,-1,-1,-1,-1,-1,-1,-1,-1,-1,-1,-1,-1,-1,-1],"split_conditions":[4.288E2,3.58E2,4.723E2,5.544E2,6E-1,6.333333E-1,2.6E0,7.5454545E-1,1.5454546E-1,4.3939394E-1,9.5757574E-1,4.3939394E-1,9.6363634E-1,6.754E2,4.3939394E-1,8.30303E-1,4.212121E-1,6.056E2,9.6363634E-1,1.5454546E-1,1.1212121E-1,1.22E2,3.431E2,2.1818182E-1,4.544E2,5.4E0,9.3939394E-1,-1.0541786E-1,-2.9994424E-2,5.4E0,5.9090906E-1,-1.2509849E-2,7.056863E-2,1.3207816E-1,-9.859836E-3,-5.1716417E-2,-9.059333E-2,6.9473344E-3,-5.828621E-2,-2.369283E-2,1.3635618E-2,-4.345499E-2,-1.2633191E-2,-3.2037318E-2,2.6801065E-2,-3.0953126E-2,2.2547318E-2,-1.0280265E-2,1.8055454E-2,-1.4434149E-2,-8.507943E-2,-4.193952E-2,1.3890632E-2,1.7349634E-2,-2.658257E-2,7.427636E-2,1.3590855E-2,-1.880994E-1,1.300752E-2],"split_indices":[2,0,4,4,5,5,0,1,5,1,1,5,3,4,5,5,5,4,5,3,3,2,4,5,4,4,5,0,0,0,5,0,0,0,0,0,0,0,0,0,0,0,0,0,0,0,0,0,0,0,0,0,0,0,0,0,0,0,0],"split_type":[0,0,0,0,0,0,0,0,0,0,0,0,0,0,0,0,0,0,0,0,0,0,0,0,0,0,0,0,0,0,0,0,0,0,0,0,0,0,0,0,0,0,0,0,0,0,0,0,0,0,0,0,0,0,0,0,0,0,0],"sum_hessian":[7.0557E4,4.0495E4,3.0062E4,3.7462E4,3.033E3,3.458E3,2.6604E4,3.6761E4,7.01E2,2.328E3,7.05E2,2.09E3,1.368E3,1.2E1,2.6592E4,3.0833E4,5.928E3,2.8E1,6.73E2,7.42E2,1.586E3,5.88E2,1.17E2,7.14E2,1.376E3,1.271E3,9.7E1,9E0,3E0,1.0401E4,1.6191E4,3.0808E4,2.5E1,1.6E1,5.912E3,1.2E1,1.6E1,6.4E2,3.3E1,1.54E2,5.88E2,2.3E1,1.563E3,2.7E1,5.61E2,1.06E2,1.1E1,2.83E2,4.31E2,1.314E3,6.2E1,2.4E1,1.247E3,2.4E1,7.3E1,7.4E1,1.0327E4,2.66E2,1.5925E4],"tree_param":{"num_deleted":"0","num_feature":"6","num_nodes":"59","size_leaf_vector":"1"}},{"base_weights":[-4.8908764E-3,-2.6999477E-2,2.135056E-2,-4.500223E-2,-2.5919989E-2,-2.2304459E-3,2.5639433E-2,-3.9246235E-2,-1.4726782E-1,-5.5781016E-3,-2.834096E-2,-1.8144267E-2,2.7732795E-2,-2.058843E-1,2.5901696E-2,-3.4383073E-2,-8.35908E-2,-1.3924335E-1,-2.263068E-1,2.786003E-1,-1.3398732E-2,-2.8078089E-2,-1.0941963E-1,1.8975377E-2,-3.5718128E-2,3.362071E-2,-1.0209266E-1,-2.5984478E-1,-1.2180049E-1,2.647867E-2,-6.1566066E-2,-9.752509E-3,-1.4157267E-2,-3.4385912E-2,-3.5030486E-3,-4.247555E-2,-3.2594951E-3,-8.096939E-2,1.836337E-2,9.610837E-3,1.0843191E-1,-7.926232E-3,1.7779335E-2,-8.509328E-3,1.716882E-2,-1.7881393E-2,-4.348716E-2,-1.5048607E-2,1.1351565E-2,-1.0020442E-2,-1.186176E-1,-3.2271918E-2,1.1430915E-2,1.2840088E-1,-3.6743667E-2,-1.9260585E-2,-8.408626E-2,-4.279659E-2,-2.1065455E-2,3.2873508E-2,7.7392054E-3,-1.4209503E-3,-6.77324E-2],"categories":[],"categories_nodes":[],"categories_segments":[],"categories_sizes":[],"default_left":[0,0,0,0,0,0,0,0,0,0,0,0,0,0,0,0,0,0,0,0,0,0,0,0,0,0,0,0,0,0,0,0,0,0,0,0,0,0,0,0,0,0,0,0,0,0,0,0,0,0,0,0,0,0,0,0,0,0,0,0,0,0,0],"id":8,"left_children":[1,3,5,7,9,11,13,15,17,19,21,23,25,27,29,31,33,35,37,39,41,43,45,47,49,51,53,55,57,59,61,-1,-1,-1,-1,-1,-1,-1,-1,-1,-1,-1,-1,-1,-1,-1,-1,-1,-1,-1,-1,-1,-1,-1,-1,-1,-1,-1,-1,-1,-1,-1,-1],"loss_changes":[4.093561E1,7.430477E-1,3.2631092E0,1.2686262E0,1.7791862E0,2.368439E0,1.6629181E0,4.3943357E-1,4.142666E-2,8.546847E0,6.85091E-1,2.116854E0,1.3204963E0,1.0900426E-1,1.3778076E0,4.288602E-2,4.4940674E-1,3.0630112E-2,1.2932E-1,2.0922198E0,3.5423317E0,7.877979E-1,1.7547154E-1,1.3621273E0,1.8215864E0,1.0477155E0,8.6291975E-1,5.399549E-2,5.0433576E-3,1.5309944E0,1.6693413E0,0E0,0E0,0E0,0E0,0E0,0E0,0E0,0E0,0E0,0E0,0E0,0E0,0E0,0E0,0E0,0E0,0E0,0E0,0E0,0E0,0E0,0E0,0E0,0E0,0E0,0E0,0E0,0E0,0E0,0E0,0E0,0E0],"parents":[2147483647,0,0,1,1,2,2,3,3,4,4,5,5,6,6,7,7,8,8,9,9,10,10,11,11,12,12,13,13,14,14,15,15,16,16,17,17,18,18,19,19,20,20,21,21,22,22,23,23,24,24,25,25,26,26,27,27,28,28,29,29,30,30],"right_children":[2,4,6,8,10,12,14,16,18,20,22,24,26,28,30,32,34,36,38,40,42,44,46,48,50,52,54,56,58,60,62,-1,-1,-1,-1,-1,-1,-1,-1,-1,-1,-1,-1,-1,-1,-1,-1,-1,-1,-1,-1,-1,-1,-1,-1,-1,-1,-1,-1,-1,-1,-1,-1],"split_conditions":[3.154E2,1.969697E-1,4.723E2,3.431E2,3.8787878E-1,5.9090906E-1,1.5454546E-1,2.423E2,2.060606E-1,3.3E0,9.6363634E-1,4.3939394E-1,9.6363634E-1,3.2E0,9.6363634E-1,7.82E1,2.499E2,1.969697E-1,1.5454546E-1,2.3030303E-1,2.139E2,6.922E2,4.544E2,1.5454546E-1,4.679E2,5.4E0,9.3030304E-1,2.6E0,7.488E2,3.2E0,9.6363634E-1,-9.752509E-3,-1.4157267E-2,-3.4385912E-2,-3.5030486E-3,-4.247555E-2,-3.2594951E-3,-8.096939E-2,1.836337E-2,9.610837E-3,1.0843191E-1,-7.926232E-3,1.7779335E-2,-8.509328E-3,1.716882E-2,-1.7881393E-2,-4.348716E-2,-1.5048607E-2,1.1351565E-2,-1.0020442E-2,-1.186176E-1,-3.2271918E-2,1.1430915E-2,1.2840088E-1,-3.6743667E-2,-1.9260585E-2,-8.408626E-2,-4.279659E-2,-2.1065455E-2,3.2873508E-2,7.7392054E-3,-1.4209503E-3,-6.77324E-2],"split_indices":[2,5,4,4,5,5,5,0,3,2,5,5,1,0,5,4,2,3,5,5,0,4,4,5,4,4,3,0,2,0,3,0,0,0,0,0,0,0,0,0,0,0,0,0,0,0,0,0,0,0,0,0,0,0,0,0,0,0,0,0,0,0,0],"split_type":[0,0,0,0,0,0,0,0,0,0,0,0,0,0,0,0,0,0,0,0,0,0,0,0,0,0,0,0,0,0,0,0,0,0,0,0,0,0,0,0,0,0,0,0,0,0,0,0,0,0,0,0,0,0,0,0,0,0,0,0,0,0,0],"sum_hessian":[7.0557E4,3.8294E4,3.2263E4,2.164E3,3.613E4,4.965E3,2.7298E4,2.05E3,1.14E2,3.843E3,3.2287E4,3.243E3,1.722E3,3E1,2.7268E4,1.849E3,2.01E2,1.06E2,8E0,1.02E2,3.741E3,3.2184E4,1.03E2,1.042E3,2.201E3,1.648E3,7.4E1,1.7E1,1.3E1,2.709E4,1.78E2,1.616E3,2.33E2,1.4E2,6.1E1,1.04E2,2E0,7E0,1E0,2.6E1,7.6E1,3.173E3,5.68E2,3.2077E4,1.07E2,4.4E1,5.9E1,2.23E2,8.19E2,2.188E3,1.3E1,5E1,1.598E3,2E0,7.2E1,2E0,1.5E1,8E0,5E0,2.19E2,2.6871E4,1.33E2,4.5E1],"tree_param":{"num_deleted":"0","num_feature":"6","num_nodes":"63","size_leaf_vector":"1"}},{"base_weights":[-3.4285989E-3,-1.757579E-2,1.6897723E-2,-1.9536216E-2,5.2147456E-3,-4.3777185E-3,1.9354168E-2,-1.9118309E-2,-5.328514E-2,-9.051786E-3,3.4944043E-2,-1.819519E-2,1.6398275E-2,1.47716515E-2,2.6722098E-2,-1.9592429E-2,9.144802E-3,-1.019126E-2,-8.092019E-2,1.9723568E-2,-2.2635223E-2,4.4719566E-2,-6.575154E-2,-1.376303E-3,-5.585371E-2,2.1179307E-2,-5.979049E-2,1.6138066E-2,-1.8105415E-1,2.7954703E-2,-4.9379047E-2,-6.4325235E-3,-4.5092315E-3,-1.3254624E-2,2.5551753E-2,-2.2071607E-2,-9.896323E-4,-3.8525574E-2,-1.0636883E-2,-9.609639E-3,1.1474244E-2,-6.3209175E-3,-7.679385E-2,2.436176E-2,6.384274E-3,-2.6487963E-2,2.496786E-2,-1.8074282E-2,7.337175E-4,2.5586407E-3,-7.4166805E-2,2.3081018E-2,4.8284666E-3,-1.8339517E-3,-8.3369166E-2,7.805875E-3,-3.558124E-4,-1.568204E-2,-1.1504749E-1,7.5817436E-2,8.088254E-3,-1.1018554E-1,-8.356836E-3],"categories":[],"categories_nodes":[],"categories_segments":[],"categories_sizes":[],"default_left":[0,0,0,0,0,0,0,0,0,0,0,0,0,0,0,0,0,0,0,0,0,0,0,0,0,0,0,0,0,0,0,0,0,0,0,0,0,0,0,0,0,0,0,0,0,0,0,0,0,0,0,0,0,0,0,0,0,0,0,0,0,0,0],"id":9,"left_children":[1,3,5,7,9,11,13,15,17,19,21,23,25,27,29,31,33,35,37,39,41,43,45,47,49,51,53,55,57,59,61,-1,-1,-1,-1,-1,-1,-1,-1,-1,-1,-1,-1,-1,-1,-1,-1,-1,-1,-1,-1,-1,-1,-1,-1,-1,-1,-1,-1,-1,-1,-1,-1],"loss_changes":[2.028998E1,1.8588896E0,1.5133829E0,5.392742E-1,1.3982617E0,8.6093926E-1,8.760767E-1,5.072527E-1,5.5651724E-1,8.713008E-1,1.0552129E0,1.1406305E0,4.3765092E-1,4.2860627E0,9.3499756E-1,3.1363964E-1,2.537713E0,8.0137886E-2,6.108936E-1,6.8670857E-1,5.4767156E-1,8.3208144E-1,3.26378E-1,2.80507E-1,6.852481E0,3.1854308E-1,8.295253E-1,2.7214131E0,2.8737276E0,2.1812797E0,1.07769E0,0E0,0E0,0E0,0E0,0E0,0E0,0E0,0E0,0E0,0E0,0E0,0E0,0E0,0E0,0E0,0E0,0E0,0E0,0E0,0E0,0E0,0E0,0E0,0E0,0E0,0E0,0E0,0E0,0E0,0E0,0E0,0E0],"parents":[2147483647,0,0,1,1,2,2,3,3,4,4,5,5,6,6,7,7,8,8,9,9,10,10,11,11,12,12,13,13,14,14,15,15,16,16,17,17,18,18,19,19,20,20,21,21,22,22,23,23,24,24,25,25,26,26,27,27,28,28,29,29,30,30],"right_children":[2,4,6,8,10,12,14,16,18,20,22,24,26,28,30,32,34,36,38,40,42,44,46,48,50,52,54,56,58,60,62,-1,-1,-1,-1,-1,-1,-1,-1,-1,-1,-1,-1,-1,-1,-1,-1,-1,-1,-1,-1,-1,-1,-1,-1,-1,-1,-1,-1,-1,-1,-1,-1],"split_conditions":[4.627E2,4.05E2,4.723E2,4.05E2,5.9090906E-1,5.8484846E-1,7.5757575E-1,5.544E2,5.157E2,4.3939394E-1,9.6363634E-1,5.272727E-1,9.5757574E-1,7.878788E-1,9.6363634E-1,6.212121E-1,6.272727E-1,2.090909E-1,2.771E2,2.060606E-1,5.7272726E-1,4.05E2,3.431E2,1.1212121E-1,3.018E2,6.636364E-1,6.636E2,4.3939394E-1,4.3939394E-1,3.2E0,8.060606E-1,-6.4325235E-3,-4.5092315E-3,-1.3254624E-2,2.5551753E-2,-2.2071607E-2,-9.896323E-4,-3.8525574E-2,-1.0636883E-2,-9.609639E-3,1.1474244E-2,-6.3209175E-3,-7.679385E-2,2.436176E-2,6.384274E-3,-2.6487963E-2,2.496786E-2,-1.8074282E-2,7.337175E-4,2.5586407E-3,-7.4166805E-2,2.3081018E-2,4.8284666E-3,-1.8339517E-3,-8.3369166E-2,7.805875E-3,-3.558124E-4,-1.568204E-2,-1.1504749E-1,7.5817436E-2,8.088254E-3,-1.1018554E-1,-8.356836E-3],"split_indices":[2,0,4,2,5,5,5,4,4,5,1,5,5,3,5,1,5,3,0,5,3,2,4,3,0,1,2,5,5,0,3,0,0,0,0,0,0,0,0,0,0,0,0,0,0,0,0,0,0,0,0,0,0,0,0,0,0,0,0,0,0,0,0],"split_type":[0,0,0,0,0,0,0,0,0,0,0,0,0,0,0,0,0,0,0,0,0,0,0,0,0,0,0,0,0,0,0,0,0,0,0,0,0,0,0,0,0,0,0,0,0,0,0,0,0,0,0,0,0,0,0,0,0,0,0,0,0,0,0],"sum_hessian":[7.0557E4,4.1602E4,2.8955E4,3.8307E4,3.295E3,2.997E3,2.5958E4,3.784E4,4.67E2,2.227E3,1.068E3,1.8E3,1.197E3,1.6006E4,9.952E3,3.7216E4,6.24E2,1.83E2,2.84E2,7.14E2,1.513E3,9.74E2,9.4E1,1.245E3,5.55E2,1.127E3,7E1,1.5896E4,1.1E2,9.794E3,1.58E2,2.6478E4,1.0738E4,3.67E2,2.57E2,1.7E1,1.66E2,1.38E2,1.46E2,1.88E2,5.26E2,1.504E3,9E0,3.8E2,5.94E2,8.2E1,1.2E1,7.5E1,1.17E3,4.16E2,1.39E2,9.3E1,1.034E3,5.7E1,1.3E1,1.0122E4,5.774E3,6.8E1,4.2E1,4.2E1,9.752E3,9E0,1.49E2],"tree_param":{"num_deleted":"0","num_feature":"6","num_nodes":"63","size_leaf_vector":"1"}}]},"name":"gbtree"},"learner_model_param":{"base_score":"5E-1","boost_from_average":"0","num_class":"0","num_feature":"6","num_target":"1"},"objective":{"name":"reg:squarederror","reg_loss_param":{"scale_pos_weight":"1"}}},"version":[2,1,3]}