{"learner":{"attributes":{"scikit_learn":"{\"_estimator_type\": \"regressor\"}"},"feature_names":[],"feature_types":[],"gradient_booster":{"model":{"gbtree_model_param":{"num_parallel_tree":"1","num_trees":"15"},"iteration_indptr":[0,1,2,3,4,5,6,7,8,9,10,11,12,13,14,15],"tree_info":[0,0,0,0,0,0,0,0,0,0,0,0,0,0,0],"trees":[{"base_weights":[-8.434538E-2,-4.483915E-1,3.907178E-1,-4.7069302E-1,-2.2192091E-1,-1.9729276E-1,4.3829134E-1,-4.8113984E-1,-3.238282E-1,3.547643E-2,-3.0273044E-1,-3.388955E-1,2.7877057E-1,-3.3104476E-2,4.5635268E-1,-4.8534772E-1,-2.8869327E-2,-4.0436363E-1,-5.77579E-2,-1.4895105E-1,1.418228E-1,-4.9343866E-1,-4.813946E-2,1.1048887E-1,-1.4928198E-1,4.242684E-1,-3.302034E-1,-3.4261477E-1,7.0765816E-2,-1.4117648E-1,4.56914E-1,-4.8921075E-1,-3.766806E-1,-1.866575E-1,3.0573997E-1,-1.2853265E-1,-4.95951E-1,1.979604E-2,-1.482353E-1,-1.2381527E-1,3.2869673E-1,-1.4934859E-1,-3.1876183E-1,-2.2899322E-1,2.8346935E-1,-1.4895834E-1,3.841563E-1,-1.4347827E-1,4.7472474E-1,-4.3089733E-1,-1.4927424E-1,-4.1156963E-1,6.398672E-2,9.6895464E-2,-4.4475025E-1,2.613464E-1,4.5952892E-1,-4.9328226E-1,-4.4978064E-1,-2.6015905E-1,-4.211965E-1,2.2588333E-1,-1.4811213E-1,4.5693776E-1,-4.1683528E-1,-1.4911765E-1,8.427407E-2,-4.966654E-1,7.477005E-2,-2.4213512E-1,2.432207E-1,9.4794795E-2,-1.3400413E-1,1.2704729E-1,3.7431547E-1,-3.5368297E-1,7.244008E-2,-3.696796E-1,-1.22297056E-1,3.8574922E-1,-3.0178836E-1,4.6629768E-2,1.3262281E-1,4.869054E-1,-1.1261759E-1,-1.5237927E-3,-4.59028E-1,-1.4E-1,5.5315785E-2,-9.978658E-3,-1.4871617E-1,2.4983865E-1,-3.75E-1,1.2841983E-1,-2.9438597E-1,-1.450493E-1,5.4771528E-3,2.0823257E-1,2.8882143E-1,4.6088257E-1,3.151395E-1,-1.4895867E-1,-4.818108E-1,-4.5329615E-1,-2.7003288E-1,-3.6876115E-1,3.5465205E-1,-1.488105E-1,-3.1818748E-1,-1.40625E-1,3.672892E-1,1.4388147E-1,8.233097E-2,-2.505058E-1,-1.3846155E-1,-3.034936E-2,1.5872473E-1,7.454773E-2,-1.4921393E-1,-1.5635978E-1,-4.1041368E-1,3.0197266E-1,5.9492502E-2,-1.6565348E-1,-1.7336609E-2,2.4965825E-2,4.131671E-2,3.9058715E-1,1.523669E-1,-1.0890056E-1,6.517768E-5,-4.8797837E-1,-2.8562924E-1,-1.6171846E-1,-9.578947E-3,2.0570792E-1,1.3843565E-1,-1.672489E-1,-4.0079743E-1,1.4682308E-1,-7.5E-2,9.9321775E-2,-2.8668228E-1,9.9238105E-2,-1.0000001E-1,-1.4666668E-1,-3.5298282E-1,2.4042104E-1,-1.2857144E-1,-1.40625E-1,2.8403413E-1,1.3910583E-1,3.359182E-2,-1.25E-1,-1.3333334E-1,5.4810926E-2,1.8527901E-1,-4.1747338E-1,-3.2717157E-2,-7.4274614E-2,5.170727E-2,2.6233554E-1,-3.8615638E-1,2.7261326E-1,1.3507178E-1,4.5314956E-1,4.7566968E-1,-3.6433673E-1,4.6389318E-1,-1.4506719E-1,-1.0362718E-1,-1.1884968E-1,-1.3978475E-1,-1.4166667E-1,-5.435459E-2,-1.362829E-1,-9.24336E-2,6.8259994E-3,1.3175127E-1,1.3339804E-1,-1.1470157E-1,4.4834796E-2,1.3082215E-1,-1.0000001E-1,1.1204895E-1,-1.12500004E-1,-3.0347705E-4,-4.160233E-2,-7.1070914E-4,-3.0432339E-3,6.1292227E-2,-8.933019E-2,-2.8101116E-2,-2.5915476E-2,-1.3618508E-1,6.8957455E-2,1.1152251E-1,5.5660047E-2,-1.2117186E-1,7.847488E-2,-5.1753767E-2,-1.2777475E-2,1.3017075E-2,9.8964274E-2,1.2556434E-1,1.3437227E-2,6.010687E-2,7.464717E-2,-1.4861673E-1,-1.0151986E-1,-5.885879E-2,-5.970968E-2,-1.968952E-2,-1.4704286E-2,1.9951157E-2,7.6167345E-2,-4.7555223E-2,-1.1125808E-1,7.090127E-2,7.3032685E-2,-1.2807171E-1,-1.25E-1,7.3983595E-2,7.5E-2,-1.2188827E-1,1.3204482E-1,-2.4638376E-3,1.02317475E-1,2.6603466E-2,-1.2348032E-2,2.6399937E-2,7.5E-2,-1.0000001E-1,5.560596E-2,-1.4646012E-1,3.59554E-2,1.277516E-1,-1.3219991E-1,-0E0,1.0916179E-1,-7.312464E-2,7.126425E-2,9.880893E-2,-1.3420005E-1,3.384222E-2,7.725565E-2,1.09591044E-1,1.3678786E-1,6.478678E-2,1.4331749E-1,1.04574576E-1,-1.3247405E-1,1.0721261E-1,-3.728537E-2,1.4193209E-1],"categories":[],"categories_nodes":[],"categories_segments":[],"categories_sizes":[],"default_left":[0,0,0,0,0,0,0,0,0,0,0,0,0,0,0,0,0,0,0,0,0,0,0,0,0,0,0,0,0,0,0,0,0,0,0,0,0,0,0,0,0,0,0,0,0,0,0,0,0,0,0,0,0,0,0,0,0,0,0,0,0,0,0,0,0,0,0,0,0,0,0,0,0,0,0,0,0,0,0,0,0,0,0,0,0,0,0,0,0,0,0,0,0,0,0,0,0,0,0,0,0,0,0,0,0,0,0,0,0,0,0,0,0,0,0,0,0,0,0,0,0,0,0,0,0,0,0,0,0,0,0,0,0,0,0,0,0,0,0,0,0,0,0,0,0,0,0,0,0,0,0,0,0,0,0,0,0,0,0,0,0,0,0,0,0,0,0,0,0,0,0,0,0,0,0,0,0,0,0,0,0,0,0,0,0,0,0,0,0,0,0,0,0,0,0,0,0,0,0,0,0,0,0,0,0,0,0,0,0,0,0,0,0,0,0,0,0,0,0,0,0,0,0,0,0,0,0,0,0,0,0,0,0,0,0,0,0,0,0,0,0,0,0,0,0,0,0,0,0,0,0,0,0,0,0],"id":0,"left_children":[1,3,5,7,9,11,13,15,17,19,21,23,25,27,29,31,33,35,37,-1,39,41,43,45,-1,47,49,51,53,-1,55,57,59,61,63,65,67,69,-1,71,73,-1,75,77,79,-1,81,-1,83,85,87,89,91,93,95,97,99,101,103,105,107,109,-1,111,113,-1,115,117,-1,119,121,-1,123,125,127,129,-1,131,133,135,137,-1,-1,139,141,143,145,-1,147,149,-1,151,153,155,157,-1,159,161,163,165,167,-1,169,171,173,175,177,-1,179,-1,181,-1,183,185,-1,187,189,-1,-1,191,193,195,197,199,201,-1,-1,203,205,-1,-1,207,209,211,213,215,-1,217,219,-1,-1,-1,221,-1,-1,-1,223,225,-1,-1,227,-1,229,231,-1,233,235,237,239,-1,-1,241,243,245,-1,247,249,251,253,-1,-1,-1,-1,-1,-1,-1,-1,-1,-1,-1,-1,-1,-1,-1,-1,-1,-1,-1,-1,-1,-1,-1,-1,-1,-1,-1,-1,-1,-1,-1,-1,-1,-1,-1,-1,-1,-1,-1,-1,-1,-1,-1,-1,-1,-1,-1,-1,-1,-1,-1,-1,-1,-1,-1,-1,-1,-1,-1,-1,-1,-1,-1,-1,-1,-1,-1,-1,-1,-1,-1,-1,-1,-1,-1,-1,-1,-1,-1,-1,-1,-1,-1,-1,-1,-1],"loss_changes":[1.2202821E4,2.0165332E2,8.5641846E2,5.5638184E1,7.4537704E1,1.5460245E2,2.4114209E2,6.4592285E1,5.1789703E1,4.8554447E1,1.3237915E2,1.2608145E2,4.674601E1,3.3652023E1,1.4406738E1,1.3935547E1,1.663545E1,4.682373E1,1.9062498E1,0E0,3.553389E1,1.0368042E0,7.0173004E1,7.69385E1,0E0,1.9580833E1,1.7939615E0,7.4001045E0,1.0603772E1,0E0,1.38203125E1,4.991699E0,5.9022217E0,2.721901E1,1.1224898E1,3.643102E1,8.6535645E-1,2.8090876E1,0E0,1.3687305E0,3.8160172E0,0E0,8.8751936E-1,1.1317886E1,2.4838623E1,0E0,4.157276E0,0E0,2.9379807E0,7.8440666E-1,2.4933562E0,7.5987587E0,3.275564E0,9.251976E0,6.6556454E-1,4.681263E-1,5.1118164E0,8.564453E-1,1.805542E0,2.1697428E1,6.294632E0,9.208887E0,0E0,6.7377853E-1,1.8220186E-2,0E0,2.5222852E0,8.64563E-1,0E0,3.1257753E0,2.7777824E0,0E0,1.0679393E0,2.5500178E-2,1.1756134E0,1.2869883E-1,0E0,3.1020546E0,1.9180455E0,4.702717E0,7.588458E-1,0E0,0E0,8.5144806E-1,7.899898E-1,6.615951E-1,2.0593643E-2,0E0,2.2527192E0,5.528527E0,0E0,1.2792511E0,1.5277779E-1,2.8861008E0,1.7899971E0,0E0,2.115951E-1,4.185393E0,4.947052E-1,2.831543E0,2.5740887E1,0E0,1.387207E0,1.9775391E0,1.0102887E0,1.286293E0,1.3645396E0,0E0,1.7542816E1,0E0,1.0885992E0,0E0,8.5066146E-1,1.8598416E-1,0E0,3.5429513E-1,1.3799243E0,0E0,0E0,1.2840908E0,1.0047092E0,9.006958E-1,3.8130004E0,7.132683E-1,9.846832E-2,0E0,0E0,4.0169525E-1,1.2008858E-1,0E0,0E0,8.549366E-1,8.4445477E-1,1.1342535E0,3.4229928E-1,1.9004974E0,0E0,2.3885424E0,6.9262695E-1,0E0,0E0,0E0,5.879944E-1,0E0,0E0,0E0,6.480534E-1,8.9748096E-1,0E0,0E0,2.4825549E-1,0E0,6.462858E-2,3.9583334E-1,0E0,2.1568926E1,6.0872746E0,3.679328E-1,1.6788602E0,0E0,0E0,1.1615372E-1,3.862393E-1,2.0953369E-1,0E0,1.1576904E1,2.2185059E0,2.7221956E0,1.1860199E0,0E0,0E0,0E0,0E0,0E0,0E0,0E0,0E0,0E0,0E0,0E0,0E0,0E0,0E0,0E0,0E0,0E0,0E0,0E0,0E0,0E0,0E0,0E0,0E0,0E0,0E0,0E0,0E0,0E0,0E0,0E0,0E0,0E0,0E0,0E0,0E0,0E0,0E0,0E0,0E0,0E0,0E0,0E0,0E0,0E0,0E0,0E0,0E0,0E0,0E0,0E0,0E0,0E0,0E0,0E0,0E0,0E0,0E0,0E0,0E0,0E0,0E0,0E0,0E0,0E0,0E0,0E0,0E0,0E0,0E0,0E0,0E0,0E0,0E0,0E0,0E0,0E0,0E0,0E0,0E0,0E0,0E0,0E0,0E0,0E0,0E0],"parents":[2147483647,0,0,1,1,2,2,3,3,4,4,5,5,6,6,7,7,8,8,9,9,10,10,11,11,12,12,13,13,14,14,15,15,16,16,17,17,18,18,20,20,21,21,22,22,23,23,25,25,26,26,27,27,28,28,30,30,31,31,32,32,33,33,34,34,35,35,36,36,37,37,39,39,40,40,42,42,43,43,44,44,46,46,48,48,49,49,50,50,51,51,52,52,53,53,54,54,55,55,56,56,57,57,58,58,59,59,60,60,61,61,63,63,64,64,66,66,67,67,69,69,70,70,72,72,73,73,74,74,75,75,77,77,78,78,79,79,80,80,83,83,84,84,85,85,86,86,88,88,89,89,91,91,92,92,93,93,94,94,96,96,97,97,98,98,99,99,100,100,102,102,103,103,104,104,105,105,106,106,108,108,110,110,112,112,113,113,115,115,116,116,119,119,120,120,121,121,122,122,123,123,124,124,127,127,128,128,131,131,132,132,133,133,134,134,135,135,137,137,138,138,142,142,146,146,147,147,150,150,152,152,153,153,155,155,156,156,157,157,158,158,161,161,162,162,163,163,165,165,166,166,167,167,168,168],"right_children":[2,4,6,8,10,12,14,16,18,20,22,24,26,28,30,32,34,36,38,-1,40,42,44,46,-1,48,50,52,54,-1,56,58,60,62,64,66,68,70,-1,72,74,-1,76,78,80,-1,82,-1,84,86,88,90,92,94,96,98,100,102,104,106,108,110,-1,112,114,-1,116,118,-1,120,122,-1,124,126,128,130,-1,132,134,136,138,-1,-1,140,142,144,146,-1,148,150,-1,152,154,156,158,-1,160,162,164,166,168,-1,170,172,174,176,178,-1,180,-1,182,-1,184,186,-1,188,190,-1,-1,192,194,196,198,200,202,-1,-1,204,206,-1,-1,208,210,212,214,216,-1,218,220,-1,-1,-1,222,-1,-1,-1,224,226,-1,-1,228,-1,230,232,-1,234,236,238,240,-1,-1,242,244,246,-1,248,250,252,254,-1,-1,-1,-1,-1,-1,-1,-1,-1,-1,-1,-1,-1,-1,-1,-1,-1,-1,-1,-1,-1,-1,-1,-1,-1,-1,-1,-1,-1,-1,-1,-1,-1,-1,-1,-1,-1,-1,-1,-1,-1,-1,-1,-1,-1,-1,-1,-1,-1,-1,-1,-1,-1,-1,-1,-1,-1,-1,-1,-1,-1,-1,-1,-1,-1,-1,-1,-1,-1,-1,-1,-1,-1,-1,-1,-1,-1,-1,-1,-1,-1,-1,-1,-1,-1,-1],"split_conditions":[4.05E2,2.424E2,4.18E2,2.423E2,4.3939394E-1,5.8484846E-1,3.431E2,6.086E2,6.272727E-1,1.5454546E-1,6.484848E-1,4.2727274E-1,9.5757574E-1,4.764E2,1.5454546E-1,3.018E2,6.272727E-1,4.3939394E-1,9.3030304E-1,-1.4895105E-1,2.67E2,6.333333E-1,2.887E2,1.5454546E-1,-1.4928198E-1,5.4E0,3.287E2,5.7272726E-1,8.007E2,-1.4117648E-1,4.05E2,1.925E2,4.3030304E-1,4.3939394E-1,9.6363634E-1,1.969697E-1,6.484848E-1,2.887E2,-1.482353E-1,2.177E2,2.1515152E-1,-1.4934859E-1,2.423E2,4.288E2,9.5757574E-1,-1.4895834E-1,2.1515152E-1,-1.4347827E-1,9.6363634E-1,7.5757575E-1,2.31E2,4.2424244E-1,9.5757574E-1,7.241E2,1.768E2,6.69697E-1,8.007E2,1.478E2,9E-1,4.2727274E-1,6.545454E-1,1.5454546E-1,-1.4811213E-1,9.5757574E-1,5.212121E-1,-1.4911765E-1,2.771E2,3.6363637E-1,7.477005E-2,2.025E2,9.1818184E-1,9.4794795E-2,5.222E2,2.671E2,3.728E2,3.287E2,7.244008E-2,2.771E2,5.544E2,4.288E2,9.3939394E-1,4.6629768E-2,1.3262281E-1,9.6363634E-1,4.8E2,5.296E2,2.771E2,-1.4E-1,7.003E2,1.1212121E-1,-1.4871617E-1,3.2E0,5.212121E-1,5.9090906E-1,5.945E2,-1.450493E-1,5.5454546E-1,4.2727274E-1,9.3939394E-1,7.6363635E-1,5.807E2,-1.4895867E-1,8.848485E-1,4.3939394E-1,5.4E0,2.060606E-1,2.3030303E-1,-1.488105E-1,5.212121E-1,-1.40625E-1,2.3030303E-1,1.4388147E-1,6.922E2,2.9E0,-1.3846155E-1,2.090909E-1,2.090909E-1,7.454773E-2,-1.4921393E-1,2.499E2,6.545454E-1,3.58E2,1.716E2,3.2E0,2.139E2,2.4965825E-2,4.131671E-2,4.05E2,2.771E2,-1.0890056E-1,6.517768E-5,5.212121E-1,2.771E2,2.31E2,6.007E2,9.4848484E-1,1.3843565E-1,5.049E2,3.152E2,1.4682308E-1,-7.5E-2,9.9321775E-2,7.003E2,9.9238105E-2,-1.0000001E-1,-1.4666668E-1,9.5454544E-1,9.4242424E-1,-1.2857144E-1,-1.40625E-1,5.4E0,1.3910583E-1,2.771E2,3E0,-1.3333334E-1,4.3030304E-1,5.545E2,8.007E2,3.7878788E-1,-7.4274614E-2,5.170727E-2,5.732E2,5.8484846E-1,6.056E2,1.3507178E-1,7.878788E-1,9.6363634E-1,6.716E2,5.9090906E-1,-1.4506719E-1,-1.0362718E-1,-1.1884968E-1,-1.3978475E-1,-1.4166667E-1,-5.435459E-2,-1.362829E-1,-9.24336E-2,6.8259994E-3,1.3175127E-1,1.3339804E-1,-1.1470157E-1,4.4834796E-2,1.3082215E-1,-1.0000001E-1,1.1204895E-1,-1.12500004E-1,-3.0347705E-4,-4.160233E-2,-7.1070914E-4,-3.0432339E-3,6.1292227E-2,-8.933019E-2,-2.8101116E-2,-2.5915476E-2,-1.3618508E-1,6.8957455E-2,1.1152251E-1,5.5660047E-2,-1.2117186E-1,7.847488E-2,-5.1753767E-2,-1.2777475E-2,1.3017075E-2,9.8964274E-2,1.2556434E-1,1.3437227E-2,6.010687E-2,7.464717E-2,-1.4861673E-1,-1.0151986E-1,-5.885879E-2,-5.970968E-2,-1.968952E-2,-1.4704286E-2,1.9951157E-2,7.6167345E-2,-4.7555223E-2,-1.1125808E-1,7.090127E-2,7.3032685E-2,-1.2807171E-1,-1.25E-1,7.3983595E-2,7.5E-2,-1.2188827E-1,1.3204482E-1,-2.4638376E-3,1.02317475E-1,2.6603466E-2,-1.2348032E-2,2.6399937E-2,7.5E-2,-1.0000001E-1,5.560596E-2,-1.4646012E-1,3.59554E-2,1.277516E-1,-1.3219991E-1,-0E0,1.0916179E-1,-7.312464E-2,7.126425E-2,9.880893E-2,-1.3420005E-1,3.384222E-2,7.725565E-2,1.09591044E-1,1.3678786E-1,6.478678E-2,1.4331749E-1,1.04574576E-1,-1.3247405E-1,1.0721261E-1,-3.728537E-2,1.4193209E-1],"split_indices":[2,2,4,0,5,5,0,4,3,3,3,5,3,4,5,4,5,3,3,0,0,3,0,5,0,4,4,3,4,0,0,0,5,5,5,5,5,0,0,4,3,0,0,4,1,0,5,0,1,1,0,3,3,2,0,3,2,4,1,3,5,5,0,5,3,0,0,5,0,4,1,0,4,2,4,2,0,4,4,0,3,0,0,5,0,2,4,0,0,3,0,0,1,5,4,0,1,3,1,5,0,0,1,1,2,5,5,0,3,0,5,0,4,0,0,1,1,0,0,0,1,0,4,0,0,0,0,0,0,0,0,1,2,0,4,1,0,0,0,0,0,0,0,0,0,0,1,5,0,0,0,0,0,0,0,5,2,2,3,0,0,2,3,2,0,1,5,4,5,0,0,0,0,0,0,0,0,0,0,0,0,0,0,0,0,0,0,0,0,0,0,0,0,0,0,0,0,0,0,0,0,0,0,0,0,0,0,0,0,0,0,0,0,0,0,0,0,0,0,0,0,0,0,0,0,0,0,0,0,0,0,0,0,0,0,0,0,0,0,0,0,0,0,0,0,0,0,0,0,0,0,0,0,0,0],"split_type":[0,0,0,0,0,0,0,0,0,0,0,0,0,0,0,0,0,0,0,0,0,0,0,0,0,0,0,0,0,0,0,0,0,0,0,0,0,0,0,0,0,0,0,0,0,0,0,0,0,0,0,0,0,0,0,0,0,0,0,0,0,0,0,0,0,0,0,0,0,0,0,0,0,0,0,0,0,0,0,0,0,0,0,0,0,0,0,0,0,0,0,0,0,0,0,0,0,0,0,0,0,0,0,0,0,0,0,0,0,0,0,0,0,0,0,0,0,0,0,0,0,0,0,0,0,0,0,0,0,0,0,0,0,0,0,0,0,0,0,0,0,0,0,0,0,0,0,0,0,0,0,0,0,0,0,0,0,0,0,0,0,0,0,0,0,0,0,0,0,0,0,0,0,0,0,0,0,0,0,0,0,0,0,0,0,0,0,0,0,0,0,0,0,0,0,0,0,0,0,0,0,0,0,0,0,0,0,0,0,0,0,0,0,0,0,0,0,0,0,0,0,0,0,0,0,0,0,0,0,0,0,0,0,0,0,0,0,0,0,0,0,0,0,0,0,0,0,0,0,0,0,0,0,0,0],"sum_hessian":[7.0557E4,3.9946E4,3.0611E4,3.6364E4,3.582E3,2.291E3,2.832E4,3.3947E4,2.417E3,8.56E2,2.726E3,1.766E3,5.25E2,1.045E3,2.7275E4,3.3634E4,3.13E2,1.855E3,5.62E2,1.42E2,7.14E2,1.558E3,1.168E3,4.61E2,1.305E3,4.24E2,1.01E2,2.62E2,7.83E2,1.6E1,2.7259E4,3.2476E4,1.158E3,2.13E2,1E2,4.63E2,1.392E3,4.78E2,8.4E1,2.95E2,4.19E2,1.518E3,4E1,7.56E2,4.12E2,1.43E2,3.18E2,2.2E1,4.02E2,6.4E1,3.7E1,2.24E2,3.8E1,7.46E2,3.7E1,3.61E2,2.6898E4,2.9426E4,3.05E3,3.22E2,8.36E2,9.1E1,1.22E2,8.3E1,1.7E1,1.69E2,2.94E2,1.391E3,1E0,2.2E2,2.58E2,6E0,2.89E2,7.8E1,3.41E2,3.8E1,2E0,3.25E2,4.31E2,3.51E2,6.1E1,6.5E1,2.53E2,3.94E2,8E0,4E0,6E1,1.4E1,2.3E1,3.9E1,1.85E2,2.7E1,1.1E1,6.91E2,5.5E1,3.4E1,3E0,1.26E2,2.35E2,2.6646E4,2.52E2,2.2902E4,6.524E3,2.99E3,6E1,2.74E2,4.8E1,4.82E2,3.54E2,1.5E1,7.6E1,7.8E1,5E0,5E0,1.2E1,1.16E2,1.78E2,1E0,1.39E3,1.47E2,7.3E1,1.95E2,6.3E1,2.27E2,6.2E1,1.7E1,6.1E1,3.17E2,2.4E1,3.7E1,1E0,1.33E2,1.92E2,3.19E2,1.12E2,1.05E2,2.46E2,2.7E1,3.4E1,3.93E2,1E0,2E0,6E0,2E0,2E0,4.4E1,1.6E1,1.7E1,6E0,1.5E1,2.4E1,1.3E1,1.4E1,3E0,8E0,3.02E2,3.89E2,3.7E1,1.8E1,1E0,2E0,1.16E2,1E1,2.16E2,1.9E1,1.7517E4,9.129E3,4.5E1,2.07E2,6.439E3,8.5E1,5.48E2,2.442E3,1.7E1,4.3E1,1.11E2,1.63E2,1E1,3.8E1,2.7E1,3.27E2,1.9E1,5.7E1,2E0,3E0,3E0,2E0,2.3E1,9.3E1,3.8E1,1.4E2,4.4E1,1.03E2,9E0,6.4E1,9.8E1,9.7E1,5E1,1.3E1,3E0,2.24E2,4.4E1,1.8E1,1.04E2,2.13E2,8E0,1.6E1,1E0,1.32E2,1.19E2,7.3E1,2.29E2,9E1,7.4E1,3.8E1,9.3E1,1.2E1,1.8E1,9E0,1E0,3.3E1,5E0,1E0,1E0,1.5E1,9E0,8E0,1.8E1,6E0,6E0,8E0,1E0,2E0,2.44E2,5.8E1,3.07E2,8.2E1,3.5E1,2E0,6E0,1.2E1,8.8E1,2.8E1,9E0,1E0,1.89E2,2.7E1,1.7311E4,2.06E2,8.981E3,1.48E2,4.1E1,4E0,3E0,2.04E2],"tree_param":{"num_deleted":"0","num_feature":"6","num_nodes":"255","size_leaf_vector":"1"}},{"base_weights":[-5.90682E-2,-3.1195325E-1,2.7625754E-1,-3.2881916E-1,-1.3794638E-1,-1.3838781E-1,3.0757588E-1,-3.3630416E-1,-2.19565E-1,-2.084286E-1,5.9672873E-3,-2.3880446E-1,1.9661559E-1,1.9769215E-3,3.205538E-1,-3.392071E-1,-2.0872274E-2,-2.80569E-1,1.0042797E-3,3.2890864E-2,-3.460976E-1,-1.296868E-1,2.1789518E-1,7.044143E-2,-1.0452415E-1,2.9830122E-1,-2.2594497E-1,-2.2854537E-1,7.1600765E-2,-1.0131489E-1,3.209558E-1,-3.4178382E-1,-2.505422E-1,-1.3118869E-1,2.130741E-1,-7.934693E-2,-3.4758562E-1,7.054312E-2,-1.0450138E-1,-1.0505143E-1,1.1147661E-1,-1.046652E-1,-2.2498749E-1,-1.9887224E-1,-4.8577465E-2,2.8960088E-1,-1.8267198E-1,-1.0455486E-1,2.696355E-1,-1.0230624E-1,3.367175E-1,6.914498E-3,-2.912378E-1,-2.8778994E-1,7.012316E-2,8.9022376E-2,-2.7978066E-1,3.073154E-1,3.3024672E-1,-3.4460038E-1,-3.0595568E-1,-1.444972E-1,-2.895013E-1,1.5849909E-1,-1.0403974E-1,3.217128E-1,-3.0574384E-1,-1.0464639E-1,7.727417E-2,-3.4814373E-1,6.355454E-2,-1.0537367E-1,1.8618385E-1,-7.061536E-2,2.4214399E-1,-2.4662782E-1,1.0247878E-1,-2.7178945E-2,-2.2740543E-1,3.8320955E-2,-6.647758E-2,1.4784278E-1,3.2536477E-1,-2.2287929E-1,1.5679461E-1,3.2841615E-2,3.1233403E-1,3.4209627E-1,-5.1092763E-2,-9.4222225E-2,2.127704E-1,-1.0104437E-1,-1.0113063E-1,1.3536144E-2,-1.0434118E-1,1.9011398E-1,-2.7569443E-1,1.1060432E-1,-2.1052185E-1,-1.02777794E-1,2.9994361E-2,3.0954397E-1,-1.9569466E-1,2.1357405E-1,3.3131775E-1,-3.4764278E-1,-3.3517706E-1,-2.4000691E-1,-3.195065E-1,-2.3302111E-1,2.5318226E-1,-1.04447216E-1,-1.8921836E-1,-1.01074226E-1,2.5938365E-1,1.048857E-1,1.5720913E-1,-1.04175106E-1,-1.9091217E-1,1.3733931E-2,1.5907423E-1,6.336557E-2,-1.0461052E-1,1.3256684E-2,-1.9916876E-1,2.0246953E-1,-1.04415596E-1,7.559148E-2,-8.025028E-2,9.082983E-2,2.7584767E-1,-7.9816714E-2,-1.4780173E-1,5.539656E-5,4.6060055E-2,1.0055891E-1,-6.150005E-2,-3.395826E-1,-1.9192232E-1,-1.8258645E-3,8.978192E-2,-9.100857E-2,6.312827E-3,1.9148098E-1,-1.4329511E-1,2.0963522E-3,3.2637578E-1,-6.5357257E-3,-3.0269027E-1,3.3239374E-1,-7.4000545E-2,3.247152E-1,7.945766E-2,1.03252545E-1,-6.3750006E-2,-1.451594E-1,6.288606E-2,3.1013688E-1,-7.4285716E-2,1.6196299E-1,-9.708047E-2,-1.0011161E-1,2.0744994E-1,1.0035492E-1,8.4792666E-2,-8.541666E-2,-9.88889E-2,-1.3334544E-1,1.140077E-1,1.2655601E-2,-2.905294E-1,-7.8136E-2,5.1065743E-2,2.7716333E-1,3.2165894E-1,-3.2966053E-1,2.006463E-1,-3.5042226E-2,2.1719497E-1,3.3184054E-1,2.236393E-1,-1.0440183E-1,-9.538265E-2,-1.01045825E-1,-7.312468E-2,-1.10137686E-1,-5.3490344E-2,-1.06196545E-1,-8.834399E-2,-9.680152E-2,-4.9221266E-2,-1.013652E-1,8.586783E-2,9.426819E-2,-7.380426E-2,3.205688E-2,9.225216E-2,9.554046E-2,-1.486361E-2,1.3573024E-2,-8.832692E-2,-7.1834684E-3,1.7931052E-2,9.036425E-3,6.106539E-2,-3.0242953E-2,4.94831E-2,2.3039024E-2,-7.434439E-2,4.7413554E-2,8.91571E-2,-4.3189295E-2,-1.190329E-2,2.0984635E-2,3.1376455E-2,7.0043206E-2,9.0471126E-2,4.2718966E-3,-5.189542E-2,-3.8777173E-2,3.3685684E-3,-1.0403564E-1,-1.3174594E-2,-6.5988734E-2,-8.245726E-3,1.0281717E-2,-1.422858E-2,3.302391E-2,9.866761E-3,-3.186668E-2,-5.717784E-3,-2.6402476E-3,2.9362448E-2,8.542978E-2,3.017535E-2,-1.131112E-1,3.4298886E-2,5.9049517E-2,9.901872E-2,-6.201029E-2,1.01261504E-1,9.1952674E-2,-9.691181E-2,1.43704275E-2,1.1391357E-1,8.661598E-2,1.0257713E-1,5.988046E-2,-8.4375E-2,-5.4000005E-2,1.1131754E-1,-7.133334E-2,1.0045187E-1,1.5980296E-2,7.933512E-2,-5.0792946E-3,3.798326E-2,-7.666667E-2,6.3750006E-2,2.6141755E-2,5.6359414E-2,-9.654753E-2,9.256968E-2,8.542122E-2,-9.345154E-2,9.8380856E-2,-1.8251145E-1,9.263782E-2,1.00257464E-1,8.255786E-2,-1.0623189E-1,-2.889616E-2,8.981053E-2,-5.487E-2,3.9100993E-2,5.9667625E-2,7.987005E-2,9.087957E-2,9.987457E-2,-2.9811462E-2,7.827287E-2],"categories":[],"categories_nodes":[],"categories_segments":[],"categories_sizes":[],"default_left":[0,0,0,0,0,0,0,0,0,0,0,0,0,0,0,0,0,0,0,0,0,0,0,0,0,0,0,0,0,0,0,0,0,0,0,0,0,0,0,0,0,0,0,0,0,0,0,0,0,0,0,0,0,0,0,0,0,0,0,0,0,0,0,0,0,0,0,0,0,0,0,0,0,0,0,0,0,0,0,0,0,0,0,0,0,0,0,0,0,0,0,0,0,0,0,0,0,0,0,0,0,0,0,0,0,0,0,0,0,0,0,0,0,0,0,0,0,0,0,0,0,0,0,0,0,0,0,0,0,0,0,0,0,0,0,0,0,0,0,0,0,0,0,0,0,0,0,0,0,0,0,0,0,0,0,0,0,0,0,0,0,0,0,0,0,0,0,0,0,0,0,0,0,0,0,0,0,0,0,0,0,0,0,0,0,0,0,0,0,0,0,0,0,0,0,0,0,0,0,0,0,0,0,0,0,0,0,0,0,0,0,0,0,0,0,0,0,0,0,0,0,0,0,0,0,0,0,0,0,0,0,0,0,0,0,0,0,0,0,0,0,0,0,0,0,0,0,0,0,0,0,0,0,0,0,0,0,0,0,0,0,0,0,0,0,0,0,0,0,0,0,0,0,0,0,0,0,0,0,0,0],"id":1,"left_children":[1,3,5,7,9,11,13,15,17,19,21,23,25,27,29,31,33,35,37,39,41,43,45,47,-1,49,51,53,55,-1,57,59,61,63,65,67,69,71,-1,-1,73,-1,75,77,79,81,83,-1,85,-1,87,89,91,93,95,97,99,101,103,105,107,109,111,113,-1,115,117,-1,119,121,-1,123,125,127,129,131,133,135,137,139,141,143,145,147,149,-1,151,153,155,-1,157,159,-1,161,-1,163,165,167,169,-1,171,173,175,177,179,181,183,185,187,189,191,-1,193,-1,195,-1,197,-1,199,201,203,-1,-1,205,207,209,-1,-1,211,213,215,-1,217,-1,-1,-1,219,221,223,225,227,229,231,233,235,-1,237,239,241,243,-1,245,-1,-1,-1,247,-1,249,-1,251,-1,-1,253,-1,255,257,-1,-1,259,261,263,-1,-1,265,267,269,271,273,275,277,279,-1,-1,-1,-1,-1,-1,-1,-1,-1,-1,-1,-1,-1,-1,-1,-1,-1,-1,-1,-1,-1,-1,-1,-1,-1,-1,-1,-1,-1,-1,-1,-1,-1,-1,-1,-1,-1,-1,-1,-1,-1,-1,-1,-1,-1,-1,-1,-1,-1,-1,-1,-1,-1,-1,-1,-1,-1,-1,-1,-1,-1,-1,-1,-1,-1,-1,-1,-1,-1,-1,-1,-1,-1,-1,-1,-1,-1,-1,-1,-1,-1,-1,-1,-1,-1,-1,-1,-1,-1,-1,-1,-1,-1,-1,-1,-1,-1,-1,-1,-1],"loss_changes":[5.983324E3,1.1800366E2,3.939729E2,2.9912598E1,3.6071007E1,7.173361E1,1.1186157E2,3.1415771E1,3.1674782E1,7.931279E1,3.3664455E1,5.561438E1,2.1207823E1,1.847369E1,7.2678223E0,7.682617E0,8.131703E0,2.4839157E1,1.2438219E1,2.6168642E1,4.3444824E-1,3.9970093E0,1.3179289E1,3.5979134E1,0E0,9.865295E0,1.4616036E0,4.744609E0,5.436428E0,0E0,3.3254395E0,3.2287598E0,3.9408493E0,1.3421347E1,5.7910957E0,1.9525837E1,5.055542E-1,8.706142E0,0E0,0E0,1.7172197E1,0E0,2.8747356E-1,1.8799181E0,5.1585984E-1,1.9189911E0,9.903791E-1,0E0,1.9627228E0,0E0,7.997093E-1,1.5205282E0,6.2016916E-1,4.0373898E0,1.9196856E0,5.4730687E0,8.274944E-1,1.2357666E1,1.9376221E0,7.6171875E-1,2.0832977E0,9.247277E0,4.0751953E0,4.685508E0,0E0,3.306532E-1,1.9498467E-2,0E0,1.5207106E0,5.050049E-1,0E0,1.8942211E0,2.3151693E0,9.588671E-1,2.1168804E0,2.78759E-2,1.563945E-2,7.1709335E-1,1.2483559E0,1.1792559E-1,4.8983443E-1,1.043817E0,9.717941E-2,1.0858166E0,6.487731E-1,0E0,4.9188614E-2,4.997177E-1,1.7757466E-1,0E0,7.0436686E-1,9.8895824E-1,0E0,2.6279542E0,0E0,4.887296E-1,9.4996095E-2,1.5374565E0,1.021462E0,0E0,3.7015784E-1,4.1954346E0,2.6678576E0,1.4174366E-1,8.2214355E-1,1.3891602E-1,1.0443726E0,3.197628E0,1.6234131E0,1.2698851E0,1.0342038E0,0E0,7.5688305E0,0E0,5.323329E-1,0E0,4.825531E-1,0E0,1.8443349E-1,2.8937334E-1,7.280054E-1,0E0,0E0,1.3316109E0,1.2943661E0,1.0092163E0,0E0,0E0,7.5429165E-1,1.50927305E-2,3.034191E-1,0E0,3.5108745E-2,0E0,0E0,0E0,2.5770146E-1,1.5088463E-1,1.160492E0,5.5949397E-2,2.5249436E-2,2.2237146E-1,9.772991E-2,5.6490636E-1,7.0550203E-1,0E0,8.213043E-2,1.3094594E0,6.6925955E-1,6.258124E-2,0E0,1.1539459E-2,0E0,0E0,0E0,2.9073155E-1,0E0,4.2510927E-1,0E0,6.324638E-1,0E0,0E0,2.0562494E-1,0E0,9.147552E-2,2.570544E-1,0E0,0E0,1.5374365E0,1.6829228E0,5.954957E-1,0E0,0E0,1.3422867E2,1.1774292E0,6.445327E-1,4.0995872E-1,9.7196214E-2,7.89876E-2,3.914795E-1,9.8902273E-1,0E0,0E0,0E0,0E0,0E0,0E0,0E0,0E0,0E0,0E0,0E0,0E0,0E0,0E0,0E0,0E0,0E0,0E0,0E0,0E0,0E0,0E0,0E0,0E0,0E0,0E0,0E0,0E0,0E0,0E0,0E0,0E0,0E0,0E0,0E0,0E0,0E0,0E0,0E0,0E0,0E0,0E0,0E0,0E0,0E0,0E0,0E0,0E0,0E0,0E0,0E0,0E0,0E0,0E0,0E0,0E0,0E0,0E0,0E0,0E0,0E0,0E0,0E0,0E0,0E0,0E0,0E0,0E0,0E0,0E0,0E0,0E0,0E0,0E0,0E0,0E0,0E0,0E0,0E0,0E0,0E0,0E0,0E0,0E0,0E0,0E0,0E0,0E0,0E0,0E0,0E0,0E0,0E0,0E0,0E0,0E0,0E0,0E0,0E0,0E0],"parents":[2147483647,0,0,1,1,2,2,3,3,4,4,5,5,6,6,7,7,8,8,9,9,10,10,11,11,12,12,13,13,14,14,15,15,16,16,17,17,18,18,19,19,20,20,21,21,22,22,23,23,25,25,26,26,27,27,28,28,30,30,31,31,32,32,33,33,34,34,35,35,36,36,37,37,40,40,42,42,43,43,44,44,45,45,46,46,48,48,50,50,51,51,52,52,53,53,54,54,55,55,56,56,57,57,58,58,59,59,60,60,61,61,62,62,63,63,65,65,66,66,68,68,69,69,71,71,72,72,73,73,74,74,75,75,76,76,77,77,78,78,79,79,80,80,81,81,82,82,83,83,84,84,86,86,87,87,88,88,90,90,91,91,93,93,95,95,96,96,97,97,98,98,100,100,101,101,102,102,103,103,104,104,105,105,106,106,107,107,108,108,109,109,110,110,112,112,114,114,116,116,118,118,119,119,120,120,123,123,124,124,125,125,128,128,129,129,130,130,132,132,136,136,137,137,138,138,139,139,140,140,141,141,142,142,143,143,144,144,146,146,147,147,148,148,149,149,151,151,155,155,157,157,159,159,162,162,164,164,165,165,168,168,169,169,170,170,173,173,174,174,175,175,176,176,177,177,178,178,179,179,180,180],"right_children":[2,4,6,8,10,12,14,16,18,20,22,24,26,28,30,32,34,36,38,40,42,44,46,48,-1,50,52,54,56,-1,58,60,62,64,66,68,70,72,-1,-1,74,-1,76,78,80,82,84,-1,86,-1,88,90,92,94,96,98,100,102,104,106,108,110,112,114,-1,116,118,-1,120,122,-1,124,126,128,130,132,134,136,138,140,142,144,146,148,150,-1,152,154,156,-1,158,160,-1,162,-1,164,166,168,170,-1,172,174,176,178,180,182,184,186,188,190,192,-1,194,-1,196,-1,198,-1,200,202,204,-1,-1,206,208,210,-1,-1,212,214,216,-1,218,-1,-1,-1,220,222,224,226,228,230,232,234,236,-1,238,240,242,244,-1,246,-1,-1,-1,248,-1,250,-1,252,-1,-1,254,-1,256,258,-1,-1,260,262,264,-1,-1,266,268,270,272,274,276,278,280,-1,-1,-1,-1,-1,-1,-1,-1,-1,-1,-1,-1,-1,-1,-1,-1,-1,-1,-1,-1,-1,-1,-1,-1,-1,-1,-1,-1,-1,-1,-1,-1,-1,-1,-1,-1,-1,-1,-1,-1,-1,-1,-1,-1,-1,-1,-1,-1,-1,-1,-1,-1,-1,-1,-1,-1,-1,-1,-1,-1,-1,-1,-1,-1,-1,-1,-1,-1,-1,-1,-1,-1,-1,-1,-1,-1,-1,-1,-1,-1,-1,-1,-1,-1,-1,-1,-1,-1,-1,-1,-1,-1,-1,-1,-1,-1,-1,-1,-1,-1],"split_conditions":[4.18E2,2.499E2,4.18E2,2.499E2,6.484848E-1,5.8484846E-1,3.727E2,6.086E2,6.272727E-1,4.2727274E-1,3.018E2,4.2424244E-1,9.5757574E-1,4.764E2,1.5454546E-1,3.431E2,6.272727E-1,4.3939394E-1,9.3939394E-1,1.5454546E-1,6.272727E-1,4.8E2,9.5757574E-1,1.5454546E-1,-1.0452415E-1,5.4E0,9.6363634E-1,5.7272726E-1,8.007E2,-1.0131489E-1,6.258E2,2.021E2,4.3030304E-1,4.3939394E-1,9.6363634E-1,1.969697E-1,6.484848E-1,3.018E2,-1.0450138E-1,-1.0505143E-1,2.771E2,-1.046652E-1,6.333333E-1,6.636364E-1,6.606061E-1,4.288E2,3.287E2,-1.0455486E-1,2.1515152E-1,-1.0230624E-1,9.6363634E-1,2.771E2,9.3939394E-1,4.2424244E-1,9.5757574E-1,7.241E2,1.768E2,8.007E2,4.18E2,1.478E2,4.3939394E-1,4.2424244E-1,6.484848E-1,1.5454546E-1,-1.0403974E-1,9.4242424E-1,7.003E2,-1.0464639E-1,3.018E2,3.6363637E-1,6.355454E-2,1.679E2,9.5454544E-1,2.177E2,2.1515152E-1,6.272727E-1,1.716E2,3.1E0,2.424E2,5.453E2,2.499E2,9.4848484E-1,2.3030303E-1,9.6363634E-1,9.6363634E-1,3.2841615E-2,3.6363637E-1,9.6363634E-1,7.003E2,-9.4222225E-2,7.003E2,6.849E2,-1.0113063E-1,1.1212121E-1,-1.0434118E-1,3.2E0,9.5454544E-1,1.1212121E-1,3.7878788E-1,-1.02777794E-1,5.6060606E-1,5.8484846E-1,5.807E2,4.288E2,9.6363634E-1,2.424E2,8.848485E-1,2.3030303E-1,6.272727E-1,2.060606E-1,1.5454546E-1,-1.04447216E-1,5.212121E-1,-1.01074226E-1,2.3030303E-1,1.048857E-1,5.181818E-1,-1.04175106E-1,7.086E2,1.868E2,2.1818182E-1,6.336557E-2,-1.0461052E-1,1.395E2,6.69697E-1,4.05E2,-1.04415596E-1,7.559148E-2,3.154E2,4.679E2,4.288E2,-7.9816714E-2,3.431E2,5.539656E-5,4.6060055E-2,1.0055891E-1,6.393939E-1,2.887E2,2.31E2,2.423E2,4.05E2,5.807E2,9.1818184E-1,2.569E2,8.909091E-1,2.0963522E-3,2.569E2,4.764E2,2.569E2,4.455E2,-7.4000545E-2,2.7575758E-1,7.945766E-2,1.03252545E-1,-6.3750006E-2,4.544E2,6.288606E-2,2.8E0,-7.4285716E-2,5.4E0,-9.708047E-2,-1.0011161E-1,2.5757575E-1,1.0035492E-1,3.018E2,7.003E2,-9.88889E-2,-1.3334544E-1,5.545E2,8.7878786E-2,7.272727E-2,-7.8136E-2,5.1065743E-2,4.3939394E-1,7.939394E-1,4.831E2,5.9090906E-1,5.272727E-1,6.056E2,4.723E2,5.296E2,-1.0440183E-1,-9.538265E-2,-1.01045825E-1,-7.312468E-2,-1.10137686E-1,-5.3490344E-2,-1.06196545E-1,-8.834399E-2,-9.680152E-2,-4.9221266E-2,-1.013652E-1,8.586783E-2,9.426819E-2,-7.380426E-2,3.205688E-2,9.225216E-2,9.554046E-2,-1.486361E-2,1.3573024E-2,-8.832692E-2,-7.1834684E-3,1.7931052E-2,9.036425E-3,6.106539E-2,-3.0242953E-2,4.94831E-2,2.3039024E-2,-7.434439E-2,4.7413554E-2,8.91571E-2,-4.3189295E-2,-1.190329E-2,2.0984635E-2,3.1376455E-2,7.0043206E-2,9.0471126E-2,4.2718966E-3,-5.189542E-2,-3.8777173E-2,3.3685684E-3,-1.0403564E-1,-1.3174594E-2,-6.5988734E-2,-8.245726E-3,1.0281717E-2,-1.422858E-2,3.302391E-2,9.866761E-3,-3.186668E-2,-5.717784E-3,-2.6402476E-3,2.9362448E-2,8.542978E-2,3.017535E-2,-1.131112E-1,3.4298886E-2,5.9049517E-2,9.901872E-2,-6.201029E-2,1.01261504E-1,9.1952674E-2,-9.691181E-2,1.43704275E-2,1.1391357E-1,8.661598E-2,1.0257713E-1,5.988046E-2,-8.4375E-2,-5.4000005E-2,1.1131754E-1,-7.133334E-2,1.0045187E-1,1.5980296E-2,7.933512E-2,-5.0792946E-3,3.798326E-2,-7.666667E-2,6.3750006E-2,2.6141755E-2,5.6359414E-2,-9.654753E-2,9.256968E-2,8.542122E-2,-9.345154E-2,9.8380856E-2,-1.8251145E-1,9.263782E-2,1.00257464E-1,8.255786E-2,-1.0623189E-1,-2.889616E-2,8.981053E-2,-5.487E-2,3.9100993E-2,5.9667625E-2,7.987005E-2,9.087957E-2,9.987457E-2,-2.9811462E-2,7.827287E-2],"split_indices":[2,2,4,0,3,5,0,4,3,3,0,5,3,4,5,4,5,3,3,3,5,4,1,5,0,4,3,3,4,0,4,0,5,5,5,5,5,0,0,0,0,0,1,1,1,0,4,0,5,0,1,4,5,3,3,2,0,2,0,0,1,3,5,5,0,5,4,0,0,5,0,4,1,4,3,1,0,0,4,4,0,1,5,1,3,0,5,5,0,0,0,0,0,3,0,0,5,3,3,0,1,5,0,2,5,4,1,5,1,5,5,0,3,0,5,0,1,0,4,4,1,0,0,4,1,0,0,0,2,0,0,0,4,0,0,0,1,0,0,0,2,4,1,4,5,0,2,0,2,0,0,3,0,0,0,0,0,0,0,0,0,0,3,0,0,2,0,0,2,1,1,0,0,5,1,4,5,1,2,0,2,0,0,0,0,0,0,0,0,0,0,0,0,0,0,0,0,0,0,0,0,0,0,0,0,0,0,0,0,0,0,0,0,0,0,0,0,0,0,0,0,0,0,0,0,0,0,0,0,0,0,0,0,0,0,0,0,0,0,0,0,0,0,0,0,0,0,0,0,0,0,0,0,0,0,0,0,0,0,0,0,0,0,0,0,0,0,0,0,0,0,0,0,0,0,0,0,0,0,0,0],"split_type":[0,0,0,0,0,0,0,0,0,0,0,0,0,0,0,0,0,0,0,0,0,0,0,0,0,0,0,0,0,0,0,0,0,0,0,0,0,0,0,0,0,0,0,0,0,0,0,0,0,0,0,0,0,0,0,0,0,0,0,0,0,0,0,0,0,0,0,0,0,0,0,0,0,0,0,0,0,0,0,0,0,0,0,0,0,0,0,0,0,0,0,0,0,0,0,0,0,0,0,0,0,0,0,0,0,0,0,0,0,0,0,0,0,0,0,0,0,0,0,0,0,0,0,0,0,0,0,0,0,0,0,0,0,0,0,0,0,0,0,0,0,0,0,0,0,0,0,0,0,0,0,0,0,0,0,0,0,0,0,0,0,0,0,0,0,0,0,0,0,0,0,0,0,0,0,0,0,0,0,0,0,0,0,0,0,0,0,0,0,0,0,0,0,0,0,0,0,0,0,0,0,0,0,0,0,0,0,0,0,0,0,0,0,0,0,0,0,0,0,0,0,0,0,0,0,0,0,0,0,0,0,0,0,0,0,0,0,0,0,0,0,0,0,0,0,0,0,0,0,0,0,0,0,0,0,0,0,0,0,0,0,0,0,0,0,0,0,0,0,0,0,0,0,0,0,0,0,0,0,0,0],"sum_hessian":[7.0557E4,4.0223E4,3.0334E4,3.6668E4,3.555E3,2.13E3,2.8204E4,3.4315E4,2.353E3,2.386E3,1.169E3,1.639E3,4.91E2,1.149E3,2.7055E4,3.4002E4,3.13E2,1.843E3,5.1E2,8.67E2,1.519E3,7.13E2,4.56E2,4.29E2,1.21E3,3.96E2,9.5E1,2.66E2,8.83E2,1.6E1,2.7039E4,3.3039E4,9.63E2,2.13E2,1E2,4.61E2,1.382E3,4.26E2,8.4E1,1.47E2,7.2E2,1.483E3,3.6E1,3.84E2,3.29E2,3.87E2,6.9E1,1.38E2,2.91E2,2.2E1,3.74E2,2.1E1,7.4E1,2.22E2,4.4E1,8.42E2,4.1E1,1.0969E4,1.607E4,3.0623E4,2.416E3,2.6E2,7.03E2,9.1E1,1.22E2,8.3E1,1.7E1,1.69E2,2.92E2,1.381E3,1E0,1.69E2,2.57E2,3.01E2,4.19E2,3.4E1,2E0,5.5E1,3.29E2,5.6E1,2.73E2,7.9E1,3.08E2,6.2E1,7E0,6.2E1,2.29E2,3.69E2,5E0,8E0,1.3E1,1.5E1,5.9E1,3.7E1,1.85E2,3.3E1,1.1E1,7.86E2,5.6E1,3.4E1,7E0,1.0921E4,4.8E1,1.48E2,1.5922E4,2.3122E4,7.501E3,4.15E2,2.001E3,2.13E2,4.7E1,4.42E2,2.61E2,1.5E1,7.6E1,7E1,1.3E1,1.1E1,6E0,1.65E2,1.27E2,1E0,1.38E3,7.5E1,9.4E1,2.5E2,7E0,8E0,2.93E2,7.7E1,3.42E2,2.7E1,7E0,1E0,1E0,4E0,5.1E1,7.7E1,2.52E2,3.2E1,2.4E1,2.04E2,6.9E1,6.9E1,1E1,1E0,3.07E2,1.7E1,4.5E1,5E0,2E0,1.77E2,5.2E1,3.68E2,1E0,4E0,1E0,1.1E1,2E0,7E0,8E0,1.3E1,2.4E1,1.3E1,2E1,3E0,8E0,4E0,7.82E2,1.5E1,4.1E1,2E0,5E0,2.98E3,7.941E3,3.6E1,1.2E1,2E0,1.46E2,1.5843E4,7.9E1,2.2832E4,2.9E2,7.366E3,1.35E2,1.34E2,2.81E2,8.36E2,1.165E3,9.1E1,1.22E2,2E0,4.5E1,2.6E1,2.35E2,1.9E1,5.7E1,7E0,6E0,2E0,4E0,9.1E1,7.4E1,3.3E1,9.4E1,4.3E1,3.2E1,1.4E1,8E1,1.72E2,7.8E1,1.13E2,1.8E2,3.3E1,4.4E1,1.33E2,2.09E2,1E0,6E0,2.6E1,2.5E1,7.5E1,2E0,2.15E2,3.7E1,1.8E1,1.4E1,1.7E1,7E0,1.68E2,3.6E1,6E1,9E0,3.3E1,3.6E1,5E0,5E0,1E1,2.97E2,1.1E1,6E0,1E0,4.4E1,1E0,4E0,6.3E1,1.14E2,1E0,3E0,1E0,1E1,2E0,5E0,7E0,1.7E1,6E0,1.4E1,2E0,1E0,5.75E2,2.07E2,7E0,8E0,1E0,4E1,2.819E3,1.61E2,3.931E3,4.01E3,1E0,3.5E1,3E0,9E0,1E0,1E0,1.1E2,3.6E1,5.78E2,1.5265E4,8E0,7.1E1],"tree_param":{"num_deleted":"0","num_feature":"6","num_nodes":"281","size_leaf_vector":"1"}},{"base_weights":[-4.136351E-2,-2.1839282E-1,1.933775E-1,-2.3020498E-1,-9.652602E-2,-9.697109E-2,2.1530762E-1,-2.3672396E-1,-1.6671774E-1,-1.459242E-1,4.337199E-3,-1.6710676E-1,1.3701162E-1,-2.9983168E-2,2.2342159E-1,-2.3885593E-1,-1.6571496E-2,-1.9722961E-1,-8.951126E-2,2.3171432E-2,-2.4239069E-1,-9.7924784E-2,1.4496455E-1,4.976699E-2,-7.319279E-2,2.0874937E-1,-1.6108108E-1,-1.1032366E-1,9.061039E-2,1.4343126E-1,2.2553031E-1,-2.4054947E-1,-1.673283E-1,-9.2608415E-2,1.4921755E-1,-7.057092E-2,-2.4247588E-1,-1.8059286E-1,2.919327E-2,-7.374894E-2,7.8357294E-2,-7.328273E-2,-1.578982E-1,-1.5184514E-1,-4.635707E-2,1.8945725E-1,-1.2660502E-1,-7.3414065E-2,1.8977734E-1,-7.294879E-2,2.3590997E-1,-2.13959E-4,-2.0612103E-1,8.48541E-2,-2.771472E-1,1.2152955E-1,-2.556126E-1,1.19797915E-1,1.8075025E-1,-7.270832E-2,2.2582105E-1,-2.4354976E-1,-2.3226714E-1,-7.434464E-2,-1.9966766E-1,1.1622214E-1,-7.308401E-2,2.2740802E-1,-2.239612E-1,-2.398684E-1,1.3849275E-2,-2.4281012E-1,5.4021362E-2,-1.3138498E-1,-2.4386926E-1,1.5501967E-1,-1.3598448E-1,-5.9258588E-2,1.6485046E-1,-1.6986692E-1,3.9151054E-2,-1.9830903E-2,-1.7308311E-1,2.5645547E-2,-5.9380066E-2,7.995256E-2,2.2756414E-1,-1.5547118E-1,1.1654165E-1,2.3145517E-2,2.1980186E-1,2.3957415E-1,-2.936635E-2,-6.90963E-2,1.4772727E-1,-7.497868E-2,-2.3765697E-1,-8.241648E-2,1.3123456E-1,-7.320712E-2,-3.31627E-1,3.0783826E-1,6.617687E-2,6.6989064E-3,-8.886777E-2,1.23301975E-1,-1.50709E-1,1.8600088E-1,-6.486893E-2,2.1647917E-1,2.3215114E-1,-7.345355E-2,-2.3981519E-1,-2.3513333E-1,-1.9836938E-1,-1.5106839E-1,1.7699742E-1,-7.319503E-2,-9.021962E-2,-7.2647095E-2,1.8824579E-1,2.3912562E-1,3.5224836E-2,-1.296081E-1,-7.508431E-2,-7.451487E-2,-1.097827E-1,-5.6352664E-2,7.8685515E-2,5.3860735E-2,-2.4314412E-1,-1.4739089E-1,1.9429101E-1,-1.6625226E-2,-2.516672E-1,1.5961683E-1,-7.840836E-2,-2.386652E-1,-2.7229255E-2,-8.8133134E-2,9.988945E-3,6.425215E-2,1.8583904E-1,-5.674905E-2,-6.5657265E-2,-8.2646E-2,1.5081212E-1,-7.461673E-2,-1.4286841E-1,9.853634E-3,8.648179E-2,-8.119061E-2,-1.60376E-2,1.04358226E-1,-1.7698051E-1,1.8940927E-1,2.383355E-1,-2.3943814E-3,-2.1199098E-1,2.5405625E-1,-5.9200436E-2,2.2836351E-1,1.8690042E-1,7.2360724E-2,-5.4187503E-2,-1.06510475E-1,5.3453147E-2,2.2187229E-1,-5.942857E-2,1.170139E-1,-7.119234E-2,-1.2572972E-1,-2.4554618E-1,2.555702E-1,6.390979E-2,-3.5540235E-1,-7.2892174E-2,9.631927E-2,-1.0261665E-1,1.6604283E-1,4.372462E-2,-8.193886E-2,5.41875E-2,1.1554116E-1,7.174523E-2,-4.6402365E-3,-8.8569306E-2,2.7858991E-2,1.9460769E-1,2.1802875E-1,-1.3362066E-1,2.3277189E-1,1.8745418E-1,-7.274488E-2,-4.614214E-2,-7.056639E-2,6.899728E-2,-4.685503E-2,-6.9754764E-2,-5.8021944E-2,4.519936E-3,-8.109216E-2,6.0865343E-2,6.703515E-2,-4.514979E-2,2.2920672E-2,6.689048E-2,4.9753133E-2,7.456235E-2,-7.7027276E-2,7.362163E-2,-7.335146E-2,2.003708E-2,-7.2270036E-2,2.2344016E-2,-3.906673E-2,-7.444008E-3,1.5902575E-2,7.1299054E-2,-7.3351264E-2,-5.91651E-2,-2.006526E-2,-5.9367906E-2,9.1274224E-2,-2.594138E-2,4.4741936E-2,-7.8334935E-2,-7.709043E-2,-4.2902634E-2,3.2423805E-2,5.3878818E-2,-7.790411E-2,-5.4782305E-2,2.9709462E-2,-8.121799E-2,-3.17965E-2,7.0263017E-3,7.855582E-2,-8.1873225E-4,1.5529668E-2,2.3214579E-2,5.9730146E-2,2.4478132E-2,-2.299574E-2,4.7090653E-5,-3.462202E-2,-1.235086E-2,7.642478E-2,2.2893714E-2,-4.9034417E-2,-1.9014971E-2,-1.1248109E-3,1.530105E-2,-6.860823E-4,2.8676206E-2,-2.784108E-2,7.6931505E-3,-9.085748E-3,2.449368E-2,5.5620015E-2,1.7776737E-2,-9.220391E-2,4.4563795E-3,6.0225006E-2,-4.3771505E-2,1.7818988E-3,7.178372E-2,-4.495746E-2,7.5222835E-2,4.0338665E-2,-7.1786754E-2,1.2214861E-2,8.657431E-2,6.3933715E-2,7.733509E-2,5.706287E-2,2.0503458E-2,5.0898395E-2,-6.539063E-2,-4.5900002E-2,8.095821E-2,-5.7066668E-2,7.533889E-2,-7.518082E-2,7.479528E-2,-7.8967884E-2,-5.425526E-2,1.4712577E-2,9.637444E-2,1.2131105E-2,5.277017E-2,-1.1606099E-1,-8.3932266E-2,2.6536923E-2,5.5386428E-2,3.199479E-4,3.2614436E-2,-6.133334E-2,4.2836685E-2,2.0204587E-2,3.8337704E-2,-4.2350177E-2,2.6377356E-2,-6.018413E-2,2.3532143E-2,6.1505795E-2,4.567484E-2,5.8775727E-2,6.790772E-2,-6.917157E-2,4.354143E-2,6.9881484E-2,4.249283E-2,-1.897599E-1,6.9960035E-2],"categories":[],"categories_nodes":[],"categories_segments":[],"categories_sizes":[],"default_left":[0,0,0,0,0,0,0,0,0,0,0,0,0,0,0,0,0,0,0,0,0,0,0,0,0,0,0,0,0,0,0,0,0,0,0,0,0,0,0,0,0,0,0,0,0,0,0,0,0,0,0,0,0,0,0,0,0,0,0,0,0,0,0,0,0,0,0,0,0,0,0,0,0,0,0,0,0,0,0,0,0,0,0,0,0,0,0,0,0,0,0,0,0,0,0,0,0,0,0,0,0,0,0,0,0,0,0,0,0,0,0,0,0,0,0,0,0,0,0,0,0,0,0,0,0,0,0,0,0,0,0,0,0,0,0,0,0,0,0,0,0,0,0,0,0,0,0,0,0,0,0,0,0,0,0,0,0,0,0,0,0,0,0,0,0,0,0,0,0,0,0,0,0,0,0,0,0,0,0,0,0,0,0,0,0,0,0,0,0,0,0,0,0,0,0,0,0,0,0,0,0,0,0,0,0,0,0,0,0,0,0,0,0,0,0,0,0,0,0,0,0,0,0,0,0,0,0,0,0,0,0,0,0,0,0,0,0,0,0,0,0,0,0,0,0,0,0,0,0,0,0,0,0,0,0,0,0,0,0,0,0,0,0,0,0,0,0,0,0,0,0,0,0,0,0,0,0,0,0,0,0,0,0,0,0,0,0,0,0,0,0,0,0,0,0,0,0,0,0,0,0,0,0,0,0,0,0,0,0,0,0,0,0,0,0],"id":2,"left_children":[1,3,5,7,9,11,13,15,17,19,21,23,25,27,29,31,33,35,37,39,41,43,45,47,-1,49,51,53,55,57,59,61,63,65,67,69,71,73,75,-1,77,-1,79,81,83,85,87,-1,89,-1,91,93,95,97,99,101,103,105,107,-1,109,111,113,115,117,119,-1,121,123,125,127,129,-1,131,133,135,137,139,141,143,-1,145,147,149,151,153,155,157,159,-1,161,163,165,-1,167,169,171,-1,173,-1,175,177,179,181,-1,183,185,187,-1,189,191,-1,193,195,197,199,201,-1,203,-1,205,207,209,211,-1,-1,213,215,217,-1,219,221,223,225,227,229,-1,231,233,235,237,239,241,-1,243,245,247,-1,249,251,253,255,257,259,261,263,265,267,269,271,-1,273,275,-1,-1,277,-1,279,-1,281,-1,283,285,287,289,291,-1,-1,-1,293,295,297,-1,299,-1,301,-1,303,305,307,309,311,313,-1,-1,-1,-1,-1,-1,-1,-1,-1,-1,-1,-1,-1,-1,-1,-1,-1,-1,-1,-1,-1,-1,-1,-1,-1,-1,-1,-1,-1,-1,-1,-1,-1,-1,-1,-1,-1,-1,-1,-1,-1,-1,-1,-1,-1,-1,-1,-1,-1,-1,-1,-1,-1,-1,-1,-1,-1,-1,-1,-1,-1,-1,-1,-1,-1,-1,-1,-1,-1,-1,-1,-1,-1,-1,-1,-1,-1,-1,-1,-1,-1,-1,-1,-1,-1,-1,-1,-1,-1,-1,-1,-1,-1,-1,-1,-1,-1,-1,-1,-1,-1,-1,-1,-1,-1,-1,-1,-1,-1,-1,-1,-1,-1,-1,-1,-1,-1,-1,-1,-1,-1,-1],"loss_changes":[2.9321533E3,5.788037E1,1.9317542E2,1.5137085E1,1.7718258E1,3.4993744E1,5.614258E1,1.5603027E1,8.03418E0,3.894251E1,1.683977E1,2.7352444E1,1.0554798E1,8.768442E0,4.572998E0,3.9490967E0,4.047766E0,1.40177E1,1.0492718E1,1.29047785E1,2.0352173E-1,1.8781738E0,5.980838E0,1.777548E1,0E0,4.9302235E0,6.9551873E-1,1.7703732E1,3.9062467E0,5.9925556E-1,3.6729736E0,7.4279785E-1,2.285532E0,6.9658923E0,2.9980125E0,9.236036E0,2.9850006E-1,1.6773796E0,8.791811E0,0E0,8.591711E0,0E0,1.4643306E-1,9.2459774E-1,3.2783896E-1,1.7511091E0,5.094286E-1,0E0,9.704485E-1,0E0,3.7154388E-1,7.829556E-1,2.9235792E-1,4.222051E0,4.4781113E-1,3.4137526E0,3.215841E-1,4.2995977E-1,6.0509014E-1,0E0,1.5217285E0,5.5419922E-2,7.865906E-1,3.8642356E0,2.728094E0,2.4460797E0,0E0,1.8073893E-1,1.2261927E-2,2.1086979E-1,1.9707383E0,2.979889E-1,0E0,1.6497989E0,4.1933155E-1,5.011177E-1,2.0370743E0,5.5873847E-1,9.2341614E-1,5.7961226E-2,0E0,5.162551E-1,6.158085E-1,5.1026754E-2,2.775681E-1,7.1450853E-1,8.390427E-2,5.445603E-1,3.9543492E-1,0E0,2.2107124E-2,2.967167E-1,1.1504231E-1,0E0,4.0292606E-1,5.2642405E-1,2.2108555E-2,0E0,1.8503702E0,0E0,1.4128494E-1,7.6307917E-1,5.712315E-1,9.188231E-2,0E0,3.580742E-1,1.2529096E-1,3.5935116E-1,0E0,5.862213E0,3.9569092E-1,0E0,1.3680725E0,3.774414E-1,9.360256E-1,1.0790901E0,5.9907246E-1,0E0,3.1534376E0,0E0,2.8587627E-1,1.3289928E-2,4.3122393E-1,1.5172374E-1,0E0,0E0,3.8034302E-1,4.813674E-1,9.058671E-1,0E0,6.434631E-2,1.1942949E0,4.8938274E-1,4.0369564E-1,9.630394E-2,2.256527E-1,0E0,6.3317776E-2,2.7937858E0,3.94871E-1,2.6658165E-1,8.782059E-3,4.8972893E-1,0E0,5.0775167E-3,4.2806745E-2,8.122221E-2,0E0,3.266101E-1,2.4820749E-2,9.109788E-3,2.4555063E-1,1.4165394E-1,3.6184275E-1,2.546529E-1,3.1069112E-1,5.1425934E-2,7.094901E-1,4.6722245E-1,3.2443196E-2,0E0,2.4930954E-2,7.7929497E-3,0E0,0E0,1.9088903E-1,0E0,2.5716293E-1,0E0,3.77412E-1,0E0,3.4347937E-1,1.5305042E-2,1.042264E0,3.7668228E-1,8.929062E-2,0E0,0E0,0E0,5.141723E-2,5.8762413E-1,1.3931406E-1,0E0,2.2992134E-1,0E0,6.296242E-2,0E0,1.8908356E-1,8.0804825E-2,1.9273071E0,1.3307128E0,2.0367432E-1,8.474965E0,0E0,0E0,0E0,0E0,0E0,0E0,0E0,0E0,0E0,0E0,0E0,0E0,0E0,0E0,0E0,0E0,0E0,0E0,0E0,0E0,0E0,0E0,0E0,0E0,0E0,0E0,0E0,0E0,0E0,0E0,0E0,0E0,0E0,0E0,0E0,0E0,0E0,0E0,0E0,0E0,0E0,0E0,0E0,0E0,0E0,0E0,0E0,0E0,0E0,0E0,0E0,0E0,0E0,0E0,0E0,0E0,0E0,0E0,0E0,0E0,0E0,0E0,0E0,0E0,0E0,0E0,0E0,0E0,0E0,0E0,0E0,0E0,0E0,0E0,0E0,0E0,0E0,0E0,0E0,0E0,0E0,0E0,0E0,0E0,0E0,0E0,0E0,0E0,0E0,0E0,0E0,0E0,0E0,0E0,0E0,0E0,0E0,0E0,0E0,0E0,0E0,0E0,0E0,0E0,0E0,0E0,0E0,0E0,0E0,0E0,0E0,0E0,0E0,0E0,0E0,0E0,0E0,0E0,0E0,0E0,0E0,0E0],"parents":[2147483647,0,0,1,1,2,2,3,3,4,4,5,5,6,6,7,7,8,8,9,9,10,10,11,11,12,12,13,13,14,14,15,15,16,16,17,17,18,18,19,19,20,20,21,21,22,22,23,23,25,25,26,26,27,27,28,28,29,29,30,30,31,31,32,32,33,33,34,34,35,35,36,36,37,37,38,38,40,40,42,42,43,43,44,44,45,45,46,46,48,48,50,50,51,51,52,52,53,53,54,54,55,55,56,56,57,57,58,58,60,60,61,61,62,62,63,63,64,64,65,65,67,67,68,68,69,69,70,70,71,71,73,73,74,74,75,75,76,76,77,77,78,78,79,79,81,81,82,82,83,83,84,84,85,85,86,86,87,87,88,88,90,90,91,91,92,92,94,94,95,95,96,96,98,98,100,100,101,101,102,102,103,103,105,105,106,106,107,107,109,109,110,110,112,112,113,113,114,114,115,115,116,116,118,118,120,120,121,121,122,122,123,123,126,126,127,127,128,128,130,130,131,131,132,132,133,133,134,134,135,135,137,137,138,138,139,139,140,140,141,141,142,142,144,144,145,145,146,146,148,148,149,149,150,150,151,151,152,152,153,153,154,154,155,155,156,156,157,157,158,158,159,159,161,161,162,162,165,165,167,167,169,169,171,171,172,172,173,173,174,174,175,175,179,179,180,180,181,181,183,183,185,185,187,187,188,188,189,189,190,190,191,191,192,192],"right_children":[2,4,6,8,10,12,14,16,18,20,22,24,26,28,30,32,34,36,38,40,42,44,46,48,-1,50,52,54,56,58,60,62,64,66,68,70,72,74,76,-1,78,-1,80,82,84,86,88,-1,90,-1,92,94,96,98,100,102,104,106,108,-1,110,112,114,116,118,120,-1,122,124,126,128,130,-1,132,134,136,138,140,142,144,-1,146,148,150,152,154,156,158,160,-1,162,164,166,-1,168,170,172,-1,174,-1,176,178,180,182,-1,184,186,188,-1,190,192,-1,194,196,198,200,202,-1,204,-1,206,208,210,212,-1,-1,214,216,218,-1,220,222,224,226,228,230,-1,232,234,236,238,240,242,-1,244,246,248,-1,250,252,254,256,258,260,262,264,266,268,270,272,-1,274,276,-1,-1,278,-1,280,-1,282,-1,284,286,288,290,292,-1,-1,-1,294,296,298,-1,300,-1,302,-1,304,306,308,310,312,314,-1,-1,-1,-1,-1,-1,-1,-1,-1,-1,-1,-1,-1,-1,-1,-1,-1,-1,-1,-1,-1,-1,-1,-1,-1,-1,-1,-1,-1,-1,-1,-1,-1,-1,-1,-1,-1,-1,-1,-1,-1,-1,-1,-1,-1,-1,-1,-1,-1,-1,-1,-1,-1,-1,-1,-1,-1,-1,-1,-1,-1,-1,-1,-1,-1,-1,-1,-1,-1,-1,-1,-1,-1,-1,-1,-1,-1,-1,-1,-1,-1,-1,-1,-1,-1,-1,-1,-1,-1,-1,-1,-1,-1,-1,-1,-1,-1,-1,-1,-1,-1,-1,-1,-1,-1,-1,-1,-1,-1,-1,-1,-1,-1,-1,-1,-1,-1,-1,-1,-1,-1,-1],"split_conditions":[4.18E2,2.499E2,4.18E2,2.218E2,6.484848E-1,5.8484846E-1,3.286E2,6.056E2,6.272727E-1,4.2727274E-1,2.771E2,4.2424244E-1,9.5757574E-1,6.333333E-1,4.288E2,3.728E2,6.272727E-1,4.3939394E-1,2.67E2,1.5454546E-1,6.333333E-1,4.627E2,9.5757574E-1,1.5454546E-1,-7.319279E-2,5.4E0,9.6363634E-1,4.3030304E-1,9.6363634E-1,5.807E2,1.5454546E-1,1.478E2,4.3030304E-1,4.3939394E-1,9.6363634E-1,2.1515152E-1,6.69697E-1,1.973E2,8.545455E-1,-7.374894E-2,2.579E2,-7.328273E-2,2.423E2,6.606061E-1,6.606061E-1,4.18E2,3.287E2,-7.3414065E-2,2.1515152E-1,-7.294879E-2,9.6363634E-1,2.771E2,9.3939394E-1,1.5454546E-1,4.764E2,5.86E1,9.5454544E-1,7.854E2,7.241E2,-7.270832E-2,6.258E2,5.87E1,8.181818E-1,4.212121E-1,6.060606E-1,1.5454546E-1,-7.308401E-2,9.5757574E-1,5.212121E-1,2.060606E-1,2.67E2,3.6363637E-1,5.4021362E-2,9.1818184E-1,6.212121E-1,2.26E2,1.496E2,3.581E2,2.1515152E-1,6.69697E-1,3.9151054E-2,6.636364E-1,2.771E2,6.848485E-1,8.424242E-1,9.4848484E-1,3.018E2,9.6363634E-1,9.6363634E-1,2.3145517E-2,3.6363637E-1,9.6363634E-1,7.003E2,-6.90963E-2,7.003E2,6.849E2,7.5757575E-1,-8.241648E-2,5.4E0,-7.320712E-2,8.007E2,9.6363634E-1,6.787879E-1,7.003E2,-8.886777E-2,9.4242424E-1,3.727E2,6.007E2,-6.486893E-2,8.007E2,8.007E2,-7.345355E-2,8.30303E-1,8.909091E-1,8.727273E-1,3.5757574E-1,1.5454546E-1,-7.319503E-2,5.212121E-1,-7.2647095E-2,2.3030303E-1,2.8E0,6.922E2,5.181818E-1,-7.508431E-2,-7.451487E-2,2.423E2,2.31E2,3.727E2,5.3860735E-2,6.212121E-1,7.3939395E-1,9.3939394E-1,2.177E2,3.154E2,3.152E2,-7.840836E-2,1.244E2,1.697E2,5.222E2,3E0,5.098E2,3.728E2,-5.674905E-2,6.333333E-1,6.545454E-1,3.1E0,-7.461673E-2,2.218E2,5.453E2,1.395E2,6.056E2,9.1818184E-1,2.569E2,9E-1,9.3939394E-1,2.3030303E-1,4.764E2,9.3030304E-1,4.455E2,-5.9200436E-2,3.3333334E-1,4.212121E-1,7.2360724E-2,-5.4187503E-2,4.544E2,5.3453147E-2,2.8E0,-5.942857E-2,5.4E0,-7.119234E-2,6.878788E-1,6.201E2,2.3030303E-1,4.931E2,7.241E2,-7.2892174E-2,9.631927E-2,-1.0261665E-1,6.545454E-1,4.8E2,3.1E0,5.41875E-2,5.732E2,7.174523E-2,3.58E2,-8.8569306E-2,3.892E2,6.495E2,5.8484846E-1,5.807E2,8.007E2,5.296E2,-7.274488E-2,-4.614214E-2,-7.056639E-2,6.899728E-2,-4.685503E-2,-6.9754764E-2,-5.8021944E-2,4.519936E-3,-8.109216E-2,6.0865343E-2,6.703515E-2,-4.514979E-2,2.2920672E-2,6.689048E-2,4.9753133E-2,7.456235E-2,-7.7027276E-2,7.362163E-2,-7.335146E-2,2.003708E-2,-7.2270036E-2,2.2344016E-2,-3.906673E-2,-7.444008E-3,1.5902575E-2,7.1299054E-2,-7.3351264E-2,-5.91651E-2,-2.006526E-2,-5.9367906E-2,9.1274224E-2,-2.594138E-2,4.4741936E-2,-7.8334935E-2,-7.709043E-2,-4.2902634E-2,3.2423805E-2,5.3878818E-2,-7.790411E-2,-5.4782305E-2,2.9709462E-2,-8.121799E-2,-3.17965E-2,7.0263017E-3,7.855582E-2,-8.1873225E-4,1.5529668E-2,2.3214579E-2,5.9730146E-2,2.4478132E-2,-2.299574E-2,4.7090653E-5,-3.462202E-2,-1.235086E-2,7.642478E-2,2.2893714E-2,-4.9034417E-2,-1.9014971E-2,-1.1248109E-3,1.530105E-2,-6.860823E-4,2.8676206E-2,-2.784108E-2,7.6931505E-3,-9.085748E-3,2.449368E-2,5.5620015E-2,1.7776737E-2,-9.220391E-2,4.4563795E-3,6.0225006E-2,-4.3771505E-2,1.7818988E-3,7.178372E-2,-4.495746E-2,7.5222835E-2,4.0338665E-2,-7.1786754E-2,1.2214861E-2,8.657431E-2,6.3933715E-2,7.733509E-2,5.706287E-2,2.0503458E-2,5.0898395E-2,-6.539063E-2,-4.5900002E-2,8.095821E-2,-5.7066668E-2,7.533889E-2,-7.518082E-2,7.479528E-2,-7.8967884E-2,-5.425526E-2,1.4712577E-2,9.637444E-2,1.2131105E-2,5.277017E-2,-1.1606099E-1,-8.3932266E-2,2.6536923E-2,5.5386428E-2,3.199479E-4,3.2614436E-2,-6.133334E-2,4.2836685E-2,2.0204587E-2,3.8337704E-2,-4.2350177E-2,2.6377356E-2,-6.018413E-2,2.3532143E-2,6.1505795E-2,4.567484E-2,5.8775727E-2,6.790772E-2,-6.917157E-2,4.354143E-2,6.9881484E-2,4.249283E-2,-1.897599E-1,6.9960035E-2],"split_indices":[2,2,4,0,3,5,0,4,3,3,0,5,3,5,0,4,5,3,0,3,3,4,1,5,0,4,3,5,3,2,5,4,5,5,5,5,5,4,3,0,0,0,0,1,1,0,4,0,5,0,1,4,5,3,4,0,5,4,2,0,4,4,1,3,5,5,0,5,3,5,0,5,0,1,5,4,2,2,3,5,0,3,4,5,1,1,2,1,3,0,5,5,0,0,0,0,1,0,0,0,4,5,1,2,0,1,0,4,0,2,4,0,1,5,5,5,5,0,3,0,5,2,4,1,0,0,0,0,0,0,3,5,1,4,4,0,0,4,4,4,0,0,4,0,1,3,0,0,0,4,0,4,1,4,5,3,5,0,3,0,0,3,5,0,0,0,0,0,0,0,0,1,0,5,2,2,0,0,0,1,2,0,0,4,0,0,0,0,4,5,0,2,2,0,0,0,0,0,0,0,0,0,0,0,0,0,0,0,0,0,0,0,0,0,0,0,0,0,0,0,0,0,0,0,0,0,0,0,0,0,0,0,0,0,0,0,0,0,0,0,0,0,0,0,0,0,0,0,0,0,0,0,0,0,0,0,0,0,0,0,0,0,0,0,0,0,0,0,0,0,0,0,0,0,0,0,0,0,0,0,0,0,0,0,0,0,0,0,0,0,0,0,0,0,0,0,0,0,0,0,0,0,0,0,0,0,0,0,0,0,0,0,0,0,0],"split_type":[0,0,0,0,0,0,0,0,0,0,0,0,0,0,0,0,0,0,0,0,0,0,0,0,0,0,0,0,0,0,0,0,0,0,0,0,0,0,0,0,0,0,0,0,0,0,0,0,0,0,0,0,0,0,0,0,0,0,0,0,0,0,0,0,0,0,0,0,0,0,0,0,0,0,0,0,0,0,0,0,0,0,0,0,0,0,0,0,0,0,0,0,0,0,0,0,0,0,0,0,0,0,0,0,0,0,0,0,0,0,0,0,0,0,0,0,0,0,0,0,0,0,0,0,0,0,0,0,0,0,0,0,0,0,0,0,0,0,0,0,0,0,0,0,0,0,0,0,0,0,0,0,0,0,0,0,0,0,0,0,0,0,0,0,0,0,0,0,0,0,0,0,0,0,0,0,0,0,0,0,0,0,0,0,0,0,0,0,0,0,0,0,0,0,0,0,0,0,0,0,0,0,0,0,0,0,0,0,0,0,0,0,0,0,0,0,0,0,0,0,0,0,0,0,0,0,0,0,0,0,0,0,0,0,0,0,0,0,0,0,0,0,0,0,0,0,0,0,0,0,0,0,0,0,0,0,0,0,0,0,0,0,0,0,0,0,0,0,0,0,0,0,0,0,0,0,0,0,0,0,0,0,0,0,0,0,0,0,0,0,0,0,0,0,0,0,0,0,0,0,0,0,0,0,0,0,0,0,0,0,0,0,0,0,0],"sum_hessian":[7.0557E4,4.0223E4,3.0334E4,3.6668E4,3.555E3,2.13E3,2.8204E4,3.3251E4,3.417E3,2.386E3,1.169E3,1.639E3,4.91E2,9.03E2,2.7301E4,3.2932E4,3.19E2,2.448E3,9.69E2,8.67E2,1.519E3,6.77E2,4.92E2,4.29E2,1.21E3,3.96E2,9.5E1,5.42E2,3.61E2,7.03E2,2.6598E4,3.2168E4,7.64E2,2.19E2,1E2,6.45E2,1.803E3,5.48E2,4.21E2,1.47E2,7.2E2,1.484E3,3.5E1,3.3E2,3.47E2,4.23E2,6.9E1,1.38E2,2.91E2,2.2E1,3.74E2,2.1E1,7.4E1,2.5E2,2.92E2,3.32E2,2.9E1,4.33E2,2.7E2,1.6E1,2.6582E4,2.3593E4,8.575E3,1.98E2,5.66E2,9.2E1,1.27E2,8.3E1,1.7E1,2.14E2,4.31E2,1.802E3,1E0,3.1E2,2.38E2,2.39E2,1.82E2,2.78E2,4.42E2,3.4E1,1E0,4.6E1,2.84E2,5.3E1,2.94E2,1.1E2,3.13E2,6.2E1,7E0,6.2E1,2.29E2,3.69E2,5E0,8E0,1.3E1,1.5E1,5.9E1,2.8E1,2.22E2,1.85E2,1.07E2,7.5E1,2.57E2,4E0,2.5E1,4.28E2,5E0,2.67E2,3E0,1.0751E4,1.5831E4,1.7469E4,6.124E3,7.901E3,6.74E2,1.52E2,4.6E1,4.02E2,1.64E2,1.5E1,7.7E1,7.8E1,5E0,5E0,1.2E1,2E2,1.4E1,2.07E2,2.24E2,1E0,1.801E3,2.96E2,1.4E1,8E0,2.3E2,2.37E2,2E0,9.3E1,8.9E1,1.96E2,8.2E1,7.7E1,3.65E2,2.8E1,6E0,3.4E1,1.2E1,7.9E1,2.05E2,4.3E1,1E1,1.95E2,9.9E1,1.01E2,9E0,7.3E1,2.4E2,1.7E1,4.5E1,5E0,2E0,1.77E2,5.2E1,3.68E2,1E0,4E0,1E0,1.1E1,2E0,7E0,8E0,5E0,5.4E1,7.7E1,1.45E2,8.2E1,2.5E1,7.4E1,1E0,4.6E1,2.11E2,3E0,1E0,4.03E2,2.5E1,3E0,2E0,1.4E1,2.53E2,1.0704E4,4.7E1,1.561E4,2.21E2,5.938E3,1.86E2,7.9E3,1E0,3.04E2,3.7E2,1.21E2,3.1E1,2E0,4.4E1,2.6E1,1.38E2,1.9E1,5.8E1,1.1E1,6.7E1,2E0,3E0,3E0,2E0,8E0,6E0,6.1E1,1.46E2,1.94E2,3E1,1.745E3,5.6E1,1.15E2,1.81E2,1E1,4E0,5E0,3E0,2.18E2,1.2E1,6.8E1,1.69E2,6.5E1,2.8E1,5.9E1,3E1,1.69E2,2.7E1,3E0,7.9E1,4.2E1,3.5E1,3.23E2,4.2E1,5E0,1E0,1.8E1,1.6E1,4E0,8E0,1.62E2,4.3E1,3.3E1,1E1,1E0,9E0,1.76E2,1.9E1,8.7E1,1.2E1,3.5E1,6.6E1,5E0,4E0,7.1E1,2E0,1E0,2.39E2,1.1E1,6E0,3E0,4.2E1,1E0,4E0,1.22E2,5.5E1,5E1,2E0,1E0,3E0,1E0,1E1,2E0,5E0,4E0,1E0,4E1,1.4E1,1.9E1,5.8E1,1.21E2,2.4E1,5.5E1,2.7E1,1E1,3.6E1,1.28E2,8.3E1,2E0,1E0,8.3E1,3.2E2,1E0,2E0,2E0,1.2E1,2E2,5.3E1,2.936E3,7.768E3,3.5E1,1.2E1,1.558E4,3E1,1.1E1,2.1E2],"tree_param":{"num_deleted":"0","num_feature":"6","num_nodes":"315","size_leaf_vector":"1"}},{"base_weights":[-2.8972143E-2,-1.529235E-1,1.3538745E-1,-1.654223E-1,-6.618844E-2,-5.359108E-2,1.5200794E-1,-1.6718216E-1,-1.294686E-1,-1.1044382E-1,8.4853575E-2,-9.122011E-2,4.6255644E-3,-1.6197133E-1,1.5579738E-1,-1.6888914E-1,-1.3432613E-1,-1.353592E-1,-1.5537193E-2,3.7696574E-2,-1.698617E-1,1.1442763E-1,-1.5616782E-1,1.2241094E-2,-1.7927374E-1,2.5131272E-2,-2.3529811E-1,-2.5683736E-2,-5.1179327E-2,8.681913E-2,1.5765572E-1,-1.7047374E-1,-1.62455E-1,-6.410328E-2,-1.5066035E-1,-1.05747886E-1,-1.4464213E-1,-6.316351E-2,7.8569405E-2,-1.6784285E-1,1.1079239E-1,-1.7051078E-1,-1.3077758E-1,-5.3066287E-2,1.2737712E-1,-1.6594228E-1,1.1356251E-1,-1.5666212E-1,5.9801064E-2,-1.704168E-1,-1.9545066E-1,1.867946E-1,-1.9966165E-2,-7.445486E-2,-2.6980222E-3,-4.1833974E-2,1.0237677E-3,8.871785E-2,-7.40917E-2,-5.2178916E-2,1.5786009E-1,-5.1336735E-2,-1.6516994E-1,-1.6490385E-1,-1.3831922E-1,-1.520123E-1,-9.225882E-3,-1.7558242E-1,-1.1278785E-1,-1.3223727E-1,1.4124206E-1,-5.1325735E-2,-1.2134382E-1,4.9135122E-2,-4.9661808E-2,5.030218E-2,-4.9545348E-2,-5.149341E-2,-1.415706E-1,3.1396672E-2,1.3047446E-1,-1.18417524E-1,-5.1248994E-2,-5.0235912E-2,8.270015E-2,5.2737262E-2,1.6018067E-1,1.042082E-1,-1.736285E-1,6.639377E-2,-4.761565E-2,-6.058346E-2,-7.6237015E-2,1.6679555E-1,-1.3794187E-3,-5.1362406E-2,-5.3415507E-2,-5.1371496E-2,-2.3492564E-1,2.006253E-1,-1.19794905E-1,-4.259482E-2,4.5139287E-2,3.4440745E-2,-6.0773768E-2,2.087236E-2,-2.209932E-2,7.6841325E-2,1.19460635E-1,-4.9958438E-2,8.308584E-2,1.6801809E-1,1.5147199E-1,-1.6611415E-1,-1.1481912E-1,-1.5715201E-1,-1.720822E-1,-6.1758943E-2,-1.8260756E-1,-5.4574963E-2,-9.7464785E-2,2.5131795E-1,-1.8826839E-2,-5.1891457E-2,-5.8826674E-2,-3.571235E-2,-1.4901051E-1,-1.4683627E-1,-8.724216E-2,-5.2071784E-2,1.6419068E-1,1.7527723E-1,-1.3028134E-1,-4.4504426E-2,1.1262309E-1,-5.0199434E-2,4.5176495E-2,5.2688215E-2,-3.2718547E-2,5.8363747E-2,1.4945547E-1,-3.7053104E-2,-4.7813673E-2,2.527222E-3,2.7632276E-2,1.0384895E-1,-5.918754E-2,1.1312833E-1,1.6904692E-1,-7.714922E-2,9.31161E-2,-1.3460097E-1,-5.5247348E-2,5.194661E-3,-8.574835E-2,4.166126E-2,1.9881949E-1,-1.9780615E-2,6.013065E-2,-2.2746768E-2,5.4319026E-3,-2.5281247E-1,-5.0701868E-2,2.145049E-1,1.1094526E-1,1.5020837E-2,-4.8137862E-2,-4.7718786E-2,9.421859E-2,2.0605573E-2,9.266234E-2,-1.3025791E-3,-2.3441123E-2,-3.3003997E-2,3.709178E-2,7.287478E-2,5.170837E-2,1.1152921E-2,1.2701117E-1,6.008983E-2,-4.0283237E-2,1.4003815E-1,1.6884863E-1,-4.7289512E-1,1.5991512E-1,-4.350304E-2,-5.0262053E-2,-4.5073327E-2,1.7885743E-2,-4.8957136E-2,-2.7426764E-2,-5.4459564E-2,-4.8810195E-2,-3.9463798E-3,-5.041986E-2,-5.7658758E-2,-5.0140683E-2,1.152416E-2,-4.1215442E-2,1.0111768E-1,3.0824251E-2,-2.9565558E-2,2.4765136E-3,7.364654E-4,-5.5881135E-2,-6.136723E-2,-2.0680122E-2,-5.4281656E-2,-4.0779836E-2,-3.141397E-2,-1.0450169E-2,1.6356774E-2,5.4195385E-2,5.8565933E-2,-2.7553285E-2,-3.7027564E-2,-6.8618454E-2,1.3036312E-2,3.7902582E-2,2.2534938E-3,1.5362142E-2,1.7001906E-2,1.2841105E-2,1.7606434E-3,-2.0419419E-2,2.0614637E-2,-4.4440538E-2,4.8022863E-2,3.356246E-2,-5.8318826E-4,-1.731894E-2,-6.2400433E-3,3.632561E-2,-6.807538E-2,1.0124484E-2,4.2258088E-2,-4.5535795E-2,5.150323E-2,-3.218122E-2,-4.5067817E-2,4.5435175E-2,-2.76986E-2,-2.0231295E-3,8.0863753E-4,1.447923E-2,7.699341E-2,4.877029E-2,-1.811402E-2,-9.140704E-4,8.440626E-3,2.9269692E-2,-8.192512E-2,-5.9430968E-2,6.0518485E-2,8.815645E-2,6.0998544E-2,-1.9931719E-2,4.6059377E-2,-3.9300002E-2,3.1282362E-3,-1.7703393E-2,5.5517722E-2,3.3987686E-3,2.733959E-2,1.6766925E-3,3.791461E-2,1.0623568E-2,3.661585E-3,-2.5294777E-2,1.9381413E-2,2.4631338E-3,2.2398058E-2,-2.6059376E-2,2.2164602E-2,-3.496075E-2,1.615572E-2,3.88757E-2,2.9412476E-2,4.4676226E-2,5.2630197E-2,5.0054327E-2,-1.549851E-1,-6.555475E-2,4.8194885E-2,2.5079735E-2],"categories":[],"categories_nodes":[],"categories_segments":[],"categories_sizes":[],"default_left":[0,0,0,0,0,0,0,0,0,0,0,0,0,0,0,0,0,0,0,0,0,0,0,0,0,0,0,0,0,0,0,0,0,0,0,0,0,0,0,0,0,0,0,0,0,0,0,0,0,0,0,0,0,0,0,0,0,0,0,0,0,0,0,0,0,0,0,0,0,0,0,0,0,0,0,0,0,0,0,0,0,0,0,0,0,0,0,0,0,0,0,0,0,0,0,0,0,0,0,0,0,0,0,0,0,0,0,0,0,0,0,0,0,0,0,0,0,0,0,0,0,0,0,0,0,0,0,0,0,0,0,0,0,0,0,0,0,0,0,0,0,0,0,0,0,0,0,0,0,0,0,0,0,0,0,0,0,0,0,0,0,0,0,0,0,0,0,0,0,0,0,0,0,0,0,0,0,0,0,0,0,0,0,0,0,0,0,0,0,0,0,0,0,0,0,0,0,0,0,0,0,0,0,0,0,0,0,0,0,0,0,0,0,0,0,0,0,0,0,0,0,0,0,0,0,0,0,0,0,0,0,0,0,0,0,0,0,0,0,0,0,0,0,0,0,0,0,0,0,0,0,0,0,0,0,0,0,0,0,0,0,0,0,0,0,0,0,0,0,0,0,0,0,0,0,0,0,0,0,0,0,0,0,0,0],"id":3,"left_children":[1,3,5,7,9,11,13,15,17,19,21,23,25,27,29,31,33,35,37,39,41,43,45,47,49,51,53,55,-1,57,59,61,63,65,67,69,71,73,75,77,79,81,83,-1,85,87,89,91,93,95,97,99,101,-1,103,-1,105,107,109,-1,111,-1,113,115,117,119,121,123,125,127,129,-1,131,133,-1,-1,-1,-1,135,137,139,141,-1,-1,143,145,147,149,151,-1,-1,-1,153,155,157,-1,159,-1,161,163,165,167,169,-1,171,173,-1,175,177,-1,179,181,183,185,187,189,191,193,195,-1,197,199,201,-1,-1,203,205,207,209,-1,211,213,215,-1,217,-1,219,221,223,225,227,229,-1,-1,-1,231,233,235,237,-1,-1,239,-1,-1,241,243,245,247,249,-1,-1,251,-1,253,255,257,-1,259,261,263,265,-1,-1,267,269,271,-1,273,275,-1,-1,277,279,281,283,-1,-1,-1,-1,-1,-1,-1,-1,-1,-1,-1,-1,-1,-1,-1,-1,-1,-1,-1,-1,-1,-1,-1,-1,-1,-1,-1,-1,-1,-1,-1,-1,-1,-1,-1,-1,-1,-1,-1,-1,-1,-1,-1,-1,-1,-1,-1,-1,-1,-1,-1,-1,-1,-1,-1,-1,-1,-1,-1,-1,-1,-1,-1,-1,-1,-1,-1,-1,-1,-1,-1,-1,-1,-1,-1,-1,-1,-1,-1,-1,-1,-1,-1,-1,-1,-1,-1,-1,-1,-1,-1,-1,-1,-1,-1,-1,-1,-1,-1,-1],"loss_changes":[1.4374702E3,4.3595276E1,9.528772E1,2.2028809E0,3.3886024E1,5.3740525E0,3.3200684E1,1.8568726E0,1.1018944E0,3.4510975E1,8.207921E0,1.3576293E1,4.748605E0,3.8711834E-1,3.5178833E0,2.9711914E-1,1.8944187E0,4.1461945E-1,3.7248266E-1,1.6890627E1,4.8683167E-2,3.8854504E0,3.5103965E-1,5.520028E0,8.203125E-2,6.485074E0,2.2710228E-1,6.394751E-2,0E0,2.2807789E-1,1.845398E0,5.9631348E-2,3.5049438E-1,1.5182264E0,1.2506351E0,2.485242E0,7.1115685E-1,6.404505E-1,6.357565E-1,5.1651E-3,1.291359E0,2.5482178E-2,4.0531808E-1,0E0,2.393484E0,2.714188E-1,1.8181808E-1,5.345268E-1,3.508872E0,3.973198E-2,2.2547913E-1,8.4666157E-1,1.0273039E0,0E0,4.1096628E-2,0E0,2.8221736E-2,2.5260925E-1,1.4459649E-1,0E0,1.7143555E0,0E0,1.14616394E-1,2.917328E-1,1.9824696E0,1.7964482E-1,4.9251813E-1,9.447098E-3,1.4939184E0,2.1118641E-1,2.9580796E-1,0E0,1.7062578E0,3.552282E-1,0E0,0E0,0E0,0E0,2.1442223E-1,2.2833245E-1,9.0011597E-1,6.0750484E-2,0E0,0E0,4.814055E-3,1.7280668E0,2.649746E-1,3.7784955E-1,2.4113178E-2,0E0,0E0,0E0,5.1314145E-2,7.731395E-1,3.8828516E-1,0E0,9.385835E-3,0E0,7.871914E-2,2.077198E-1,5.1750317E-2,3.669271E-1,2.0795572E-1,0E0,3.5801083E-3,1.4331828E-2,0E0,1.8445921E-1,1.605041E-1,0E0,1.2880741E-1,2.166748E-1,8.689905E1,5.870819E-2,3.4883136E-1,1.0829163E0,2.3323059E-1,1.1190268E0,2.306366E-2,0E0,2.4936998E-1,5.453807E-2,4.088841E-1,0E0,0E0,9.9458206E-1,1.6094246E0,7.059479E-2,7.509643E-2,0E0,5.3332508E-2,1.1914438E-1,3.8822365E-1,0E0,1.4437109E-2,0E0,9.782081E-4,2.497673E-3,5.768392E-2,3.094453E-1,1.9163609E-1,5.695303E-3,0E0,0E0,0E0,4.472587E-1,1.4885334E0,8.3685255E-1,4.334488E-1,0E0,0E0,1.5236956E-1,0E0,0E0,2.5890976E-2,1.0418594E-2,2.831998E-1,1.7917222E-1,9.187648E-2,0E0,0E0,3.3514023E-2,0E0,1.0293341E-1,4.5596698E-1,8.078881E-2,0E0,3.2826757E-1,1.4096789E-1,1.2657866E-1,1.132831E-1,0E0,0E0,1.03082005E-2,9.004887E-3,1.4937043E-1,0E0,1.2074709E-1,2.7865648E-2,0E0,0E0,9.880352E-2,1.03027344E-1,2.3339386E0,8.9749146E-1,0E0,0E0,0E0,0E0,0E0,0E0,0E0,0E0,0E0,0E0,0E0,0E0,0E0,0E0,0E0,0E0,0E0,0E0,0E0,0E0,0E0,0E0,0E0,0E0,0E0,0E0,0E0,0E0,0E0,0E0,0E0,0E0,0E0,0E0,0E0,0E0,0E0,0E0,0E0,0E0,0E0,0E0,0E0,0E0,0E0,0E0,0E0,0E0,0E0,0E0,0E0,0E0,0E0,0E0,0E0,0E0,0E0,0E0,0E0,0E0,0E0,0E0,0E0,0E0,0E0,0E0,0E0,0E0,0E0,0E0,0E0,0E0,0E0,0E0,0E0,0E0,0E0,0E0,0E0,0E0,0E0,0E0,0E0,0E0,0E0,0E0,0E0,0E0,0E0,0E0,0E0,0E0,0E0,0E0,0E0,0E0,0E0,0E0,0E0,0E0],"parents":[2147483647,0,0,1,1,2,2,3,3,4,4,5,5,6,6,7,7,8,8,9,9,10,10,11,11,12,12,13,13,14,14,15,15,16,16,17,17,18,18,19,19,20,20,21,21,22,22,23,23,24,24,25,25,26,26,27,27,29,29,30,30,31,31,32,32,33,33,34,34,35,35,36,36,37,37,38,38,39,39,40,40,41,41,42,42,44,44,45,45,46,46,47,47,48,48,49,49,50,50,51,51,52,52,54,54,56,56,57,57,58,58,60,60,62,62,63,63,64,64,65,65,66,66,67,67,68,68,69,69,70,70,72,72,73,73,78,78,79,79,80,80,81,81,84,84,85,85,86,86,87,87,88,88,92,92,93,93,94,94,96,96,98,98,99,99,100,100,101,101,102,102,104,104,105,105,107,107,108,108,110,110,111,111,112,112,113,113,114,114,115,115,116,116,117,117,118,118,120,120,121,121,122,122,125,125,126,126,127,127,128,128,130,130,131,131,132,132,134,134,136,136,137,137,138,138,139,139,140,140,141,141,145,145,146,146,147,147,148,148,151,151,154,154,155,155,156,156,157,157,158,158,161,161,163,163,164,164,165,165,167,167,168,168,169,169,170,170,173,173,174,174,175,175,177,177,178,178,181,181,182,182,183,183,184,184],"right_children":[2,4,6,8,10,12,14,16,18,20,22,24,26,28,30,32,34,36,38,40,42,44,46,48,50,52,54,56,-1,58,60,62,64,66,68,70,72,74,76,78,80,82,84,-1,86,88,90,92,94,96,98,100,102,-1,104,-1,106,108,110,-1,112,-1,114,116,118,120,122,124,126,128,130,-1,132,134,-1,-1,-1,-1,136,138,140,142,-1,-1,144,146,148,150,152,-1,-1,-1,154,156,158,-1,160,-1,162,164,166,168,170,-1,172,174,-1,176,178,-1,180,182,184,186,188,190,192,194,196,-1,198,200,202,-1,-1,204,206,208,210,-1,212,214,216,-1,218,-1,220,222,224,226,228,230,-1,-1,-1,232,234,236,238,-1,-1,240,-1,-1,242,244,246,248,250,-1,-1,252,-1,254,256,258,-1,260,262,264,266,-1,-1,268,270,272,-1,274,276,-1,-1,278,280,282,284,-1,-1,-1,-1,-1,-1,-1,-1,-1,-1,-1,-1,-1,-1,-1,-1,-1,-1,-1,-1,-1,-1,-1,-1,-1,-1,-1,-1,-1,-1,-1,-1,-1,-1,-1,-1,-1,-1,-1,-1,-1,-1,-1,-1,-1,-1,-1,-1,-1,-1,-1,-1,-1,-1,-1,-1,-1,-1,-1,-1,-1,-1,-1,-1,-1,-1,-1,-1,-1,-1,-1,-1,-1,-1,-1,-1,-1,-1,-1,-1,-1,-1,-1,-1,-1,-1,-1,-1,-1,-1,-1,-1,-1,-1,-1,-1,-1,-1,-1,-1],"split_conditions":[4.18E2,2.771E2,3.018E2,2.671E2,6.151515E-1,6.636364E-1,3.728E2,2.218E2,6.086E2,4.4545454E-1,9.6363634E-1,4.3939394E-1,9.6363634E-1,3.727E2,4.18E2,1.629E2,4.3030304E-1,4.212121E-1,5.6060606E-1,1.969697E-1,6.060606E-1,5.4E0,3.581E2,2.090909E-1,4.456E2,5.86E1,1.41E2,5.4E0,-5.1179327E-2,6.922E2,1.5454546E-1,1.614E2,8.181818E-1,2.6060605E-1,6.272727E-1,4.5454547E-1,6.545454E-1,4.3939394E-1,9.5757574E-1,1.5454546E-1,2.3030303E-1,4.5454547E-1,5.8484846E-1,-5.3066287E-2,4.18E2,9.3030304E-1,6.501E2,1.5454546E-1,5.4E0,6.272727E-1,4.764E2,9.6363634E-1,6.007E2,-7.445486E-2,4.544E2,-4.1833974E-2,6.506E2,5.732E2,5.5151516E-1,-5.2178916E-2,4.3939394E-1,-5.1336735E-2,3.728E2,6.272727E-1,8.666667E-1,2.1818182E-1,2.5757575E-1,6.212121E-1,7.3939395E-1,1.645E2,1.5454546E-1,-5.1325735E-2,5.212121E-1,1.1212121E-1,-4.9661808E-2,5.030218E-2,-4.9545348E-2,-5.149341E-2,3.58E2,2.1818182E-1,3.431E2,4.2727274E-1,-5.1248994E-2,-5.0235912E-2,1.22E2,9E-1,4.764E2,2.888E2,9.1818184E-1,6.639377E-2,-4.761565E-2,-6.058346E-2,3.2E0,2.3030303E-1,6.154E2,-5.1362406E-2,3.018E2,-5.1371496E-2,8.007E2,9.4545454E-1,5.212121E-1,9.1818184E-1,4.679E2,3.4440745E-2,1.75E2,2.888E2,-2.209932E-2,9.4242424E-1,6.007E2,-4.9958438E-2,7.3333335E-1,4.679E2,5.9090906E-1,2.7575758E-1,6E-1,6.060606E-1,6.969697E-1,1.829E2,1.767E2,-5.4574963E-2,2.1212122E-1,2.499E2,2.31E2,-5.1891457E-2,-5.8826674E-2,2.177E2,8.30303E-1,1.5454546E-1,2.771E2,-5.2071784E-2,2.1818182E-1,5.884E2,9.3939394E-1,-4.4504426E-2,2.3030303E-1,-5.0199434E-2,6.143E2,2.090909E-1,2.090909E-1,4.212121E-1,4.060606E-1,1.847E2,-4.7813673E-2,2.527222E-3,2.7632276E-2,2.887E2,8.727273E-1,9.5454544E-1,9.5757574E-1,-7.714922E-2,9.31161E-2,6.849E2,-5.5247348E-2,5.194661E-3,2.139E2,4.831E2,3.6969697E-1,4.544E2,2.499E2,-2.2746768E-2,5.4319026E-3,7.241E2,-5.0701868E-2,9.5454544E-1,5.212121E-1,3E0,-4.8137862E-2,6.636364E-1,9.4545454E-1,6.69697E-1,6.478E2,-1.3025791E-3,-2.3441123E-2,3.286E2,6.757576E-1,7.854E2,5.170837E-2,6.056E2,2.1818182E-1,6.008983E-2,-4.0283237E-2,6.177E2,6.102E2,8.007E2,9.6363634E-1,-4.350304E-2,-5.0262053E-2,-4.5073327E-2,1.7885743E-2,-4.8957136E-2,-2.7426764E-2,-5.4459564E-2,-4.8810195E-2,-3.9463798E-3,-5.041986E-2,-5.7658758E-2,-5.0140683E-2,1.152416E-2,-4.1215442E-2,1.0111768E-1,3.0824251E-2,-2.9565558E-2,2.4765136E-3,7.364654E-4,-5.5881135E-2,-6.136723E-2,-2.0680122E-2,-5.4281656E-2,-4.0779836E-2,-3.141397E-2,-1.0450169E-2,1.6356774E-2,5.4195385E-2,5.8565933E-2,-2.7553285E-2,-3.7027564E-2,-6.8618454E-2,1.3036312E-2,3.7902582E-2,2.2534938E-3,1.5362142E-2,1.7001906E-2,1.2841105E-2,1.7606434E-3,-2.0419419E-2,2.0614637E-2,-4.4440538E-2,4.8022863E-2,3.356246E-2,-5.8318826E-4,-1.731894E-2,-6.2400433E-3,3.632561E-2,-6.807538E-2,1.0124484E-2,4.2258088E-2,-4.5535795E-2,5.150323E-2,-3.218122E-2,-4.5067817E-2,4.5435175E-2,-2.76986E-2,-2.0231295E-3,8.0863753E-4,1.447923E-2,7.699341E-2,4.877029E-2,-1.811402E-2,-9.140704E-4,8.440626E-3,2.9269692E-2,-8.192512E-2,-5.9430968E-2,6.0518485E-2,8.815645E-2,6.0998544E-2,-1.9931719E-2,4.6059377E-2,-3.9300002E-2,3.1282362E-3,-1.7703393E-2,5.5517722E-2,3.3987686E-3,2.733959E-2,1.6766925E-3,3.791461E-2,1.0623568E-2,3.661585E-3,-2.5294777E-2,1.9381413E-2,2.4631338E-3,2.2398058E-2,-2.6059376E-2,2.2164602E-2,-3.496075E-2,1.615572E-2,3.88757E-2,2.9412476E-2,4.4676226E-2,5.2630197E-2,5.0054327E-2,-1.549851E-1,-6.555475E-2,4.8194885E-2,2.5079735E-2],"split_indices":[4,0,0,4,5,5,2,0,2,5,1,5,5,0,0,0,1,5,3,5,5,4,4,5,2,0,0,2,0,2,5,4,1,5,1,1,5,3,3,5,3,5,1,0,0,3,2,5,0,5,4,3,4,0,4,0,4,2,1,0,5,0,2,5,5,5,3,3,5,0,5,0,1,3,0,0,0,0,0,5,0,1,0,0,2,1,0,2,5,0,0,0,0,5,4,0,2,0,4,5,1,1,2,0,0,2,0,1,4,0,1,0,5,1,3,3,1,2,4,0,3,0,0,0,0,4,1,5,2,0,3,2,3,0,3,0,0,5,3,1,3,4,0,0,0,0,5,1,5,0,0,0,0,0,0,4,3,4,0,0,0,2,0,3,1,0,0,1,5,1,4,0,0,0,5,4,0,2,3,0,0,4,4,2,3,0,0,0,0,0,0,0,0,0,0,0,0,0,0,0,0,0,0,0,0,0,0,0,0,0,0,0,0,0,0,0,0,0,0,0,0,0,0,0,0,0,0,0,0,0,0,0,0,0,0,0,0,0,0,0,0,0,0,0,0,0,0,0,0,0,0,0,0,0,0,0,0,0,0,0,0,0,0,0,0,0,0,0,0,0,0,0,0,0,0,0,0,0,0,0,0,0,0,0,0],"split_type":[0,0,0,0,0,0,0,0,0,0,0,0,0,0,0,0,0,0,0,0,0,0,0,0,0,0,0,0,0,0,0,0,0,0,0,0,0,0,0,0,0,0,0,0,0,0,0,0,0,0,0,0,0,0,0,0,0,0,0,0,0,0,0,0,0,0,0,0,0,0,0,0,0,0,0,0,0,0,0,0,0,0,0,0,0,0,0,0,0,0,0,0,0,0,0,0,0,0,0,0,0,0,0,0,0,0,0,0,0,0,0,0,0,0,0,0,0,0,0,0,0,0,0,0,0,0,0,0,0,0,0,0,0,0,0,0,0,0,0,0,0,0,0,0,0,0,0,0,0,0,0,0,0,0,0,0,0,0,0,0,0,0,0,0,0,0,0,0,0,0,0,0,0,0,0,0,0,0,0,0,0,0,0,0,0,0,0,0,0,0,0,0,0,0,0,0,0,0,0,0,0,0,0,0,0,0,0,0,0,0,0,0,0,0,0,0,0,0,0,0,0,0,0,0,0,0,0,0,0,0,0,0,0,0,0,0,0,0,0,0,0,0,0,0,0,0,0,0,0,0,0,0,0,0,0,0,0,0,0,0,0,0,0,0,0,0,0,0,0,0,0,0,0,0,0,0,0,0,0,0,0,0,0,0,0],"sum_hessian":[7.0557E4,4.0223E4,3.0334E4,3.5156E4,5.067E3,2.452E3,2.7882E4,3.3512E4,1.644E3,3.919E3,1.148E3,1.489E3,9.63E2,3.32E2,2.755E4,3.1853E4,1.659E3,1.563E3,8.1E1,1.122E3,2.797E3,1.023E3,1.25E2,6.85E2,8.04E2,8.88E2,7.5E1,2E1,3.12E2,7.24E2,2.6826E4,2.5538E4,6.315E3,3.14E2,1.345E3,3.76E2,1.187E3,5.4E1,2.7E1,2.94E2,8.28E2,2.748E3,4.9E1,4.3E1,9.8E2,1.21E2,4E0,1.5E2,5.35E2,5.27E2,2.77E2,1.93E2,6.95E2,7.1E1,4E0,3E0,1.7E1,7.16E2,8E0,1.6E1,2.681E4,2.2727E4,2.811E3,5.728E3,5.87E2,1.2E2,1.94E2,8.09E2,5.36E2,3.4E2,3.6E1,5.53E2,6.34E2,2.6E1,2.8E1,2E1,7E0,2.52E2,4.2E1,1.65E2,6.63E2,1.9E1,2.729E3,4.2E1,7E0,3E2,6.8E2,3E0,1.18E2,3E0,1E0,9.5E1,5.5E1,1.94E2,3.41E2,5.23E2,4E0,1.75E2,1.02E2,1.85E2,8E0,5.16E2,1.79E2,1E0,3E0,1.4E1,3E0,5.19E2,1.97E2,5E0,3E0,1.0341E4,1.6469E4,2.757E3,5.4E1,2.765E3,2.963E3,2.16E2,3.71E2,7.6E1,4.4E1,6E0,1.88E2,7.26E2,8.3E1,1.72E2,3.64E2,2.55E2,8.5E1,2E0,3.4E1,1.8E1,6.16E2,6E0,2E1,3.7E1,5E0,1.24E2,4.1E1,1.39E2,5.24E2,7E0,1.2E1,1E0,6E0,2.06E2,9.4E1,1.1E2,5.7E2,1E0,2E0,2.8E1,9E1,5E0,5E1,4E1,1.54E2,2.63E2,7.8E1,3E0,1E0,7.8E1,2.4E1,1.59E2,2.6E1,2E0,6E0,4.98E2,1.8E1,1.19E2,6E1,1E0,2E0,3E0,1.1E1,5E2,1.9E1,1.3E1,1.84E2,2E0,1E0,3.03E2,1.0038E4,2.19E2,1.625E4,1.81E2,2.576E3,4.5E1,9E0,2.531E3,2.34E2,1.467E3,1.496E3,1.49E2,6.7E1,2.22E2,1.49E2,1E1,3.4E1,3E0,3E0,4.7E1,1.41E2,1.38E2,3.4E1,2.14E2,1.5E2,5.8E1,1.97E2,6.3E1,2.2E1,5E0,2.9E1,1.7E1,1E0,5.78E2,3.8E1,4E0,1.6E1,1E0,4E0,8.5E1,3.9E1,2E1,2.1E1,1.33E2,6E0,4.06E2,1.18E2,3E0,4E0,2.5E1,1.81E2,3.3E1,6.1E1,1E2,1E1,5.65E2,5E0,2.7E1,1E0,4.6E1,4E0,6E0,3.4E1,5.7E1,9.7E1,7.6E1,1.87E2,4.3E1,3.5E1,5.4E1,2.4E1,1.4E2,1.9E1,1.7E1,9E0,1E0,1E0,8.1E1,4.17E2,8E0,1E1,2E1,9.9E1,3.7E1,2.3E1,2E0,1E0,5E0,6E0,4.95E2,5E0,9E0,4E0,7E0,1.77E2,5.5E1,2.48E2,2.319E3,7.719E3,1.86E2,3.3E1,1.6094E4,1.56E2],"tree_param":{"num_deleted":"0","num_feature":"6","num_nodes":"285","size_leaf_vector":"1"}},{"base_weights":[-2.0299984E-2,-1.07077904E-1,9.4767615E-2,-1.1604736E-1,-4.7616698E-2,-4.2189647E-2,1.0605801E-1,-1.1726228E-1,-9.1203555E-2,-7.7553526E-2,5.6541868E-2,-6.6222504E-2,-1.2620385E-3,-1.13756806E-1,1.0867329E-1,-1.1844058E-1,-9.779185E-2,-9.5358856E-2,-1.13939755E-2,2.4288803E-2,-1.1856375E-1,7.635371E-2,-1.09477274E-1,7.381714E-3,-1.2592068E-1,1.10981666E-1,-2.782294E-2,2.635371E-3,-3.57923E-2,6.058848E-2,1.1051711E-1,-1.194116E-1,-1.14612065E-1,-5.5822227E-2,-1.0709161E-1,-7.513546E-2,-1.0166535E-1,-4.500041E-2,5.502559E-2,-1.1774947E-1,7.4988775E-2,-1.19364716E-1,-9.401427E-2,-3.7838705E-2,8.551824E-2,-1.1647855E-1,8.324937E-2,-1.10772E-1,4.2531863E-2,-1.19472675E-1,-1.3769111E-1,1.4004949E-1,-1.486077E-1,-1.455049E-2,-1.6760477E-1,7.124643E-2,-1.8678445E-2,2.9780503E-2,7.102024E-2,-3.744604E-2,1.1066305E-1,-1.195029E-1,-1.0256612E-1,-1.1542927E-1,-4.437411E-2,-1.3260002E-1,-2.164435E-2,-1.1725743E-1,-7.0130795E-2,-9.4071746E-2,9.936889E-2,-3.6195002E-2,-8.6023994E-2,3.4632895E-2,-3.527701E-2,3.593012E-2,-3.6539692E-2,-3.6060464E-2,-9.872976E-2,4.011658E-2,9.881357E-2,-9.695663E-2,-3.5878453E-2,-3.6276404E-2,6.113912E-2,3.0117236E-2,1.12196796E-1,7.693745E-2,-1.2200112E-1,5.1455166E-2,-4.04733E-2,-4.2597745E-2,-5.426404E-2,1.1748022E-1,-4.7502667E-3,-3.5983086E-2,-2.7911335E-2,-3.604761E-2,-1.6631259E-1,1.4170562E-1,1.2767713E-2,-1.9726217E-1,7.615462E-3,-2.6599059E-2,1.6036169E-1,-1.7958109E-1,5.079806E-5,-1.12058045E-2,3.5969112E-2,-2.8163735E-2,3.5288685E-3,-5.9269154E-3,5.7083648E-2,5.9142742E-2,9.8221265E-2,1.1774386E-1,1.0621864E-1,-1.1910179E-1,-1.2256935E-1,-1.0851511E-1,-2.907579E-2,-1.3636659E-1,-1.1445196E-1,4.5039464E-2,-4.2746976E-2,-8.542453E-2,-1.452119E-1,-2.8827274E-2,2.2361483E-1,-1.10174134E-1,-1.5186004E-1,4.6214163E-2,-1.21816285E-1,-1.02954656E-1,-6.325599E-2,-4.1657425E-2,1.1694924E-1,1.2432632E-1,-9.220193E-2,-3.3060428E-2,8.126181E-2,-3.5460643E-2,3.455949E-2,7.4132425E-3,6.497328E-2,1.18292E-2,1.1046035E-1,-2.7395884E-2,-3.519188E-2,1.1838843E-1,3.6961094E-2,5.188569E-2,-1.7354268E-1,7.9149544E-2,1.1836667E-1,-6.557684E-2,7.449287E-2,-1.0121381E-1,-1.3610315E-1,3.895995E-3,-6.1248843E-2,2.9535761E-2,1.3998501E-1,-1.1696907E-2,9.656086E-2,-4.747538E-2,4.617119E-3,-1.7875804E-1,-3.609973E-2,3.7319914E-2,1.631459E-1,3.9150473E-2,-3.3405002E-2,-1.0803699E-1,-4.6104044E-2,-3.7502714E-2,8.071703E-2,-5.210498E-2,-1.9313091E-3,2.0217909E-1,-3.518087E-2,-1.8838967E-1,-3.3794556E-2,2.9274631E-2,-4.8727553E-2,-3.1596154E-2,2.8114047E-2,3.0200306E-2,-1.2345538E-1,4.2685393E-2,1.1229394E-1,6.1483786E-2,-1.0275894E-1,1.0083408E-1,-4.0044762E-2,1.1819449E-1,9.1379695E-2,-3.3204663E-1,1.1214813E-1,-3.585901E-2,-2.6069133E-2,-3.6601957E-2,-4.0529184E-2,-2.4717795E-2,-3.664512E-2,3.5511877E-2,-2.7413374E-2,-3.841663E-2,-4.4664197E-2,-2.6558468E-2,-3.4974493E-2,3.7957974E-2,-7.490907E-2,-3.9643604E-2,2.5364693E-2,-4.5804776E-2,-3.292563E-2,-1.2004006E-2,1.3930772E-2,8.51721E-2,3.2225687E-2,-3.7050582E-2,-5.9342138E-3,-4.358255E-2,-5.8038075E-2,2.1217534E-2,-5.811371E-2,-4.6561055E-2,-5.8769817E-3,-3.2326654E-2,-1.5376939E-2,-2.2231786E-2,-6.8917414E-3,5.392659E-2,2.7504731E-2,4.1972257E-2,-2.342029E-2,-3.0234324E-2,-1.6171496E-2,2.5954211E-2,-3.5673918E-3,1.9154728E-3,1.1675227E-2,4.986263E-3,-3.41391E-2,7.728501E-3,2.3981825E-2,3.4845155E-2,2.5904745E-2,-3.721392E-3,-2.2098877E-2,4.29525E-2,6.6043143E-3,-1.5501678E-3,1.3771045E-2,-3.8662583E-3,2.4678532E-2,-9.1477305E-2,5.8827274E-2,2.9762214E-2,-3.311694E-2,3.6079552E-2,-2.413592E-2,-3.413954E-2,2.3475485E-2,-4.2407658E-2,-2.7445259E-2,-1.9565817E-2,2.1519364E-4,9.6238805E-3,-1.0832665E-2,7.8453854E-2,3.8940076E-2,-8.615919E-3,4.051101E-3,-3.9351583E-4,3.0534327E-2,-4.5063705E-3,-1.685755E-2,-5.7794448E-2,-4.231485E-2,2.8316325E-2,5.2837607E-2,1.7208492E-3,-1.92238E-2,-5.3664837E-2,3.1026144E-4,9.473126E-2,3.9667826E-2,-5.715226E-2,-1.332754E-2,-3.6072256E-3,-2.3825696E-2,-1.3154237E-2,-2.6438416E-3,1.2873599E-2,-1.7761649E-3,4.7782215E-4,1.5881129E-2,-6.594624E-2,-8.303834E-4,3.383766E-2,9.446789E-3,3.94199E-2,9.223979E-3,2.8578721E-2,1.6408786E-2,-5.7248333E-3,-7.0757486E-2,3.431635E-2,2.5844432E-2,1.8342163E-2,-3.8364545E-2,2.8938597E-2,3.559394E-2,-3.837935E-2,4.6903763E-2,-1.0842169E-1,-4.6685107E-2,3.1189175E-2,3.554638E-2],"categories":[],"categories_nodes":[],"categories_segments":[],"categories_sizes":[],"default_left":[0,0,0,0,0,0,0,0,0,0,0,0,0,0,0,0,0,0,0,0,0,0,0,0,0,0,0,0,0,0,0,0,0,0,0,0,0,0,0,0,0,0,0,0,0,0,0,0,0,0,0,0,0,0,0,0,0,0,0,0,0,0,0,0,0,0,0,0,0,0,0,0,0,0,0,0,0,0,0,0,0,0,0,0,0,0,0,0,0,0,0,0,0,0,0,0,0,0,0,0,0,0,0,0,0,0,0,0,0,0,0,0,0,0,0,0,0,0,0,0,0,0,0,0,0,0,0,0,0,0,0,0,0,0,0,0,0,0,0,0,0,0,0,0,0,0,0,0,0,0,0,0,0,0,0,0,0,0,0,0,0,0,0,0,0,0,0,0,0,0,0,0,0,0,0,0,0,0,0,0,0,0,0,0,0,0,0,0,0,0,0,0,0,0,0,0,0,0,0,0,0,0,0,0,0,0,0,0,0,0,0,0,0,0,0,0,0,0,0,0,0,0,0,0,0,0,0,0,0,0,0,0,0,0,0,0,0,0,0,0,0,0,0,0,0,0,0,0,0,0,0,0,0,0,0,0,0,0,0,0,0,0,0,0,0,0,0,0,0,0,0,0,0,0,0,0,0,0,0,0,0,0,0,0,0,0,0,0,0,0,0,0,0,0,0,0,0,0,0,0,0,0,0,0,0,0,0,0,0,0,0,0,0,0,0,0,0,0,0,0,0],"id":4,"left_children":[1,3,5,7,9,11,13,15,17,19,21,23,25,27,29,31,33,35,37,39,41,43,45,47,49,51,53,55,-1,57,59,61,63,65,67,69,71,73,75,77,79,81,83,-1,85,87,89,91,93,95,97,99,101,103,105,107,109,111,113,-1,115,117,119,121,123,125,127,129,131,133,135,-1,137,139,-1,-1,-1,-1,141,143,145,147,-1,-1,149,151,153,155,157,-1,-1,-1,159,161,163,-1,165,-1,167,169,171,173,175,177,179,181,183,-1,-1,-1,185,187,189,191,193,195,197,199,201,203,205,207,209,211,-1,213,215,217,219,221,223,225,227,229,231,-1,233,235,237,-1,239,-1,241,243,245,-1,247,249,-1,251,253,255,257,259,261,-1,-1,263,265,-1,267,269,271,273,275,277,-1,279,-1,-1,281,-1,-1,-1,-1,-1,-1,283,285,287,-1,289,-1,-1,291,293,295,297,299,301,303,305,307,309,311,313,315,317,319,-1,-1,-1,-1,-1,-1,-1,-1,-1,-1,-1,-1,-1,-1,-1,-1,-1,-1,-1,-1,-1,-1,-1,-1,-1,-1,-1,-1,-1,-1,-1,-1,-1,-1,-1,-1,-1,-1,-1,-1,-1,-1,-1,-1,-1,-1,-1,-1,-1,-1,-1,-1,-1,-1,-1,-1,-1,-1,-1,-1,-1,-1,-1,-1,-1,-1,-1,-1,-1,-1,-1,-1,-1,-1,-1,-1,-1,-1,-1,-1,-1,-1,-1,-1,-1,-1,-1,-1,-1,-1,-1,-1,-1,-1,-1,-1,-1,-1,-1,-1,-1,-1,-1,-1,-1,-1,-1,-1,-1,-1,-1,-1,-1,-1,-1,-1,-1,-1,-1,-1,-1,-1],"loss_changes":[7.0455493E2,2.1447296E1,4.691153E1,1.044281E0,1.644965E1,2.2730327E0,1.6123322E1,7.527771E-1,5.40802E-1,1.7114315E1,3.8829715E0,6.398648E0,2.5550756E0,2.1351957E-1,2.448822E0,1.031189E-1,7.383385E-1,1.9042873E-1,1.8551041E-1,8.484802E0,4.6211243E-2,1.9647961E0,1.7971253E-1,2.7166991E0,4.4570923E-2,1.2583067E0,1.283248E0,2.4728589E-2,0E0,3.273008E-1,9.298706E-1,2.62146E-2,3.6107635E-1,9.103173E-1,5.779247E-1,1.2419126E0,3.403139E-1,3.2200277E-1,3.3512822E-1,2.5901794E-3,7.1719027E-1,2.9716492E-3,4.1234118E-1,0E0,1.486464E0,1.3970113E-1,1.1942228E-1,2.5692558E-1,1.786592E0,1.9376278E-2,1.195178E-1,2.9388428E-2,1.3071847E-1,1.3403832E0,1.204828E-1,2.5612125E-2,2.2041349E-2,2.547937E-1,2.4134731E-1,0E0,8.26355E-1,1.6021729E-2,5.8926344E-2,1.1342621E-1,6.64384E-1,5.1257372E-2,4.3277222E-1,2.827816E-1,2.0441542E0,8.573604E-2,1.711995E-1,0E0,8.5745716E-1,1.9129878E-1,0E0,0E0,0E0,0E0,1.10498786E-1,2.8728396E-1,3.518281E-1,4.4914484E-2,0E0,0E0,1.638686E-2,1.4675804E0,1.2928104E-1,2.5685814E-1,2.1108508E-2,0E0,0E0,0E0,2.663073E-2,3.8180375E-1,2.1929877E-1,0E0,4.119293E-3,0E0,3.7430763E-2,3.3877134E-2,5.836992E-2,3.692782E-2,2.0700212E-1,3.7362847E-1,4.9971187E-1,1.1794686E-2,2.8542018E-2,0E0,0E0,0E0,1.03874E-2,4.8776978E-1,1.1285657E-1,2.0909297E-1,8.749008E-2,1.1122131E-1,4.262195E1,2.9367065E-1,3.578186E-3,3.659618E-2,1.2105306E-1,9.640694E-3,3.2263947E-1,9.92282E-1,0E0,2.0970531E-1,5.2301884E-3,2.0054632E-1,1.8542916E-2,1.2239876E0,2.8051376E-2,6.311871E-1,7.990272E-1,5.9007406E-2,3.2389432E-2,0E0,3.9061427E-2,7.0839524E-2,2.0254278E-1,0E0,1.1303246E-2,0E0,4.8821373E-4,1.7376457E-1,1.1589658E-1,0E0,4.8965454E-2,5.328643E-3,0E0,6.403215E-3,4.7579277E-3,5.8739185E-1,1.6138111E0,4.2914385E-1,2.2520542E-1,0E0,0E0,1.2634742E-1,3.0140877E-3,0E0,1.2348756E-2,8.004922E-3,1.5790415E-1,1.2522241E-1,1.0351852E-2,4.5844354E-6,0E0,1.4205456E-2,0E0,0E0,3.8707495E-2,0E0,0E0,0E0,0E0,0E0,0E0,2.0260978E-1,1.5918487E-1,2.4430573E-1,0E0,6.171584E-3,0E0,0E0,3.5509858E-3,1.0092086E-3,3.7795575E-3,5.7154767E-2,3.1340414E-1,8.985405E-2,4.270056E-2,1.1585152E-1,8.459711E-2,3.5330057E-2,5.2257854E-2,8.770752E-2,2.5418596E0,1.0781364E0,8.2662964E-1,0E0,0E0,0E0,0E0,0E0,0E0,0E0,0E0,0E0,0E0,0E0,0E0,0E0,0E0,0E0,0E0,0E0,0E0,0E0,0E0,0E0,0E0,0E0,0E0,0E0,0E0,0E0,0E0,0E0,0E0,0E0,0E0,0E0,0E0,0E0,0E0,0E0,0E0,0E0,0E0,0E0,0E0,0E0,0E0,0E0,0E0,0E0,0E0,0E0,0E0,0E0,0E0,0E0,0E0,0E0,0E0,0E0,0E0,0E0,0E0,0E0,0E0,0E0,0E0,0E0,0E0,0E0,0E0,0E0,0E0,0E0,0E0,0E0,0E0,0E0,0E0,0E0,0E0,0E0,0E0,0E0,0E0,0E0,0E0,0E0,0E0,0E0,0E0,0E0,0E0,0E0,0E0,0E0,0E0,0E0,0E0,0E0,0E0,0E0,0E0,0E0,0E0,0E0,0E0,0E0,0E0,0E0,0E0,0E0,0E0,0E0,0E0,0E0,0E0,0E0,0E0,0E0,0E0,0E0,0E0,0E0,0E0],"parents":[2147483647,0,0,1,1,2,2,3,3,4,4,5,5,6,6,7,7,8,8,9,9,10,10,11,11,12,12,13,13,14,14,15,15,16,16,17,17,18,18,19,19,20,20,21,21,22,22,23,23,24,24,25,25,26,26,27,27,29,29,30,30,31,31,32,32,33,33,34,34,35,35,36,36,37,37,38,38,39,39,40,40,41,41,42,42,44,44,45,45,46,46,47,47,48,48,49,49,50,50,51,51,52,52,53,53,54,54,55,55,56,56,57,57,58,58,60,60,61,61,62,62,63,63,64,64,65,65,66,66,67,67,68,68,69,69,70,70,72,72,73,73,78,78,79,79,80,80,81,81,84,84,85,85,86,86,87,87,88,88,92,92,93,93,94,94,96,96,98,98,99,99,100,100,101,101,102,102,103,103,104,104,105,105,106,106,110,110,111,111,112,112,113,113,114,114,115,115,116,116,117,117,118,118,119,119,120,120,121,121,122,122,123,123,125,125,126,126,127,127,128,128,129,129,130,130,131,131,132,132,133,133,134,134,136,136,137,137,138,138,140,140,142,142,143,143,144,144,146,146,147,147,149,149,150,150,151,151,152,152,153,153,154,154,157,157,158,158,160,160,161,161,162,162,163,163,164,164,165,165,167,167,170,170,177,177,178,178,179,179,181,181,184,184,185,185,186,186,187,187,188,188,189,189,190,190,191,191,192,192,193,193,194,194,195,195,196,196,197,197,198,198],"right_children":[2,4,6,8,10,12,14,16,18,20,22,24,26,28,30,32,34,36,38,40,42,44,46,48,50,52,54,56,-1,58,60,62,64,66,68,70,72,74,76,78,80,82,84,-1,86,88,90,92,94,96,98,100,102,104,106,108,110,112,114,-1,116,118,120,122,124,126,128,130,132,134,136,-1,138,140,-1,-1,-1,-1,142,144,146,148,-1,-1,150,152,154,156,158,-1,-1,-1,160,162,164,-1,166,-1,168,170,172,174,176,178,180,182,184,-1,-1,-1,186,188,190,192,194,196,198,200,202,204,206,208,210,212,-1,214,216,218,220,222,224,226,228,230,232,-1,234,236,238,-1,240,-1,242,244,246,-1,248,250,-1,252,254,256,258,260,262,-1,-1,264,266,-1,268,270,272,274,276,278,-1,280,-1,-1,282,-1,-1,-1,-1,-1,-1,284,286,288,-1,290,-1,-1,292,294,296,298,300,302,304,306,308,310,312,314,316,318,320,-1,-1,-1,-1,-1,-1,-1,-1,-1,-1,-1,-1,-1,-1,-1,-1,-1,-1,-1,-1,-1,-1,-1,-1,-1,-1,-1,-1,-1,-1,-1,-1,-1,-1,-1,-1,-1,-1,-1,-1,-1,-1,-1,-1,-1,-1,-1,-1,-1,-1,-1,-1,-1,-1,-1,-1,-1,-1,-1,-1,-1,-1,-1,-1,-1,-1,-1,-1,-1,-1,-1,-1,-1,-1,-1,-1,-1,-1,-1,-1,-1,-1,-1,-1,-1,-1,-1,-1,-1,-1,-1,-1,-1,-1,-1,-1,-1,-1,-1,-1,-1,-1,-1,-1,-1,-1,-1,-1,-1,-1,-1,-1,-1,-1,-1,-1,-1,-1,-1,-1,-1,-1],"split_conditions":[4.18E2,2.67E2,2.771E2,2.671E2,6.212121E-1,6.636364E-1,3.287E2,2.139E2,6.086E2,4.4545454E-1,9.6363634E-1,4.3939394E-1,5.212121E-1,3.431E2,4.288E2,1.597E2,4.3939394E-1,4.212121E-1,5.6060606E-1,1.969697E-1,6.060606E-1,5.4E0,3.581E2,2.090909E-1,4.456E2,9.6363634E-1,9.6363634E-1,2.887E2,-3.57923E-2,6.007E2,1.5454546E-1,2.424E2,9E-1,2.3030303E-1,7.6060605E-1,4.5454547E-1,6.484848E-1,4.3939394E-1,9.5757574E-1,1.969697E-1,2.139E2,4.5454547E-1,5.8484846E-1,-3.7838705E-2,4.18E2,9.3030304E-1,6.501E2,1.5454546E-1,5.4E0,6.272727E-1,4.764E2,9.6363634E-1,7.003E2,9.5454544E-1,9.17E1,3.5151514E-1,5.4E0,6.545454E-1,5.945E2,-3.744604E-2,4.3939394E-1,8.818182E-1,8.30303E-1,2.3030303E-1,8.727273E-1,1.496E2,2.31E2,6.909091E-1,8.181818E-1,1.661E2,1.5454546E-1,-3.6195002E-2,5.212121E-1,1.1212121E-1,-3.527701E-2,3.593012E-2,-3.6539692E-2,-3.6060464E-2,1.1212121E-1,3.286E2,2.1818182E-1,4.2727274E-1,-3.5878453E-2,-3.6276404E-2,2.887E2,9.4242424E-1,4.764E2,2.888E2,3.018E2,5.1455166E-2,-4.04733E-2,-4.2597745E-2,3.2E0,2.3030303E-1,4.764E2,-3.5983086E-2,6.393939E-1,-3.604761E-2,8.007E2,3.3E0,3E0,5.151515E-1,5.181818E-1,5.222E2,9.6363634E-1,6.754E2,4.544E2,-1.12058045E-2,3.5969112E-2,-2.8163735E-2,5.366E2,4.2727274E-1,9.3030304E-1,7.854E2,7.241E2,4.3939394E-1,5.9090906E-1,8.181818E-1,5.87E1,4.3939394E-1,3.2E0,1.925E2,3.212121E-1,1.788E2,-4.2746976E-2,2.1212122E-1,2.423E2,4.060606E-1,2.499E2,6.393939E-1,2.499E2,8.545455E-1,9E-1,4.121212E-1,2.771E2,-4.1657425E-2,4.05E2,5.884E2,2.671E2,-3.3060428E-2,4.181818E-1,-3.5460643E-2,6.143E2,4.212121E-1,2.4545455E-1,1.18292E-2,3.6969697E-1,1.907E2,-3.519188E-2,1.928E2,1.031E2,3.018E2,9E-1,9.5454544E-1,9.5757574E-1,-6.557684E-2,7.449287E-2,2.888E2,5.545E2,3.895995E-3,2.139E2,7.488E2,8.7878786E-2,3.5454544E-1,2.060606E-1,1.95E2,4.617119E-3,7.241E2,-3.609973E-2,3.7319914E-2,4.679E2,3.9150473E-2,-3.3405002E-2,-1.0803699E-1,-4.6104044E-2,-3.7502714E-2,8.071703E-2,6.606061E-1,3.2E0,6.007E2,-3.518087E-2,9.6363634E-1,-3.3794556E-2,2.9274631E-2,9.3030304E-1,6.484848E-1,6.636364E-1,3.431E2,6.606061E-1,6.757576E-1,5.05E2,6.154E2,3.727E2,6.969697E-1,3.286E2,4.627E2,2.3030303E-1,8.007E2,7.6363635E-1,-3.585901E-2,-2.6069133E-2,-3.6601957E-2,-4.0529184E-2,-2.4717795E-2,-3.664512E-2,3.5511877E-2,-2.7413374E-2,-3.841663E-2,-4.4664197E-2,-2.6558468E-2,-3.4974493E-2,3.7957974E-2,-7.490907E-2,-3.9643604E-2,2.5364693E-2,-4.5804776E-2,-3.292563E-2,-1.2004006E-2,1.3930772E-2,8.51721E-2,3.2225687E-2,-3.7050582E-2,-5.9342138E-3,-4.358255E-2,-5.8038075E-2,2.1217534E-2,-5.811371E-2,-4.6561055E-2,-5.8769817E-3,-3.2326654E-2,-1.5376939E-2,-2.2231786E-2,-6.8917414E-3,5.392659E-2,2.7504731E-2,4.1972257E-2,-2.342029E-2,-3.0234324E-2,-1.6171496E-2,2.5954211E-2,-3.5673918E-3,1.9154728E-3,1.1675227E-2,4.986263E-3,-3.41391E-2,7.728501E-3,2.3981825E-2,3.4845155E-2,2.5904745E-2,-3.721392E-3,-2.2098877E-2,4.29525E-2,6.6043143E-3,-1.5501678E-3,1.3771045E-2,-3.8662583E-3,2.4678532E-2,-9.1477305E-2,5.8827274E-2,2.9762214E-2,-3.311694E-2,3.6079552E-2,-2.413592E-2,-3.413954E-2,2.3475485E-2,-4.2407658E-2,-2.7445259E-2,-1.9565817E-2,2.1519364E-4,9.6238805E-3,-1.0832665E-2,7.8453854E-2,3.8940076E-2,-8.615919E-3,4.051101E-3,-3.9351583E-4,3.0534327E-2,-4.5063705E-3,-1.685755E-2,-5.7794448E-2,-4.231485E-2,2.8316325E-2,5.2837607E-2,1.7208492E-3,-1.92238E-2,-5.3664837E-2,3.1026144E-4,9.473126E-2,3.9667826E-2,-5.715226E-2,-1.332754E-2,-3.6072256E-3,-2.3825696E-2,-1.3154237E-2,-2.6438416E-3,1.2873599E-2,-1.7761649E-3,4.7782215E-4,1.5881129E-2,-6.594624E-2,-8.303834E-4,3.383766E-2,9.446789E-3,3.94199E-2,9.223979E-3,2.8578721E-2,1.6408786E-2,-5.7248333E-3,-7.0757486E-2,3.431635E-2,2.5844432E-2,1.8342163E-2,-3.8364545E-2,2.8938597E-2,3.559394E-2,-3.837935E-2,4.6903763E-2,-1.0842169E-1,-4.6685107E-2,3.1189175E-2,3.554638E-2],"split_indices":[4,0,0,4,5,5,2,0,2,5,1,5,1,0,0,0,1,5,3,5,5,4,4,5,2,5,5,0,0,4,5,4,1,5,1,1,5,3,3,3,4,5,1,0,0,3,2,5,0,5,4,3,4,1,0,1,2,1,2,0,5,5,3,5,5,2,2,5,5,0,5,0,1,3,0,0,0,0,5,0,5,1,0,0,0,1,0,2,2,0,0,0,0,5,2,0,1,0,4,2,0,3,1,4,3,2,4,0,0,0,4,3,1,4,2,1,5,1,4,3,0,0,1,4,0,5,0,3,0,1,0,1,1,5,2,0,2,2,2,0,5,0,0,1,1,0,5,4,0,4,4,0,5,1,5,0,0,2,2,0,0,2,3,5,3,0,0,2,0,0,4,0,0,0,0,0,0,1,0,4,0,1,0,0,1,1,1,0,3,1,2,4,0,1,0,0,5,2,1,0,0,0,0,0,0,0,0,0,0,0,0,0,0,0,0,0,0,0,0,0,0,0,0,0,0,0,0,0,0,0,0,0,0,0,0,0,0,0,0,0,0,0,0,0,0,0,0,0,0,0,0,0,0,0,0,0,0,0,0,0,0,0,0,0,0,0,0,0,0,0,0,0,0,0,0,0,0,0,0,0,0,0,0,0,0,0,0,0,0,0,0,0,0,0,0,0,0,0,0,0,0,0,0,0,0,0,0,0,0,0,0,0,0,0,0,0,0,0,0,0,0],"split_type":[0,0,0,0,0,0,0,0,0,0,0,0,0,0,0,0,0,0,0,0,0,0,0,0,0,0,0,0,0,0,0,0,0,0,0,0,0,0,0,0,0,0,0,0,0,0,0,0,0,0,0,0,0,0,0,0,0,0,0,0,0,0,0,0,0,0,0,0,0,0,0,0,0,0,0,0,0,0,0,0,0,0,0,0,0,0,0,0,0,0,0,0,0,0,0,0,0,0,0,0,0,0,0,0,0,0,0,0,0,0,0,0,0,0,0,0,0,0,0,0,0,0,0,0,0,0,0,0,0,0,0,0,0,0,0,0,0,0,0,0,0,0,0,0,0,0,0,0,0,0,0,0,0,0,0,0,0,0,0,0,0,0,0,0,0,0,0,0,0,0,0,0,0,0,0,0,0,0,0,0,0,0,0,0,0,0,0,0,0,0,0,0,0,0,0,0,0,0,0,0,0,0,0,0,0,0,0,0,0,0,0,0,0,0,0,0,0,0,0,0,0,0,0,0,0,0,0,0,0,0,0,0,0,0,0,0,0,0,0,0,0,0,0,0,0,0,0,0,0,0,0,0,0,0,0,0,0,0,0,0,0,0,0,0,0,0,0,0,0,0,0,0,0,0,0,0,0,0,0,0,0,0,0,0,0,0,0,0,0,0,0,0,0,0,0,0,0,0,0,0,0,0,0,0,0,0,0,0,0,0,0,0,0,0,0,0,0,0,0,0,0],"sum_hessian":[7.0557E4,4.0223E4,3.0334E4,3.495E4,5.273E3,2.31E3,2.8024E4,3.3317E4,1.633E3,4.096E3,1.177E3,1.455E3,8.55E2,3.29E2,2.7695E4,3.1411E4,1.906E3,1.552E3,8.1E1,1.176E3,2.92E3,1.052E3,1.25E2,6.52E2,8.03E2,1.63E2,6.92E2,1.5E1,3.14E2,1.024E3,2.6671E4,2.5032E4,6.379E3,3.47E2,1.559E3,3.72E2,1.18E3,5.4E1,2.7E1,3.09E2,8.67E2,2.824E3,9.6E1,4.5E1,1.007E3,1.21E2,4E0,1.49E2,5.03E2,5.26E2,2.77E2,1.47E2,1.6E1,6.33E2,5.9E1,3E0,1.2E1,2.6E2,7.64E2,1.6E1,2.6655E4,2.4891E4,1.41E2,6.305E3,7.4E1,1.06E2,2.41E2,1.221E3,3.38E2,3.36E2,3.6E1,5.3E2,6.5E2,2.6E1,2.8E1,2E1,7E0,2.69E2,4E1,3.53E2,5.14E2,3.3E1,2.791E3,8.2E1,1.4E1,3.28E2,6.79E2,3E0,1.18E2,3E0,1E0,9.5E1,5.4E1,1.94E2,3.09E2,5.23E2,3E0,1.75E2,1.02E2,1.45E2,2E0,1.2E1,4E0,5.93E2,4E1,5.5E1,4E0,1E0,2E0,2E0,1E1,1.13E2,1.47E2,5.34E2,2.3E2,1.0269E4,1.6386E4,2.2047E4,2.844E3,1.3E2,1.1E1,2.75E2,6.03E3,3.9E1,3.5E1,2.4E1,8.2E1,2.35E2,6E0,1.017E3,2.04E2,1.04E2,2.34E2,2.59E2,7.7E1,2E0,3.4E1,1.8E1,6.32E2,6E0,2E1,3.5E1,5E0,1.53E2,2E2,8.5E1,4.29E2,8E0,2.5E1,3E0,1.1E1,2.97E2,3.1E1,1.09E2,5.7E2,1E0,2E0,5.1E1,6.7E1,5E0,4.9E1,4E1,1.54E2,2.9E2,1.9E1,2E0,1E0,7.8E1,2.4E1,8.4E1,6.1E1,1E0,1E0,1E0,1.1E1,3E0,1E0,2.91E2,3.02E2,3.5E1,5E0,4.7E1,8E0,1E0,3E0,4E0,6E0,8.7E1,2.6E1,1.18E2,2.9E1,5.27E2,7E0,2.26E2,4E0,1.0093E4,1.76E2,2.18E2,1.6168E4,2.1755E4,2.92E2,2.732E3,1.12E2,4.7E1,8.3E1,3E0,8E0,1.72E2,1.03E2,4.61E2,5.569E3,3.1E1,8E0,1.9E1,5E0,6.5E1,1.7E1,2.05E2,3E1,3E0,3E0,8.86E2,1.31E2,1.8E2,2.4E1,9.5E1,9E0,1.76E2,5.8E1,2.36E2,2.3E1,6E1,1.7E1,8E0,2.6E1,1.7E1,1E0,5.15E2,1.17E2,1.9E1,1E0,1E0,4E0,1.43E2,1E1,5.6E1,1.44E2,3.44E2,8.5E1,7E0,1E0,2E0,1E0,2E0,9E0,9.5E1,2.02E2,2.3E1,8E0,9.9E1,1E1,5.65E2,5E0,4.8E1,3E0,5.8E1,9E0,4.6E1,3E0,3.9E1,1E0,1E1,1.44E2,1.73E2,1.17E2,1E0,1.8E1,1E0,1E0,5.4E1,2.4E1,1.1E1,5E1,5E1,2.41E2,4E0,2.98E2,1.2E1,2.3E1,4.6E1,1E0,2E0,1E0,2E0,2E0,4E0,2E0,3.9E1,4.8E1,1.4E1,1.2E1,1.5E1,1.03E2,2.3E1,6E0,8.6E1,4.41E2,5E0,2E0,1.14E2,1.12E2,2E0,2E0,2.1E2,9.883E3,4E1,1.36E2,1.86E2,3.2E1,7.065E3,9.103E3],"tree_param":{"num_deleted":"0","num_feature":"6","num_nodes":"321","size_leaf_vector":"1"}},{"base_weights":[-1.4226659E-2,-7.49776E-2,6.632914E-2,-8.1255235E-2,-3.336125E-2,-3.1370144E-2,7.411226E-2,-8.2102336E-2,-6.393286E-2,-5.4300696E-2,3.9492983E-2,4.7039813E-3,-4.568571E-2,-8.1759445E-2,7.5910896E-2,-8.292167E-2,-6.856316E-2,-6.68163E-2,-8.543579E-3,1.7016776E-2,-8.301907E-2,5.3408593E-2,-7.7115186E-2,-7.043324E-2,3.309342E-2,-8.863701E-2,-2.784491E-3,5.382812E-2,-8.3207846E-2,4.1181587E-2,7.7345446E-2,-8.369231E-2,-7.95506E-2,-3.8999937E-2,-7.5114086E-2,-8.957014E-2,-6.363582E-2,-3.2335743E-2,3.849616E-2,-8.2611494E-2,5.2578695E-2,-2.5076883E-2,-6.5547094E-2,-8.9112885E-2,5.9859563E-2,-8.212187E-2,6.0470942E-2,-9.842006E-2,-3.0904999E-2,8.4793024E-2,-2.2421621E-3,-8.6578555E-2,-1.082764E-1,7.776822E-2,-2.3421774E-2,3.59958E-2,-8.219838E-3,-2.8407777E-2,-2.5197748E-2,1.9369967E-2,4.944579E-2,7.776516E-2,8.604723E-3,-8.7381795E-2,-8.279721E-2,-6.829797E-2,-8.511643E-2,-8.296389E-2,-8.652684E-3,-8.533655E-2,-5.414516E-2,-8.3036944E-2,-1.3075377E-1,-6.619571E-2,-1.9922858E-2,2.3847725E-2,-2.5058841E-2,2.5664378E-2,-2.6948024E-2,-2.5282389E-2,-6.964425E-2,2.1313306E-2,6.606091E-2,-2.5524603E-2,4.6915893E-2,-1.437586E-1,-2.5008528E-2,2.1046085E-2,7.8550406E-2,5.608523E-2,-8.607739E-2,1.3292585E-1,-3.4402307E-2,-1.0448156E-1,-7.86689E-2,-4.011449E-2,2.5487034E-2,1.8685946E-2,9.874688E-2,-3.2767072E-2,2.0093193E-2,-2.520876E-2,-9.261375E-2,-2.481466E-2,-1.2177479E-1,9.8873965E-2,-1.10550486E-1,-1.3507919E-2,-1.1903056E-1,5.8260085E-3,-9.524936E-3,-1.822962E-2,2.9623806E-3,1.1877407E-2,8.521138E-2,5.005901E-2,-6.607742E-2,7.281918E-2,8.151905E-2,-4.822645E-1,4.3839734E-2,-8.666891E-2,-1.00117855E-1,-8.331405E-2,-6.520692E-2,-7.908278E-2,-4.4994887E-2,4.4272833E-2,-8.5451305E-2,-9.3689255E-2,-4.878115E-2,2.0307156E-1,-2.0430928E-2,-7.824649E-2,-1.2688918E-1,3.9183564E-2,-8.17488E-2,-8.647909E-2,2.3138698E-2,4.356696E-2,-4.4720046E-2,-4.9702022E-2,-6.9411546E-2,3.511643E-2,-1.3580923E-1,-2.4559172E-2,5.794933E-2,-2.5117956E-2,2.6456753E-2,-5.9191403E-3,4.2843122E-2,2.530095E-2,7.638839E-2,9.526111E-2,2.6891163E-2,-5.292324E-2,-1.1768129E-2,3.6389824E-2,-1.2250018E-1,5.7749953E-2,8.398191E-2,-5.574031E-2,5.95943E-2,-6.094253E-2,-9.3141496E-2,4.767191E-2,8.24765E-3,-2.7161745E-2,-1.2135017E-1,-2.4519226E-2,6.0013536E-4,1.1751791E-2,-4.8815366E-2,1.1420501E-2,5.9190948E-2,-1.2147695E-2,2.4420977E-2,1.3108025E-1,7.128081E-2,-4.1574266E-2,7.753858E-2,7.214733E-2,8.983351E-3,-2.5215233E-2,-1.12669155E-1,-4.315059E-2,-3.0036462E-2,9.551743E-2,1.7576759E-1,-1.4994052E-1,1.3973686E-2,-2.2731164E-2,1.1180474E-1,-1.2756881E-1,4.03893E-4,-2.1150769E-3,4.9500437E-3,1.429285E-2,-9.879705E-2,4.9375977E-2,5.9577867E-2,4.4127498E-2,7.563856E-2,6.648295E-2,8.304913E-2,-2.498353E-2,8.16012E-2,4.4266123E-2,-6.3861895E-1,1.0744819E-1,-2.4396403E-1,-2.5645679E-2,-2.6966034E-2,-3.063737E-2,-1.3786896E-2,-2.5078902E-2,-2.359809E-2,-2.8327774E-2,-1.6602786E-2,-2.600381E-2,-2.0140544E-2,-2.5482992E-2,-1.0253648E-2,-2.2985663E-2,-2.6921293E-2,-3.1500354E-2,-1.954239E-2,-1.8208453E-3,-1.9492581E-2,9.796289E-2,1.3726472E-2,-2.090471E-2,3.5752746E-5,-2.6030812E-2,1.7734079E-2,-5.9505124E-2,-3.4902893E-2,2.1394113E-2,-3.3786897E-2,-3.3624392E-2,-1.3254416E-2,-2.6583176E-2,-5.483866E-4,-1.7088214E-2,2.0073013E-2,-2.3568055E-2,-1.8422125E-2,1.7613703E-2,-1.5118692E-2,-5.0579764E-2,-2.9400868E-2,3.6785926E-3,2.0393401E-2,1.6281545E-3,8.873169E-3,-1.3892621E-2,2.5621771E-3,1.375417E-2,-3.4990992E-2,1.4108091E-3,8.179342E-3,2.435468E-2,1.2568002E-2,3.4362003E-2,5.613667E-3,3.1399638E-3,1.4337695E-2,7.511426E-3,4.4820093E-2,-6.5177575E-2,4.3139998E-2,2.1258691E-2,-2.072074E-2,2.5635522E-2,-1.8101936E-2,-3.750111E-2,-2.5109197E-3,-2.5176916E-2,-3.225462E-2,-3.106832E-2,-5.3463392E-2,-3.738195E-3,5.808745E-3,-1.1819446E-2,-2.0792235E-2,-3.3448936E-4,3.9380416E-3,2.9962512E-3,2.3639677E-2,-1.0414303E-3,-3.956598E-3,8.245644E-3,-9.207765E-3,6.4507484E-2,3.455099E-2,2.5457844E-2,7.5632012E-3,7.363833E-3,-1.6476827E-2,2.6955402E-2,-3.1445103E-3,-6.4864936E-3,2.4057578E-2,-9.910247E-3,8.621719E-3,-3.831702E-2,-2.5617974E-2,2.8990038E-2,3.2557668E-3,1.48038985E-2,7.30799E-2,-9.183144E-2,-3.342543E-2,-2.9064601E-2,6.860947E-2,-1.20206745E-2,-5.5857433E-4,-1.9164903E-2,4.5302305E-2,-4.022625E-2,-2.3588426E-2,2.4883436E-2,-1.2290258E-2,-2.9476383E-4,7.5381594E-3,-3.8918942E-2,-1.5269466E-2,1.9790096E-2,-1.4064145E-2,1.2375524E-2,3.853071E-2,2.368425E-2,-3.3513624E-2,2.3047552E-2,1.1954964E-2,2.3094196E-2,2.6077589E-2,1.9568518E-2,2.4639368E-2,-7.057421E-2,-2.1607837E-1,3.8907293E-2,-9.964059E-3,-2.0774265E-1,-3.4906182E-2],"categories":[],"categories_nodes":[],"categories_segments":[],"categories_sizes":[],"default_left":[0,0,0,0,0,0,0,0,0,0,0,0,0,0,0,0,0,0,0,0,0,0,0,0,0,0,0,0,0,0,0,0,0,0,0,0,0,0,0,0,0,0,0,0,0,0,0,0,0,0,0,0,0,0,0,0,0,0,0,0,0,0,0,0,0,0,0,0,0,0,0,0,0,0,0,0,0,0,0,0,0,0,0,0,0,0,0,0,0,0,0,0,0,0,0,0,0,0,0,0,0,0,0,0,0,0,0,0,0,0,0,0,0,0,0,0,0,0,0,0,0,0,0,0,0,0,0,0,0,0,0,0,0,0,0,0,0,0,0,0,0,0,0,0,0,0,0,0,0,0,0,0,0,0,0,0,0,0,0,0,0,0,0,0,0,0,0,0,0,0,0,0,0,0,0,0,0,0,0,0,0,0,0,0,0,0,0,0,0,0,0,0,0,0,0,0,0,0,0,0,0,0,0,0,0,0,0,0,0,0,0,0,0,0,0,0,0,0,0,0,0,0,0,0,0,0,0,0,0,0,0,0,0,0,0,0,0,0,0,0,0,0,0,0,0,0,0,0,0,0,0,0,0,0,0,0,0,0,0,0,0,0,0,0,0,0,0,0,0,0,0,0,0,0,0,0,0,0,0,0,0,0,0,0,0,0,0,0,0,0,0,0,0,0,0,0,0,0,0,0,0,0,0,0,0,0,0,0,0,0,0,0,0,0,0,0,0,0,0,0,0,0,0,0,0,0,0,0,0,0,0,0,0,0,0,0,0,0,0,0,0,0,0,0,0],"id":5,"left_children":[1,3,5,7,9,11,13,15,17,19,21,23,25,27,29,31,33,35,37,39,41,43,45,47,49,51,53,55,57,59,61,63,65,67,69,71,73,75,77,79,81,-1,83,85,87,89,91,93,95,97,99,101,103,105,107,-1,109,111,-1,113,115,117,119,121,123,125,127,129,131,133,135,137,139,141,143,145,-1,-1,-1,-1,147,149,151,-1,153,155,-1,157,159,161,163,165,-1,167,169,171,173,175,177,179,181,-1,183,-1,185,187,189,191,193,-1,-1,-1,195,197,199,201,-1,203,205,207,209,211,213,215,217,219,221,-1,223,225,227,229,231,233,235,237,239,241,-1,-1,-1,243,245,247,249,-1,251,-1,253,255,257,259,261,263,265,-1,-1,267,269,271,273,-1,-1,275,277,-1,-1,-1,279,-1,-1,281,283,285,287,289,291,293,295,297,299,301,303,-1,305,-1,-1,307,309,311,313,315,317,319,321,-1,-1,323,325,-1,327,329,331,333,335,-1,337,-1,339,341,343,-1,-1,-1,-1,-1,-1,-1,-1,-1,-1,-1,-1,-1,-1,-1,-1,-1,-1,-1,-1,-1,-1,-1,-1,-1,-1,-1,-1,-1,-1,-1,-1,-1,-1,-1,-1,-1,-1,-1,-1,-1,-1,-1,-1,-1,-1,-1,-1,-1,-1,-1,-1,-1,-1,-1,-1,-1,-1,-1,-1,-1,-1,-1,-1,-1,-1,-1,-1,-1,-1,-1,-1,-1,-1,-1,-1,-1,-1,-1,-1,-1,-1,-1,-1,-1,-1,-1,-1,-1,-1,-1,-1,-1,-1,-1,-1,-1,-1,-1,-1,-1,-1,-1,-1,-1,-1,-1,-1,-1,-1,-1,-1,-1,-1,-1,-1,-1,-1,-1,-1,-1,-1,-1,-1,-1,-1,-1,-1,-1,-1,-1,-1,-1,-1],"loss_changes":[3.4530457E2,1.050589E1,2.306923E1,5.0761414E-1,8.047775E0,1.1564822E0,7.883362E0,3.6392212E-1,2.603979E-1,8.392567E0,1.915628E0,1.3611177E0,2.9535425E0,6.7518234E-2,1.3807068E0,7.493591E-2,3.6639214E-1,1.0668802E-1,9.301733E-2,4.1744227E0,2.3639679E-2,9.734647E-1,9.176111E-2,1.9055557E-1,8.460149E-1,2.3007393E-2,1.33672E0,1.740611E-2,1.1287451E-2,1.9804454E-1,7.6890564E-1,7.713318E-2,3.6151123E-1,4.6357852E-1,3.29772E-1,3.9726138E-2,1.5153694E-1,1.6018522E-1,1.7674343E-1,8.163452E-4,3.6447692E-1,0E0,2.1709627E-1,2.4726987E-3,7.296071E-1,7.152271E-2,7.8693874E-2,3.9921403E-3,3.94537E-2,1.7157519E-1,1.8883099E-1,3.44944E-3,1.4769554E-2,6.6276604E-1,6.050171E-1,0E0,2.5676754E-3,6.2703914E-3,0E0,1.4945072E-1,1.4333606E-1,4.8631287E-1,2.8403547E0,3.6445618E-2,1.8167114E-1,4.8550892E-1,3.1807137E-1,4.749018E-2,5.203531E-1,2.9852867E-1,1.3273765E0,9.76367E-2,1.429435E-1,6.497288E-2,4.9589851E-1,1.0207724E-1,0E0,0E0,0E0,0E0,5.7701305E-2,1.5445301E-1,2.5316167E-1,0E0,1.1959817E-2,3.3194683E-3,0E0,7.2909224E-1,7.1974754E-2,1.748445E-1,1.5452802E-2,6.5882057E-3,0E0,6.652236E-3,7.0794076E-3,2.9455721E-2,4.539078E-3,6.308942E-3,1.2830746E-1,1.1688712E-1,9.1881976E-2,0E0,2.6079059E-2,0E0,7.0946217E-3,2.1409392E-2,8.548041E-2,6.740551E-1,6.1237156E-2,0E0,0E0,0E0,6.585251E-4,7.492721E-2,5.3268924E-2,1.17890835E-1,0E0,7.3659134E-1,2.1072388E-1,1.1774547E0,2.827147E0,1.0269165E-2,2.3239136E-2,1.9683838E-2,1.654036E-1,1.1480236E-1,2.64125E-1,0E0,1.4133835E-1,2.7713776E-2,2.4506047E-2,1.9872427E-1,1.993964E-1,1.0552511E0,9.072375E-2,5.835843E-1,4.474349E-1,2.906835E-2,0E0,0E0,0E0,1.8495166E-1,7.4044704E-2,1.0989882E-1,1.4468521E-2,0E0,8.78831E-3,0E0,2.3321295E-4,6.872616E-2,7.577443E-2,4.8869774E-3,7.6470375E-2,3.7598126E-3,3.6193011E-3,0E0,0E0,3.7855324E-1,8.3873546E-1,2.4435136E-1,1.1906886E-1,0E0,0E0,9.662211E-2,3.0349493E-3,0E0,0E0,0E0,1.2901008E-2,0E0,0E0,2.0840033E-3,7.883221E-3,2.0713988E-4,2.1073343E-3,8.406583E-6,5.74157E-3,6.872642E-2,5.1659763E-2,9.755233E-2,1.0695741E-2,2.2855222E-2,1.1135077E-1,0E0,1.331979E-2,0E0,0E0,1.2557745E-2,3.0856311E-2,4.4100106E-2,1.4117393E-1,1.9603503E-1,2.8514588E-1,7.322669E-3,2.047221E-2,0E0,0E0,4.4709403E-2,2.286844E-3,0E0,2.0096935E-2,1.5253651E-1,1.0118914E-1,1.9457111E0,9.621811E-2,0E0,1.2529755E-1,0E0,1.2694979E-1,3.9852452E-1,1.5219963E0,0E0,0E0,0E0,0E0,0E0,0E0,0E0,0E0,0E0,0E0,0E0,0E0,0E0,0E0,0E0,0E0,0E0,0E0,0E0,0E0,0E0,0E0,0E0,0E0,0E0,0E0,0E0,0E0,0E0,0E0,0E0,0E0,0E0,0E0,0E0,0E0,0E0,0E0,0E0,0E0,0E0,0E0,0E0,0E0,0E0,0E0,0E0,0E0,0E0,0E0,0E0,0E0,0E0,0E0,0E0,0E0,0E0,0E0,0E0,0E0,0E0,0E0,0E0,0E0,0E0,0E0,0E0,0E0,0E0,0E0,0E0,0E0,0E0,0E0,0E0,0E0,0E0,0E0,0E0,0E0,0E0,0E0,0E0,0E0,0E0,0E0,0E0,0E0,0E0,0E0,0E0,0E0,0E0,0E0,0E0,0E0,0E0,0E0,0E0,0E0,0E0,0E0,0E0,0E0,0E0,0E0,0E0,0E0,0E0,0E0,0E0,0E0,0E0,0E0,0E0,0E0,0E0,0E0,0E0,0E0,0E0,0E0,0E0,0E0,0E0,0E0,0E0,0E0,0E0,0E0,0E0,0E0,0E0,0E0],"parents":[2147483647,0,0,1,1,2,2,3,3,4,4,5,5,6,6,7,7,8,8,9,9,10,10,11,11,12,12,13,13,14,14,15,15,16,16,17,17,18,18,19,19,20,20,21,21,22,22,23,23,24,24,25,25,26,26,27,27,28,28,29,29,30,30,31,31,32,32,33,33,34,34,35,35,36,36,37,37,38,38,39,39,40,40,42,42,43,43,44,44,45,45,46,46,47,47,48,48,49,49,50,50,51,51,52,52,53,53,54,54,56,56,57,57,59,59,60,60,61,61,62,62,63,63,64,64,65,65,66,66,67,67,68,68,69,69,70,70,71,71,72,72,73,73,74,74,75,75,80,80,81,81,82,82,84,84,85,85,87,87,88,88,89,89,90,90,91,91,93,93,94,94,95,95,96,96,97,97,98,98,99,99,100,100,102,102,104,104,105,105,106,106,107,107,108,108,112,112,113,113,114,114,115,115,117,117,118,118,119,119,120,120,121,121,122,122,123,123,124,124,125,125,126,126,128,128,129,129,130,130,131,131,132,132,133,133,134,134,135,135,136,136,137,137,141,141,142,142,143,143,144,144,146,146,148,148,149,149,150,150,151,151,152,152,153,153,154,154,157,157,158,158,159,159,160,160,163,163,164,164,168,168,171,171,172,172,173,173,174,174,175,175,176,176,177,177,178,178,179,179,180,180,181,181,182,182,184,184,187,187,188,188,189,189,190,190,191,191,192,192,193,193,194,194,197,197,198,198,200,200,201,201,202,202,203,203,204,204,206,206,208,208,209,209,210,210],"right_children":[2,4,6,8,10,12,14,16,18,20,22,24,26,28,30,32,34,36,38,40,42,44,46,48,50,52,54,56,58,60,62,64,66,68,70,72,74,76,78,80,82,-1,84,86,88,90,92,94,96,98,100,102,104,106,108,-1,110,112,-1,114,116,118,120,122,124,126,128,130,132,134,136,138,140,142,144,146,-1,-1,-1,-1,148,150,152,-1,154,156,-1,158,160,162,164,166,-1,168,170,172,174,176,178,180,182,-1,184,-1,186,188,190,192,194,-1,-1,-1,196,198,200,202,-1,204,206,208,210,212,214,216,218,220,222,-1,224,226,228,230,232,234,236,238,240,242,-1,-1,-1,244,246,248,250,-1,252,-1,254,256,258,260,262,264,266,-1,-1,268,270,272,274,-1,-1,276,278,-1,-1,-1,280,-1,-1,282,284,286,288,290,292,294,296,298,300,302,304,-1,306,-1,-1,308,310,312,314,316,318,320,322,-1,-1,324,326,-1,328,330,332,334,336,-1,338,-1,340,342,344,-1,-1,-1,-1,-1,-1,-1,-1,-1,-1,-1,-1,-1,-1,-1,-1,-1,-1,-1,-1,-1,-1,-1,-1,-1,-1,-1,-1,-1,-1,-1,-1,-1,-1,-1,-1,-1,-1,-1,-1,-1,-1,-1,-1,-1,-1,-1,-1,-1,-1,-1,-1,-1,-1,-1,-1,-1,-1,-1,-1,-1,-1,-1,-1,-1,-1,-1,-1,-1,-1,-1,-1,-1,-1,-1,-1,-1,-1,-1,-1,-1,-1,-1,-1,-1,-1,-1,-1,-1,-1,-1,-1,-1,-1,-1,-1,-1,-1,-1,-1,-1,-1,-1,-1,-1,-1,-1,-1,-1,-1,-1,-1,-1,-1,-1,-1,-1,-1,-1,-1,-1,-1,-1,-1,-1,-1,-1,-1,-1,-1,-1,-1,-1,-1],"split_conditions":[4.18E2,2.67E2,2.67E2,2.671E2,6.212121E-1,4.3939394E-1,2.888E2,2.139E2,6.086E2,4.4545454E-1,9.6363634E-1,2.1515152E-1,6.333333E-1,2.887E2,4.288E2,1.614E2,4.3939394E-1,9.76E1,5.6060606E-1,1.969697E-1,6.060606E-1,5.4E0,3.581E2,1.969697E-1,5.4E0,6.556E2,5.212121E-1,3.3E0,3.286E2,6.007E2,9.6363634E-1,4.5454547E-1,6.212121E-1,2.6060605E-1,7.060606E-1,8.727273E-1,8.909091E-1,4.3939394E-1,9.5757574E-1,1.969697E-1,3.727E2,-2.5076883E-2,5.8484846E-1,2.7E0,4.18E2,9.3030304E-1,6.501E2,5.884E2,4.679E2,2.3030303E-1,4.831E2,4.456E2,4.764E2,9.6363634E-1,9.6363634E-1,3.59958E-2,2.771E2,6.484848E-1,-2.5197748E-2,9.3030304E-1,9.6363634E-1,6.29E2,8.060606E-1,1.925E2,1.885E2,1.767E2,5.212121E-1,2.3030303E-1,2.5151515E-1,6.484848E-1,7.5757575E-1,6.484848E-1,5.181818E-1,3.5151514E-1,9.3939394E-1,1.1212121E-1,-2.5058841E-2,2.5664378E-2,-2.6948024E-2,-2.5282389E-2,1.1212121E-1,1.868E2,2.3030303E-1,-2.5524603E-2,2.887E2,3.018E2,-2.5008528E-2,9.4242424E-1,4.931E2,2.888E2,9.1818184E-1,6.086E2,-3.4402307E-2,4.97E2,1.5454546E-1,2.37E2,6.195E2,5.098E2,5.121212E-1,2.31E2,2.5454545E-1,-2.520876E-2,4.764E2,-2.481466E-2,7.241E2,7.241E2,7.003E2,9.5454544E-1,9.17E1,5.8260085E-3,-9.524936E-3,-1.822962E-2,3.152E2,6.387E2,3.58E2,6.115E2,-6.607742E-2,7.7575755E-1,1.5454546E-1,3.6363637E-1,9.6363634E-1,1.546E2,1.595E2,1.595E2,5.4E0,1.788E2,2.6363635E-1,4.4272833E-2,1.645E2,2.363E2,2.060606E-1,2.499E2,3.212121E-1,6.333333E-1,6.484848E-1,2.11E2,8.30303E-1,6.151515E-1,2.3138698E-2,4.356696E-2,-4.4720046E-2,3.7878788E-1,6.393939E-1,4.05E2,4.723E2,-2.4559172E-2,2.3030303E-1,-2.5117956E-2,6.143E2,2.090909E-1,3.892E2,4.18E2,4.181818E-1,1.928E2,6.606061E-1,-5.292324E-2,-1.1768129E-2,8.787879E-1,9E-1,9.5454544E-1,9.5757574E-1,-5.574031E-2,5.95943E-2,5.049E2,6.922E2,4.767191E-2,8.24765E-3,-2.7161745E-2,3.431E2,-2.4519226E-2,6.0013536E-4,2.9E0,2.060606E-1,4.8E2,3.2E0,2.9E0,6.201E2,3.1E0,3.7878788E-1,2.5454545E-1,4.8E2,2.060606E-1,3.121212E-1,-2.5215233E-2,8.007E2,-4.315059E-2,-3.0036462E-2,9.6363634E-1,4.288E2,5.151515E-1,5.181818E-1,3.431E2,4.764E2,7.854E2,4.544E2,-2.1150769E-3,4.9500437E-3,6.636364E-1,7.086E2,4.9375977E-2,9.6363634E-1,9.4545454E-1,9.5454544E-1,7.060606E-1,5.732E2,-2.498353E-2,4.723E2,4.4266123E-2,5.295E2,7.241E2,5.366E2,-2.5645679E-2,-2.6966034E-2,-3.063737E-2,-1.3786896E-2,-2.5078902E-2,-2.359809E-2,-2.8327774E-2,-1.6602786E-2,-2.600381E-2,-2.0140544E-2,-2.5482992E-2,-1.0253648E-2,-2.2985663E-2,-2.6921293E-2,-3.1500354E-2,-1.954239E-2,-1.8208453E-3,-1.9492581E-2,9.796289E-2,1.3726472E-2,-2.090471E-2,3.5752746E-5,-2.6030812E-2,1.7734079E-2,-5.9505124E-2,-3.4902893E-2,2.1394113E-2,-3.3786897E-2,-3.3624392E-2,-1.3254416E-2,-2.6583176E-2,-5.483866E-4,-1.7088214E-2,2.0073013E-2,-2.3568055E-2,-1.8422125E-2,1.7613703E-2,-1.5118692E-2,-5.0579764E-2,-2.9400868E-2,3.6785926E-3,2.0393401E-2,1.6281545E-3,8.873169E-3,-1.3892621E-2,2.5621771E-3,1.375417E-2,-3.4990992E-2,1.4108091E-3,8.179342E-3,2.435468E-2,1.2568002E-2,3.4362003E-2,5.613667E-3,3.1399638E-3,1.4337695E-2,7.511426E-3,4.4820093E-2,-6.5177575E-2,4.3139998E-2,2.1258691E-2,-2.072074E-2,2.5635522E-2,-1.8101936E-2,-3.750111E-2,-2.5109197E-3,-2.5176916E-2,-3.225462E-2,-3.106832E-2,-5.3463392E-2,-3.738195E-3,5.808745E-3,-1.1819446E-2,-2.0792235E-2,-3.3448936E-4,3.9380416E-3,2.9962512E-3,2.3639677E-2,-1.0414303E-3,-3.956598E-3,8.245644E-3,-9.207765E-3,6.4507484E-2,3.455099E-2,2.5457844E-2,7.5632012E-3,7.363833E-3,-1.6476827E-2,2.6955402E-2,-3.1445103E-3,-6.4864936E-3,2.4057578E-2,-9.910247E-3,8.621719E-3,-3.831702E-2,-2.5617974E-2,2.8990038E-2,3.2557668E-3,1.48038985E-2,7.30799E-2,-9.183144E-2,-3.342543E-2,-2.9064601E-2,6.860947E-2,-1.20206745E-2,-5.5857433E-4,-1.9164903E-2,4.5302305E-2,-4.022625E-2,-2.3588426E-2,2.4883436E-2,-1.2290258E-2,-2.9476383E-4,7.5381594E-3,-3.8918942E-2,-1.5269466E-2,1.9790096E-2,-1.4064145E-2,1.2375524E-2,3.853071E-2,2.368425E-2,-3.3513624E-2,2.3047552E-2,1.1954964E-2,2.3094196E-2,2.6077589E-2,1.9568518E-2,2.4639368E-2,-7.057421E-2,-2.1607837E-1,3.8907293E-2,-9.964059E-3,-2.0774265E-1,-3.4906182E-2],"split_indices":[4,0,0,4,5,5,2,0,2,5,1,5,5,0,0,4,1,2,3,5,5,4,4,5,0,2,1,2,0,4,5,5,5,5,1,5,1,3,3,3,0,0,1,4,0,3,2,4,2,5,4,2,4,5,5,0,0,1,0,1,1,0,3,0,0,2,1,5,1,3,5,5,1,3,3,3,0,0,0,0,5,4,5,0,0,0,0,1,0,2,5,0,0,4,5,2,2,4,3,0,1,0,4,0,2,2,4,1,0,0,0,0,0,2,0,2,0,5,5,1,3,0,4,2,4,4,5,0,2,0,1,0,5,1,5,4,1,3,0,0,0,1,5,4,2,0,3,0,0,1,2,0,5,4,1,0,0,5,5,1,5,0,0,0,0,0,0,0,2,0,0,0,1,2,0,0,2,2,5,1,4,1,3,0,4,0,0,3,4,3,1,2,4,4,4,0,0,3,2,0,1,1,1,1,0,0,4,0,4,4,4,0,0,0,0,0,0,0,0,0,0,0,0,0,0,0,0,0,0,0,0,0,0,0,0,0,0,0,0,0,0,0,0,0,0,0,0,0,0,0,0,0,0,0,0,0,0,0,0,0,0,0,0,0,0,0,0,0,0,0,0,0,0,0,0,0,0,0,0,0,0,0,0,0,0,0,0,0,0,0,0,0,0,0,0,0,0,0,0,0,0,0,0,0,0,0,0,0,0,0,0,0,0,0,0,0,0,0,0,0,0,0,0,0,0,0,0,0,0,0,0,0,0,0,0,0,0,0,0,0,0,0,0,0,0],"split_type":[0,0,0,0,0,0,0,0,0,0,0,0,0,0,0,0,0,0,0,0,0,0,0,0,0,0,0,0,0,0,0,0,0,0,0,0,0,0,0,0,0,0,0,0,0,0,0,0,0,0,0,0,0,0,0,0,0,0,0,0,0,0,0,0,0,0,0,0,0,0,0,0,0,0,0,0,0,0,0,0,0,0,0,0,0,0,0,0,0,0,0,0,0,0,0,0,0,0,0,0,0,0,0,0,0,0,0,0,0,0,0,0,0,0,0,0,0,0,0,0,0,0,0,0,0,0,0,0,0,0,0,0,0,0,0,0,0,0,0,0,0,0,0,0,0,0,0,0,0,0,0,0,0,0,0,0,0,0,0,0,0,0,0,0,0,0,0,0,0,0,0,0,0,0,0,0,0,0,0,0,0,0,0,0,0,0,0,0,0,0,0,0,0,0,0,0,0,0,0,0,0,0,0,0,0,0,0,0,0,0,0,0,0,0,0,0,0,0,0,0,0,0,0,0,0,0,0,0,0,0,0,0,0,0,0,0,0,0,0,0,0,0,0,0,0,0,0,0,0,0,0,0,0,0,0,0,0,0,0,0,0,0,0,0,0,0,0,0,0,0,0,0,0,0,0,0,0,0,0,0,0,0,0,0,0,0,0,0,0,0,0,0,0,0,0,0,0,0,0,0,0,0,0,0,0,0,0,0,0,0,0,0,0,0,0,0,0,0,0,0,0,0,0,0,0,0,0,0,0,0,0,0,0,0,0,0,0,0,0,0,0,0,0,0,0],"sum_hessian":[7.0557E4,4.0223E4,3.0334E4,3.495E4,5.273E3,2.238E3,2.8096E4,3.3317E4,1.633E3,4.096E3,1.177E3,6.36E2,1.602E3,3.2E2,2.7776E4,3.1411E4,1.906E3,1.552E3,8.1E1,1.176E3,2.92E3,1.052E3,1.25E2,1.74E2,4.62E2,8E2,8.02E2,3E0,3.17E2,1.103E3,2.6673E4,2.5547E4,5.864E3,3.47E2,1.559E3,1.87E2,1.365E3,5.4E1,2.7E1,3.09E2,8.67E2,2.824E3,9.6E1,4.5E1,1.007E3,1.21E2,4E0,1.01E2,7.3E1,1.87E2,2.75E2,7.29E2,7.1E1,1.63E2,6.39E2,1E0,2E0,5E0,3.12E2,3.04E2,7.99E2,2.6511E4,1.62E2,4.969E3,2.0578E4,1.945E3,3.919E3,1.41E2,2.06E2,1.046E3,5.13E2,