{"learner":{"attributes":{"scikit_learn":"{\"_estimator_type\": \"regressor\"}"},"feature_names":[],"feature_types":[],"gradient_booster":{"model":{"gbtree_model_param":{"num_parallel_tree":"1","num_trees":"15"},"iteration_indptr":[0,1,2,3,4,5,6,7,8,9,10,11,12,13,14,15],"tree_info":[0,0,0,0,0,0,0,0,0,0,0,0,0,0,0],"trees":[{"base_weights":[-1.5045889E-1,-4.1105503E-1,3.8273564E-1,-4.6184278E-1,-1.8903884E-1,4.283771E-1,-1.7815633E-1,3.4398463E-1,-4.6990877E-1,-3.057873E-1,2.5261408E-1,2.538267E-1,4.587951E-1,3.2826448E-3,-3.796106E-1,-4.0327466E-1,4.221635E-1,-4.899263E-1,-3.9960843E-1,4.071141E-1,-3.3306703E-1,3.217834E-1,-3.9977407E-1,2.8791395E-1,-3.772521E-1,4.6061555E-1,2.2705571E-1,-1.1503593E-1,2.7130578E-2,-4.2375708E-1,2.1467214E-2,1.8459773E-2,-1.4178175E-1,1.3953489E-1,1.7981013E-2,-8.357689E-2,-1.4808695E-1,-1.3745578E-1,-3.0223439E-2,1.2951292E-1,-6.5023236E-2,-1.1032116E-1,-9.686891E-3,1.0357872E-1,-9.952181E-2,-1.2398397E-1,-5.843566E-2,-1.4482759E-1,8.980879E-2,-1.3609084E-1,-7.501695E-2,1.2408637E-1,1.3879697E-1,9.844708E-2,5.4424677E-2,-5.5247188E-2,-1.6540134E-2,1.6715044E-2,-2.0744141E-2,8.466613E-3,-1.3332221E-1,1.3068746E-1,-2.4768027E-2],"categories":[],"categories_nodes":[],"categories_segments":[],"categories_sizes":[],"default_left":[0,0,0,0,0,0,0,0,0,0,0,0,0,0,0,0,0,0,0,0,0,0,0,0,0,0,0,0,0,0,0,0,0,0,0,0,0,0,0,0,0,0,0,0,0,0,0,0,0,0,0,0,0,0,0,0,0,0,0,0,0,0,0],"id":0,"left_children":[1,3,5,7,9,11,13,15,17,19,21,23,25,27,29,31,33,35,37,39,41,43,45,47,49,51,53,55,57,59,61,-1,-1,-1,-1,-1,-1,-1,-1,-1,-1,-1,-1,-1,-1,-1,-1,-1,-1,-1,-1,-1,-1,-1,-1,-1,-1,-1,-1,-1,-1,-1,-1],"loss_changes":[6.3460713E3,3.458286E2,3.839214E2,1.6243555E2,2.946526E2,7.350488E1,4.1268063E1,1.4658373E1,3.4589844E1,8.802005E1,5.4053314E1,4.442276E1,4.876465E0,1.6820047E0,9.481903E0,8.024957E-1,3.4728165E0,1.4891113E1,9.596051E1,2.6560497E0,4.5381165E1,1.6701462E1,2.378807E-1,1.7393845E1,9.164324E-1,9.321289E-1,3.7420893E-1,4.0389848E-1,1.3689525E0,4.511284E0,2.3624852E0,0E0,0E0,0E0,0E0,0E0,0E0,0E0,0E0,0E0,0E0,0E0,0E0,0E0,0E0,0E0,0E0,0E0,0E0,0E0,0E0,0E0,0E0,0E0,0E0,0E0,0E0,0E0,0E0,0E0,0E0,0E0,0E0],"parents":[2147483647,0,0,1,1,2,2,3,3,4,4,5,5,6,6,7,7,8,8,9,9,10,10,11,11,12,12,13,13,14,14,15,15,16,16,17,17,18,18,19,19,20,20,21,21,22,22,23,23,24,24,25,25,26,26,27,27,28,28,29,29,30,30],"right_children":[2,4,6,8,10,12,14,16,18,20,22,24,26,28,30,32,34,36,38,40,42,44,46,48,50,52,54,56,58,60,62,-1,-1,-1,-1,-1,-1,-1,-1,-1,-1,-1,-1,-1,-1,-1,-1,-1,-1,-1,-1,-1,-1,-1,-1,-1,-1,-1,-1,-1,-1,-1,-1],"split_conditions":[6.252E2,1.68E2,1.6725E4,-1.8366666E4,8.818182E-1,7.866E2,5.3958332E4,-2.5252526E0,4.75E1,-5.06E4,2.847E2,6.363636E-1,5.2666665E3,-1.3986014E0,1.1363636E0,7.121212E-1,2.097902E0,-5.0833335E3,8.818182E-1,7.939394E-1,1.6725E4,8.969697E-1,3.2008334E4,1.1515152E-1,-9.0909094E-1,8.965E2,1.2583E3,3.909091E-1,7.5151515E-1,-6.993007E-1,8.965E2,1.8459773E-2,-1.4178175E-1,1.3953489E-1,1.7981013E-2,-8.357689E-2,-1.4808695E-1,-1.3745578E-1,-3.0223439E-2,1.2951292E-1,-6.5023236E-2,-1.1032116E-1,-9.686891E-3,1.0357872E-1,-9.952181E-2,-1.2398397E-1,-5.843566E-2,-1.4482759E-1,8.980879E-2,-1.3609084E-1,-7.501695E-2,1.2408637E-1,1.3879697E-1,9.844708E-2,5.4424677E-2,-5.5247188E-2,-1.6540134E-2,1.6715044E-2,-2.0744141E-2,8.466613E-3,-1.3332221E-1,1.3068746E-1,-2.4768027E-2],"split_indices":[0,0,1,1,2,0,1,3,0,1,0,2,1,3,3,2,3,1,2,2,1,2,1,2,3,0,0,2,2,3,0,0,0,0,0,0,0,0,0,0,0,0,0,0,0,0,0,0,0,0,0,0,0,0,0,0,0,0,0,0,0,0,0],"split_type":[0,0,0,0,0,0,0,0,0,0,0,0,0,0,0,0,0,0,0,0,0,0,0,0,0,0,0,0,0,0,0,0,0,0,0,0,0,0,0,0,0,0,0,0,0,0,0,0,0,0,0,0,0,0,0,0,0,0,0,0,0,0,0],"sum_hessian":[4.567E4,3.0677E4,1.4993E4,2.4965E4,5.712E3,1.3865E4,1.128E3,2.47E2,2.4718E4,4.518E3,1.194E3,2.059E3,1.1806E4,5.94E2,5.34E2,2.3E1,2.24E2,1.9235E4,5.483E3,1.66E2,4.352E3,1.08E3,1.14E2,1.954E3,1.05E2,1.1713E4,9.3E1,9.9E1,4.95E2,4.81E2,5.3E1,3E0,2E1,2E2,2.4E1,3.32E2,1.8903E4,4.584E3,8.99E2,1.6E2,6E0,3.902E3,4.5E2,1.043E3,3.7E1,1.06E2,8E0,2.8E1,1.926E3,6.4E1,4.1E1,4.96E2,1.1217E4,2.7E1,6.6E1,4.5E1,5.4E1,3.82E2,1.13E2,2.1E1,4.6E2,1E1,4.3E1],"tree_param":{"num_deleted":"0","num_feature":"4","num_nodes":"63","size_leaf_vector":"1"}},{"base_weights":[-1.05333135E-1,-2.8775802E-1,2.679186E-1,-3.2263428E-1,-1.2860669E-1,3.0051053E-1,-1.1778208E-1,2.8798497E-1,-3.2803154E-1,-2.1154849E-1,1.8134294E-1,1.7909478E-1,3.2158333E-1,-2.7133834E-2,-3.2305747E-1,-9.886695E-2,3.250187E-1,-1.1796537E-1,-3.3192113E-1,2.0383415E-1,-2.3584218E-1,2.3180662E-1,-2.814281E-1,-2.8678504E-1,2.0342194E-1,3.2270423E-1,1.9008584E-1,-1.174513E-1,3.2457344E-2,-2.8259313E-1,-1.0845068E-1,1.012732E-1,3.7794784E-2,2.2735298E-2,-8.1066936E-2,-1.0339555E-1,-8.6027354E-2,1.0022215E-1,-2.0240514E-2,-5.2008353E-2,-1.0538643E-1,7.375098E-2,-9.922593E-2,-1.0397259E-1,-7.037901E-2,9.149717E-2,-9.4215386E-2,-3.9775345E-2,6.6050075E-2,9.68356E-2,-9.361296E-2,8.292565E-2,4.1642096E-2,-1.0935548E-2,-8.558235E-2,3.1016458E-2,2.0473413E-3,-8.824563E-2,5.354649E-2],"categories":[],"categories_nodes":[],"categories_segments":[],"categories_sizes":[],"default_left":[0,0,0,0,0,0,0,0,0,0,0,0,0,0,0,0,0,0,0,0,0,0,0,0,0,0,0,0,0,0,0,0,0,0,0,0,0,0,0,0,0,0,0,0,0,0,0,0,0,0,0,0,0,0,0,0,0,0,0],"id":1,"left_children":[1,3,5,7,9,11,13,15,17,19,21,23,25,27,29,-1,31,33,35,37,39,41,43,45,47,49,51,53,55,57,-1,-1,-1,-1,-1,-1,-1,-1,-1,-1,-1,-1,-1,-1,-1,-1,-1,-1,-1,-1,-1,-1,-1,-1,-1,-1,-1,-1,-1],"loss_changes":[3.1098342E3,1.7023975E2,1.8852087E2,8.302344E1,1.4184247E2,3.531714E1,2.1743816E1,5.161354E0,2.0341309E1,4.3964874E1,2.7271633E1,2.3258072E1,1.6750488E0,4.3740973E0,4.5476532E-1,0E0,4.7989082E-1,1.3442929E1,1.3981445E1,8.5381155E0,2.9599686E1,8.37653E0,2.6955223E-1,1.7416048E0,1.0978203E1,7.0166016E-1,4.1319084E-1,4.3803306E0,8.901935E-1,1.0065031E0,0E0,0E0,0E0,0E0,0E0,0E0,0E0,0E0,0E0,0E0,0E0,0E0,0E0,0E0,0E0,0E0,0E0,0E0,0E0,0E0,0E0,0E0,0E0,0E0,0E0,0E0,0E0,0E0,0E0],"parents":[2147483647,0,0,1,1,2,2,3,3,4,4,5,5,6,6,7,7,8,8,9,9,10,10,11,11,12,12,13,13,14,14,16,16,17,17,18,18,19,19,20,20,21,21,22,22,23,23,24,24,25,25,26,26,27,27,28,28,29,29],"right_children":[2,4,6,8,10,12,14,16,18,20,22,24,26,28,30,-1,32,34,36,38,40,42,44,46,48,50,52,54,56,58,-1,-1,-1,-1,-1,-1,-1,-1,-1,-1,-1,-1,-1,-1,-1,-1,-1,-1,-1,-1,-1,-1,-1,-1,-1,-1,-1,-1,-1],"split_conditions":[6.252E2,1.733E2,1.2983333E4,-2.1808334E4,8.818182E-1,7.866E2,6.745E4,-2.5252526E0,-9.166667E3,-4.1091668E4,2.847E2,-9.0909094E-1,1.6083334E3,8.23E2,8.6241664E4,-9.886695E-2,2.3310022E0,6.969697E-1,4.75E1,4.243E2,7.7575755E-1,9E-1,-3.4625E4,1.3636364E-1,-2.555E4,8.606061E-1,1.1065E3,5.3958332E4,3.2008334E4,1.1065E3,-1.0845068E-1,1.012732E-1,3.7794784E-2,2.2735298E-2,-8.1066936E-2,-1.0339555E-1,-8.6027354E-2,1.0022215E-1,-2.0240514E-2,-5.2008353E-2,-1.0538643E-1,7.375098E-2,-9.922593E-2,-1.0397259E-1,-7.037901E-2,9.149717E-2,-9.4215386E-2,-3.9775345E-2,6.6050075E-2,9.68356E-2,-9.361296E-2,8.292565E-2,4.1642096E-2,-1.0935548E-2,-8.558235E-2,3.1016458E-2,2.0473413E-3,-8.824563E-2,5.354649E-2],"split_indices":[0,0,1,1,2,0,1,3,1,1,0,3,1,0,1,0,3,2,0,0,2,2,1,2,1,2,0,1,1,0,0,0,0,0,0,0,0,0,0,0,0,0,0,0,0,0,0,0,0,0,0,0,0,0,0,0,0,0,0],"split_type":[0,0,0,0,0,0,0,0,0,0,0,0,0,0,0,0,0,0,0,0,0,0,0,0,0,0,0,0,0,0,0,0,0,0,0,0,0,0,0,0,0,0,0,0,0,0,0,0,0,0,0,0,0,0,0,0,0,0,0],"sum_hessian":[4.567E4,3.0677E4,1.4993E4,2.5162E4,5.515E3,1.3825E4,1.168E3,2.2E2,2.4942E4,4.351E3,1.164E3,2.046E3,1.1779E4,8.11E2,3.57E2,1.2E1,2.08E2,4.54E2,2.4488E4,2.4E2,4.111E3,1.05E3,1.14E2,1.01E2,1.945E3,1.1678E4,1.01E2,3.22E2,4.89E2,1.78E2,1.79E2,1.95E2,1.3E1,2E2,2.54E2,1.9098E4,5.39E3,1.62E2,7.8E1,2.669E3,1.442E3,1.025E3,2.5E1,4.5E1,6.9E1,4E0,9.7E1,9.2E1,1.853E3,1.1677E4,1E0,3.6E1,6.5E1,2.18E2,1.04E2,1.29E2,3.6E2,1.74E2,4E0],"tree_param":{"num_deleted":"0","num_feature":"4","num_nodes":"59","size_leaf_vector":"1"}},{"base_weights":[-7.374502E-2,-2.0144641E-1,1.8753931E-1,-2.2585224E-1,-9.0074934E-2,2.1217455E-1,-6.592392E-2,8.4675394E-2,-2.313694E-1,-1.4810172E-1,1.2676854E-1,9.880843E-2,2.2205128E-1,1.4170919E-2,-1.8482013E-1,2.4671017E-1,-1.0227525E-1,-2.4280387E-1,-1.9945337E-1,2.173674E-1,-1.6219331E-1,1.622404E-1,-1.9851577E-1,-2.6429805E-1,1.18963584E-1,2.2280586E-1,-2.8813785E-1,-1.0193626E-1,3.296468E-2,-2.0948914E-1,5.340116E-2,2.7101178E-2,8.232168E-2,8.2701385E-2,-5.2917298E-2,-4.9876474E-2,-7.42743E-2,-7.0980854E-2,1.9053583E-3,6.965221E-2,-4.3098267E-2,-5.4853775E-2,2.3998793E-2,-1.3860945E-1,5.151752E-2,-7.968335E-2,-4.8586283E-2,7.1574524E-2,-8.881972E-2,4.0593993E-2,-5.1222138E-2,-9.222498E-2,6.700133E-2,-2.5048515E-2,-8.846049E-2,-1.0050509E-1,-2.2662591E-2,1.3842956E-2,-2.8034369E-2,-1.538308E-4,-6.8024166E-2,7.885127E-2,-1.4955252E-2],"categories":[],"categories_nodes":[],"categories_segments":[],"categories_sizes":[],"default_left":[0,0,0,0,0,0,0,0,0,0,0,0,0,0,0,0,0,0,0,0,0,0,0,0,0,0,0,0,0,0,0,0,0,0,0,0,0,0,0,0,0,0,0,0,0,0,0,0,0,0,0,0,0,0,0,0,0,0,0,0,0,0,0],"id":2,"left_children":[1,3,5,7,9,11,13,15,17,19,21,23,25,27,29,31,33,35,37,39,41,43,45,47,49,51,53,55,57,59,61,-1,-1,-1,-1,-1,-1,-1,-1,-1,-1,-1,-1,-1,-1,-1,-1,-1,-1,-1,-1,-1,-1,-1,-1,-1,-1,-1,-1,-1,-1,-1,-1],"loss_changes":[1.5239135E3,8.336597E1,9.363843E1,4.312964E1,6.942511E1,1.5279663E1,1.2658649E1,1.3353935E1,8.974365E0,2.244825E1,1.3474489E1,8.059801E0,4.9033813E0,1.7381222E0,3.1552124E0,9.9728394E-1,5.7910414E0,6.6135254E0,4.990384E1,8.993416E-1,2.097731E1,6.3023224E0,2.3909092E-1,9.972038E-1,4.9491434E0,3.6087036E0,1.5493631E-3,6.575644E-1,1.1454732E0,1.7490482E0,1.1159637E0,0E0,0E0,0E0,0E0,0E0,0E0,0E0,0E0,0E0,0E0,0E0,0E0,0E0,0E0,0E0,0E0,0E0,0E0,0E0,0E0,0E0,0E0,0E0,0E0,0E0,0E0,0E0,0E0,0E0,0E0,0E0,0E0],"parents":[2147483647,0,0,1,1,2,2,3,3,4,4,5,5,6,6,7,7,8,8,9,9,10,10,11,11,12,12,13,13,14,14,15,15,16,16,17,17,18,18,19,19,20,20,21,21,22,22,23,23,24,24,25,25,26,26,27,27,28,28,29,29,30,30],"right_children":[2,4,6,8,10,12,14,16,18,20,22,24,26,28,30,32,34,36,38,40,42,44,46,48,50,52,54,56,58,60,62,-1,-1,-1,-1,-1,-1,-1,-1,-1,-1,-1,-1,-1,-1,-1,-1,-1,-1,-1,-1,-1,-1,-1,-1,-1,-1,-1,-1,-1,-1,-1,-1],"split_conditions":[6.252E2,1.733E2,3.9666667E3,-1.2366667E4,8.818182E-1,7.008E2,5.3958332E4,7.121212E-1,8.666667E-1,-5.06E4,2.847E2,-9.3240094E-1,8.606061E-1,-1.3986014E0,1.2626263E0,-1.8648019E0,4.3E1,-3.4333333E3,4.75E1,7.939394E-1,2.05E4,-5.0833335E3,-1.2626263E0,1.3636364E-1,5.509642E-1,1.1515152E-1,8.666667E-1,1.2983333E4,1.8648019E0,-4.6620047E-1,9.961E2,2.7101178E-2,8.232168E-2,8.2701385E-2,-5.2917298E-2,-4.9876474E-2,-7.42743E-2,-7.0980854E-2,1.9053583E-3,6.965221E-2,-4.3098267E-2,-5.4853775E-2,2.3998793E-2,-1.3860945E-1,5.151752E-2,-7.968335E-2,-4.8586283E-2,7.1574524E-2,-8.881972E-2,4.0593993E-2,-5.1222138E-2,-9.222498E-2,6.700133E-2,-2.5048515E-2,-8.846049E-2,-1.0050509E-1,-2.2662591E-2,1.3842956E-2,-2.8034369E-2,-1.538308E-4,-6.8024166E-2,7.885127E-2,-1.4955252E-2],"split_indices":[0,0,1,1,2,0,1,2,2,1,0,3,2,3,3,3,0,1,0,2,1,1,3,2,3,2,2,1,3,3,0,0,0,0,0,0,0,0,0,0,0,0,0,0,0,0,0,0,0,0,0,0,0,0,0,0,0,0,0,0,0,0,0],"split_type":[0,0,0,0,0,0,0,0,0,0,0,0,0,0,0,0,0,0,0,0,0,0,0,0,0,0,0,0,0,0,0,0,0,0,0,0,0,0,0,0,0,0,0,0,0,0,0,0,0,0,0,0,0,0,0,0,0,0,0,0,0,0,0],"sum_hessian":[4.567E4,3.0677E4,1.4993E4,2.5162E4,5.515E3,1.3665E4,1.328E3,4.39E2,2.4723E4,4.351E3,1.164E3,1.096E3,1.2569E4,7.94E2,5.34E2,2.35E2,2.04E2,1.8197E4,6.526E3,1.61E2,4.19E3,1.05E3,1.14E2,5.7E1,1.039E3,1.2551E4,1.8E1,1.1E2,6.84E2,4.84E2,5E1,3.6E1,1.99E2,3.3E1,1.71E2,1.071E3,1.7126E4,5.528E3,9.98E2,1.55E2,6E0,3.861E3,3.29E2,1.5E1,1.035E3,3.8E1,7.6E1,3E0,5.4E1,9.84E2,5.5E1,1.2E1,1.2539E4,1E0,1.7E1,1E1,1E2,6.2E2,6.4E1,3.7E1,4.47E2,1.6E1,3.4E1],"tree_param":{"num_deleted":"0","num_feature":"4","num_nodes":"63","size_leaf_vector":"1"}},{"base_weights":[-5.163426E-2,-1.4102142E-1,1.3125695E-1,-1.5809871E-1,-6.3092284E-2,1.4679E-1,-6.83986E-2,2.9306142E-2,-1.6260733E-1,-1.0466172E-1,8.618826E-2,8.159526E-2,1.5821159E-1,-2.1595044E-2,-1.6312201E-1,1.4045292E-1,-9.759525E-2,-1.709713E-1,-1.3876674E-1,-5.9370328E-2,-1.9429642E-1,1.1527891E-1,-1.4849739E-1,9.662742E-2,-1.8286732E-1,1.5985113E-1,1.1768074E-1,-8.008043E-3,-1.9052942E-1,-1.9404364E-1,-1.19938485E-1,-3.567467E-2,6.3614875E-2,6.054473E-2,-4.425191E-2,-5.1525224E-2,8.252554E-3,-4.931544E-2,9.249629E-3,1.1672351E-3,-5.5355124E-2,4.900404E-2,-6.0055066E-2,4.0026747E-2,-5.7708494E-2,-3.199857E-2,-5.5058256E-2,-7.989775E-2,3.0603461E-2,-3.8385764E-2,-1.2872331E-1,3.6441978E-2,4.8426285E-2,3.5666876E-2,-6.630194E-2,-2.3516517E-2,7.22497E-3,-8.6748786E-2,-4.5660824E-2,-5.6721874E-2,-9.871522E-2,1.38345E-1,-4.162784E-2],"categories":[],"categories_nodes":[],"categories_segments":[],"categories_sizes":[],"default_left":[0,0,0,0,0,0,0,0,0,0,0,0,0,0,0,0,0,0,0,0,0,0,0,0,0,0,0,0,0,0,0,0,0,0,0,0,0,0,0,0,0,0,0,0,0,0,0,0,0,0,0,0,0,0,0,0,0,0,0,0,0,0,0],"id":3,"left_children":[1,3,5,7,9,11,13,15,17,19,21,23,25,27,29,31,33,35,37,39,41,43,45,47,49,51,53,55,57,59,61,-1,-1,-1,-1,-1,-1,-1,-1,-1,-1,-1,-1,-1,-1,-1,-1,-1,-1,-1,-1,-1,-1,-1,-1,-1,-1,-1,-1,-1,-1,-1,-1],"loss_changes":[7.466537E2,4.0816895E1,4.6510315E1,2.126587E1,3.42386E1,1.03463745E1,4.797841E0,8.363679E0,4.8759766E0,1.7505985E1,8.223364E0,8.270698E0,7.6776123E-1,1.6648704E0,4.5476532E-1,5.8933096E0,4.16924E0,2.8181763E0,2.7755264E1,2.2706451E1,3.0814438E0,5.998085E0,1.7533636E-1,3.8671284E0,1.4594045E0,6.656494E-1,2.1624613E-1,1.5219222E0,1.6012394E-1,7.6699734E-2,1.7263596E0,0E0,0E0,0E0,0E0,0E0,0E0,0E0,0E0,0E0,0E0,0E0,0E0,0E0,0E0,0E0,0E0,0E0,0E0,0E0,0E0,0E0,0E0,0E0,0E0,0E0,0E0,0E0,0E0,0E0,0E0,0E0,0E0],"parents":[2147483647,0,0,1,1,2,2,3,3,4,4,5,5,6,6,7,7,8,8,9,9,10,10,11,11,12,12,13,13,14,14,15,15,16,16,17,17,18,18,19,19,20,20,21,21,22,22,23,23,24,24,25,25,26,26,27,27,28,28,29,29,30,30],"right_children":[2,4,6,8,10,12,14,16,18,20,22,24,26,28,30,32,34,36,38,40,42,44,46,48,50,52,54,56,58,60,62,-1,-1,-1,-1,-1,-1,-1,-1,-1,-1,-1,-1,-1,-1,-1,-1,-1,-1,-1,-1,-1,-1,-1,-1,-1,-1,-1,-1,-1,-1,-1,-1],"split_conditions":[6.252E2,1.733E2,2.05E4,-1.0041667E4,8.787879E-1,7.866E2,6.745E4,7.121212E-1,8.818182E-1,7.7575755E-1,3.014E2,6.424242E-1,1.08333336E2,8.484849E-1,6.69697E-1,-1.8648019E0,-2.9808334E4,5.2666665E3,5.16E1,2.3310022E0,-5.06E4,2.475E3,4.579E2,1.1515152E-1,5.509642E-1,-2E2,8.484849E-1,3.909091E-1,-6.993007E-1,1.3986014E0,7.969697E-1,-3.567467E-2,6.3614875E-2,6.054473E-2,-4.425191E-2,-5.1525224E-2,8.252554E-3,-4.931544E-2,9.249629E-3,1.1672351E-3,-5.5355124E-2,4.900404E-2,-6.0055066E-2,4.0026747E-2,-5.7708494E-2,-3.199857E-2,-5.5058256E-2,-7.989775E-2,3.0603461E-2,-3.8385764E-2,-1.2872331E-1,3.6441978E-2,4.8426285E-2,3.5666876E-2,-6.630194E-2,-2.3516517E-2,7.22497E-3,-8.6748786E-2,-4.5660824E-2,-5.6721874E-2,-9.871522E-2,1.38345E-1,-4.162784E-2],"split_indices":[0,0,1,1,2,0,1,2,2,2,0,2,1,2,2,3,1,1,0,3,1,1,0,2,3,1,2,2,3,3,2,0,0,0,0,0,0,0,0,0,0,0,0,0,0,0,0,0,0,0,0,0,0,0,0,0,0,0,0,0,0,0,0],"split_type":[0,0,0,0,0,0,0,0,0,0,0,0,0,0,0,0,0,0,0,0,0,0,0,0,0,0,0,0,0,0,0,0,0,0,0,0,0,0,0,0,0,0,0,0,0,0,0,0,0,0,0,0,0,0,0,0,0,0,0,0,0,0,0],"sum_hessian":[4.567E4,3.0677E4,1.4993E4,2.5162E4,5.515E3,1.3911E4,1.082E3,5.91E2,2.4571E4,4.314E3,1.201E3,2.075E3,1.1836E4,7.25E2,3.57E2,3.15E2,2.76E2,1.8185E4,6.386E3,2.867E3,1.447E3,1.069E3,1.32E2,1.964E3,1.11E2,1.1373E4,4.63E2,6.72E2,5.3E1,2.06E2,1.51E2,6.8E1,2.47E2,3.9E1,2.37E2,1.8114E4,7.1E1,5.548E3,8.38E2,1.905E3,9.62E2,2.3E1,1.424E3,1.01E3,5.9E1,6.2E1,7E1,2.8E1,1.936E3,9.2E1,1.9E1,4.5E2,1.0923E4,4.62E2,1E0,2.1E2,4.62E2,1.3E1,4E1,2.01E2,5E0,4E0,1.47E2],"tree_param":{"num_deleted":"0","num_feature":"4","num_nodes":"63","size_leaf_vector":"1"}},{"base_weights":[-3.615665E-2,-9.819134E-2,9.3052976E-2,-1.0975605E-1,-3.843497E-2,1.0507309E-1,-3.8160834E-2,5.3743865E-2,-1.1308792E-1,-6.52206E-2,6.7710325E-2,3.4187388E-2,1.08509585E-1,-7.3675076E-3,-1.1434943E-1,1.5706599E-1,-6.0716953E-2,-1.1992718E-1,-9.362961E-2,-2.9058566E-2,-1.3996463E-1,9.6374534E-2,-1.0514327E-1,-1.9318499E-1,4.6698447E-2,-3.461251E-2,1.0966029E-1,-5.0681077E-2,2.0427642E-2,-1.3658145E-1,-8.332064E-2,3.6172416E-2,1.001184E-1,5.7506748E-2,-2.8998243E-2,-2.060299E-2,-3.7015535E-2,-3.503643E-2,4.6237223E-3,5.9521506E-3,-3.506533E-2,-4.9236715E-2,-2.4580868E-2,3.3348285E-2,-4.573042E-2,-2.7543485E-2,-5.3657025E-2,-3.5030924E-2,-1.1519537E-1,1.7154956E-2,-4.026842E-2,-5.2100208E-2,5.0007034E-2,3.2943923E-2,-4.474294E-2,-2.548764E-2,1.7295677E-2,4.3486194E-3,3.339271E-2,-4.1933797E-2,-1.1868601E-2,2.1275314E-2,-4.285691E-2],"categories":[],"categories_nodes":[],"categories_segments":[],"categories_sizes":[],"default_left":[0,0,0,0,0,0,0,0,0,0,0,0,0,0,0,0,0,0,0,0,0,0,0,0,0,0,0,0,0,0,0,0,0,0,0,0,0,0,0,0,0,0,0,0,0,0,0,0,0,0,0,0,0,0,0,0,0,0,0,0,0,0,0],"id":4,"left_children":[1,3,5,7,9,11,13,15,17,19,21,23,25,27,29,31,33,35,37,39,41,43,45,47,49,51,53,55,57,59,61,-1,-1,-1,-1,-1,-1,-1,-1,-1,-1,-1,-1,-1,-1,-1,-1,-1,-1,-1,-1,-1,-1,-1,-1,-1,-1,-1,-1,-1,-1,-1,-1],"loss_changes":[3.6608414E2,2.1319946E1,2.3370285E1,1.4089813E1,1.4234474E1,3.302414E0,2.9177065E0,6.1237516E0,3.3606262E0,1.079941E1,5.009437E0,1.7983181E0,2.135559E0,1.0689011E0,2.3558044E-1,1.7132416E0,2.2503512E0,3.3133545E0,1.6653282E1,1.1576273E1,1.8131466E0,3.2029543E0,1.2509108E-1,4.3630207E-1,1.1401649E0,2.9401274E0,5.241089E-1,1.2934548E0,2.900563E-1,5.8692932E-2,1.4059001E0,0E0,0E0,0E0,0E0,0E0,0E0,0E0,0E0,0E0,0E0,0E0,0E0,0E0,0E0,0E0,0E0,0E0,0E0,0E0,0E0,0E0,0E0,0E0,0E0,0E0,0E0,0E0,0E0,0E0,0E0,0E0,0E0],"parents":[2147483647,0,0,1,1,2,2,3,3,4,4,5,5,6,6,7,7,8,8,9,9,10,10,11,11,12,12,13,13,14,14,15,15,16,16,17,17,18,18,19,19,20,20,21,21,22,22,23,23,24,24,25,25,26,26,27,27,28,28,29,29,30,30],"right_children":[2,4,6,8,10,12,14,16,18,20,22,24,26,28,30,32,34,36,38,40,42,44,46,48,50,52,54,56,58,60,62,-1,-1,-1,-1,-1,-1,-1,-1,-1,-1,-1,-1,-1,-1,-1,-1,-1,-1,-1,-1,-1,-1,-1,-1,-1,-1,-1,-1,-1,-1,-1,-1],"split_conditions":[6.427E2,1.927E2,6.525E3,-1.2366667E4,8.787879E-1,6.845E2,6.745E4,7.121212E-1,8.818182E-1,7.848485E-1,3.014E2,-9.3240094E-1,-3.4625E4,8.23E2,6.69697E-1,1.68E2,3.22E1,-3.8E3,4.3E1,2.2727273E0,8.363636E-1,2.475E3,8.969697E-1,4.1666666E2,5.509642E-1,7.866E2,8.606061E-1,8.264463E-1,1.4271E3,1.1363636E0,9E-1,3.6172416E-2,1.001184E-1,5.7506748E-2,-2.8998243E-2,-2.060299E-2,-3.7015535E-2,-3.503643E-2,4.6237223E-3,5.9521506E-3,-3.506533E-2,-4.9236715E-2,-2.4580868E-2,3.3348285E-2,-4.573042E-2,-2.7543485E-2,-5.3657025E-2,-3.5030924E-2,-1.1519537E-1,1.7154956E-2,-4.026842E-2,-5.2100208E-2,5.0007034E-2,3.2943923E-2,-4.474294E-2,-2.548764E-2,1.7295677E-2,4.3486194E-3,3.339271E-2,-4.1933797E-2,-1.1868601E-2,2.1275314E-2,-4.285691E-2],"split_indices":[0,0,1,1,2,0,1,2,2,2,0,3,1,0,2,0,0,1,0,3,2,1,2,1,3,0,2,3,0,3,2,0,0,0,0,0,0,0,0,0,0,0,0,0,0,0,0,0,0,0,0,0,0,0,0,0,0,0,0,0,0,0,0],"split_type":[0,0,0,0,0,0,0,0,0,0,0,0,0,0,0,0,0,0,0,0,0,0,0,0,0,0,0,0,0,0,0,0,0,0,0,0,0,0,0,0,0,0,0,0,0,0,0,0,0,0,0,0,0,0,0,0,0,0,0,0,0,0,0],"sum_hessian":[4.567E4,3.0856E4,1.4814E4,2.5852E4,5.004E3,1.3571E4,1.243E3,5.16E2,2.5336E4,3.996E3,1.008E3,6.28E2,1.2943E4,8.86E2,3.57E2,2.71E2,2.45E2,1.8743E4,6.593E3,2.694E3,1.302E3,8.65E2,1.43E2,3.2E1,5.96E2,1.03E2,1.284E4,3.46E2,5.4E2,2.06E2,1.51E2,2.26E2,4.5E1,3E1,2.15E2,1.186E3,1.7557E4,5.438E3,1.155E3,1.731E3,9.63E2,9.18E2,3.84E2,8.17E2,4.8E1,1.23E2,2E1,2.4E1,8E0,5.64E2,3.2E1,6.1E1,4.2E1,1.2833E4,7E0,2.63E2,8.3E1,5.08E2,3.2E1,1.99E2,7E0,4.2E1,1.09E2],"tree_param":{"num_deleted":"0","num_feature":"4","num_nodes":"63","size_leaf_vector":"1"}},{"base_weights":[-2.5317375E-2,-6.837734E-2,6.595735E-2,-7.682627E-2,-2.6196143E-2,7.338149E-2,-3.6258362E-2,2.3610976E-2,-7.954442E-2,-1.069917E-1,-3.728753E-3,4.4897307E-2,7.877701E-2,-1.1396762E-2,-8.025517E-2,5.857018E-2,-1.734759E-1,-8.6448155E-2,-6.75557E-2,-2.6903784E-1,-7.891826E-2,1.6899703E-2,-1.0907117E-1,-1.1423313E-1,5.0006825E-2,2.9566633E-2,7.956312E-2,-3.5005796E-3,-1.3535783E-1,-7.6336235E-2,-6.712236E-2,-2.8141495E-2,3.2043133E-2,-1.0808548E-1,-4.6185646E-2,-1.3406326E-2,-2.659685E-2,-2.3290703E-2,-1.6824012E-3,-2.9407075E-2,-8.381159E-2,-4.6083882E-2,-8.050486E-3,-8.980699E-2,6.776857E-3,-1.7864812E-2,-4.7346484E-2,-9.520672E-2,-1.20908795E-2,2.8296374E-2,1.055552E-2,3.17596E-2,-2.0711256E-2,2.4033533E-2,1.3086851E-2,5.0301652E-2,-2.3673438E-3,-4.358861E-2,3.4849625E-2,-2.4544356E-2,9.5408596E-2],"categories":[],"categories_nodes":[],"categories_segments":[],"categories_sizes":[],"default_left":[0,0,0,0,0,0,0,0,0,0,0,0,0,0,0,0,0,0,0,0,0,0,0,0,0,0,0,0,0,0,0,0,0,0,0,0,0,0,0,0,0,0,0,0,0,0,0,0,0,0,0,0,0,0,0,0,0,0,0,0,0],"id":5,"left_children":[1,3,5,7,9,11,13,15,17,19,21,23,25,27,29,31,33,35,37,39,41,43,45,47,49,51,53,55,57,59,-1,-1,-1,-1,-1,-1,-1,-1,-1,-1,-1,-1,-1,-1,-1,-1,-1,-1,-1,-1,-1,-1,-1,-1,-1,-1,-1,-1,-1,-1,-1],"loss_changes":[1.7950462E2,1.1057358E1,1.1112423E1,7.059845E0,9.402675E0,2.094139E0,1.0841662E0,4.709141E0,2.0775757E0,5.105709E0,8.811394E0,1.7749739E0,4.415207E-1,6.210763E-1,1.8422842E-1,4.273377E0,3.201964E-1,1.4685898E0,5.746208E0,2.6598358E-1,3.7383914E0,6.1086683E0,1.593637E0,1.0083585E0,1.3819094E0,1.3765616E0,2.191925E-1,4.5074725E-1,1.1186004E-1,7.8217506E-1,0E0,0E0,0E0,0E0,0E0,0E0,0E0,0E0,0E0,0E0,0E0,0E0,0E0,0E0,0E0,0E0,0E0,0E0,0E0,0E0,0E0,0E0,0E0,0E0,0E0,0E0,0E0,0E0,0E0,0E0,0E0],"parents":[2147483647,0,0,1,1,2,2,3,3,4,4,5,5,6,6,7,7,8,8,9,9,10,10,11,11,12,12,13,13,14,14,15,15,16,16,17,17,18,18,19,19,20,20,21,21,22,22,23,23,24,24,25,25,26,26,27,27,28,28,29,29],"right_children":[2,4,6,8,10,12,14,16,18,20,22,24,26,28,30,32,34,36,38,40,42,44,46,48,50,52,54,56,58,60,-1,-1,-1,-1,-1,-1,-1,-1,-1,-1,-1,-1,-1,-1,-1,-1,-1,-1,-1,-1,-1,-1,-1,-1,-1,-1,-1,-1,-1,-1,-1],"split_conditions":[6.558E2,1.927E2,2.5233334E4,-1.0041667E4,-1.8648019E0,8.609E2,6.745E4,2.5641026E0,7.7575755E-1,4.090909E-1,2.7777777E0,-1.2121212E0,-3.9166666E2,8.969697E-1,1.3986014E0,-1.8648019E0,3.121212E-1,-3.8E3,5.5E1,-3.2634032E0,-2.7777777E0,1.1515152E-1,-4.2333335E3,3.3636364E-1,2.7878788E-1,1.2347E3,8.833333E2,6.674E2,5.509642E-1,1.2626263E0,-6.712236E-2,-2.8141495E-2,3.2043133E-2,-1.0808548E-1,-4.6185646E-2,-1.3406326E-2,-2.659685E-2,-2.3290703E-2,-1.6824012E-3,-2.9407075E-2,-8.381159E-2,-4.6083882E-2,-8.050486E-3,-8.980699E-2,6.776857E-3,-1.7864812E-2,-4.7346484E-2,-9.520672E-2,-1.20908795E-2,2.8296374E-2,1.055552E-2,3.17596E-2,-2.0711256E-2,2.4033533E-2,1.3086851E-2,5.0301652E-2,-2.3673438E-3,-4.358861E-2,3.4849625E-2,-2.4544356E-2,9.5408596E-2],"split_indices":[0,0,1,1,3,0,1,3,2,2,3,3,1,2,3,3,2,1,0,3,3,2,1,2,2,0,1,0,3,3,0,0,0,0,0,0,0,0,0,0,0,0,0,0,0,0,0,0,0,0,0,0,0,0,0,0,0,0,0,0,0],"split_type":[0,0,0,0,0,0,0,0,0,0,0,0,0,0,0,0,0,0,0,0,0,0,0,0,0,0,0,0,0,0,0,0,0,0,0,0,0,0,0,0,0,0,0,0,0,0,0,0,0,0,0,0,0,0,0,0,0,0,0,0,0],"sum_hessian":[4.567E4,3.1031E4,1.4639E4,2.5852E4,5.179E3,1.3648E4,9.91E2,6.81E2,2.5171E4,1.126E3,4.053E3,2.175E3,1.1473E4,6.34E2,3.57E2,5.79E2,1.02E2,1.5969E4,9.202E3,1.65E2,9.61E2,3.39E3,6.63E2,6.7E1,2.108E3,1.81E2,1.1292E4,5.97E2,3.7E1,3.49E2,8E0,1.39E2,4.4E2,8E0,9.4E1,8.03E2,1.5166E4,7.914E3,1.288E3,1E1,1.55E2,3.94E2,5.67E2,5.9E1,3.331E3,3.3E2,3.33E2,1.7E1,5E1,5.27E2,1.581E3,1.02E2,7.9E1,1.1121E4,1.71E2,1.4E1,5.83E2,3.6E1,1E0,3.45E2,4E0],"tree_param":{"num_deleted":"0","num_feature":"4","num_nodes":"61","size_leaf_vector":"1"}},{"base_weights":[-1.7733295E-2,-4.737877E-2,4.7431532E-2,1.00618325E-1,-4.8848506E-2,5.275541E-2,-2.6250852E-2,5.868886E-2,1.3500552E-1,-5.0931852E-2,4.04751E-2,5.3214505E-2,-1.1811608E-1,-1.4549474E-2,-7.707102E-2,4.2837955E-2,2.1146409E-1,1.6570973E-1,-1.4927395E-1,-7.786695E-2,-4.708554E-2,-2.2551693E-1,6.631285E-2,-4.9261387E-2,5.3505477E-2,-4.5381952E-2,-1.4067997E-1,-5.422119E-3,-9.157181E-2,-7.236559E-2,-5.0757628E-2,1.1135317E-2,2.0276085E-2,3.7213147E-3,6.8105616E-2,6.4663075E-2,5.862165E-3,-8.0257714E-2,5.1599964E-3,-3.768244E-2,-1.94291E-2,-1.5824815E-2,-4.3015564E-3,-8.262289E-2,-2.564539E-2,3.6504988E-2,-2.7305117E-2,1.6441928E-2,1.1125302E-2,-4.421855E-2,-4.3627585E-4,-3.327738E-2,-8.521266E-2,-4.1617635E-3,9.493942E-2,-2.9279947E-2,6.5955273E-3,-7.932141E-3,-2.250626E-2],"categories":[],"categories_nodes":[],"categories_segments":[],"categories_sizes":[],"default_left":[0,0,0,0,0,0,0,0,0,0,0,0,0,0,0,0,0,0,0,0,0,0,0,0,0,0,0,0,0,0,0,0,0,0,0,0,0,0,0,0,0,0,0,0,0,0,0,0,0,0,0,0,0,0,0,0,0,0,0],"id":6,"left_children":[1,3,5,7,9,11,13,15,17,19,21,23,25,27,29,31,33,35,37,39,41,43,45,-1,47,49,51,53,55,57,-1,-1,-1,-1,-1,-1,-1,-1,-1,-1,-1,-1,-1,-1,-1,-1,-1,-1,-1,-1,-1,-1,-1,-1,-1,-1,-1,-1,-1],"loss_changes":[8.823143E1,6.8329697E0,5.6034775E0,4.376042E-1,5.786354E0,1.0511093E0,5.715421E-1,3.323905E-1,1.4998662E0,3.1432037E0,4.8876524E0,8.491707E-1,5.269766E-2,5.5066353E-1,6.578088E-2,1.575385E-2,3.743583E-2,1.1102657E0,3.3926064E-1,2.365263E0,4.929512E0,4.1661215E-1,5.6473684E0,0E0,2.8139114E-1,4.4597708E-2,8.3669186E-2,1.9138868E0,5.8961093E-2,1.9112706E-2,0E0,0E0,0E0,0E0,0E0,0E0,0E0,0E0,0E0,0E0,0E0,0E0,0E0,0E0,0E0,0E0,0E0,0E0,0E0,0E0,0E0,0E0,0E0,0E0,0E0,0E0,0E0,0E0,0E0],"parents":[2147483647,0,0,1,1,2,2,3,3,4,4,5,5,6,6,7,7,8,8,9,9,10,10,11,11,12,12,13,13,14,14,15,15,16,16,17,17,18,18,19,19,20,20,21,21,22,22,24,24,25,25,26,26,27,27,28,28,29,29],"right_children":[2,4,6,8,10,12,14,16,18,20,22,24,26,28,30,32,34,36,38,40,42,44,46,-1,48,50,52,54,56,58,-1,-1,-1,-1,-1,-1,-1,-1,-1,-1,-1,-1,-1,-1,-1,-1,-1,-1,-1,-1,-1,-1,-1,-1,-1,-1,-1,-1,-1],"split_conditions":[6.739E2,-5.06E4,2.5233334E4,1.876E2,1.2983333E4,8.666667E-1,8.6241664E4,8.030303E-1,7.939394E-1,-1.1019284E0,-2.3310022E0,1.1515152E-1,8.818182E-1,9E-1,1.1363636E0,1.733E2,2.73E1,4.6620047E-1,8.181818E-1,3.4242424E-1,1.733E2,5.6969696E-1,7.7575755E-1,-4.9261387E-2,2.1666667E2,6.942E2,7.866E2,8.787879E-1,6.734007E-1,8.965E2,-5.0757628E-2,1.1135317E-2,2.0276085E-2,3.7213147E-3,6.8105616E-2,6.4663075E-2,5.862165E-3,-8.0257714E-2,5.1599964E-3,-3.768244E-2,-1.94291E-2,-1.5824815E-2,-4.3015564E-3,-8.262289E-2,-2.564539E-2,3.6504988E-2,-2.7305117E-2,1.6441928E-2,1.1125302E-2,-4.421855E-2,-4.3627585E-4,-3.327738E-2,-8.521266E-2,-4.1617635E-3,9.493942E-2,-2.9279947E-2,6.5955273E-3,-7.932141E-3,-2.250626E-2],"split_indices":[0,1,1,0,1,2,1,2,2,3,3,2,2,2,3,0,0,3,2,2,0,2,2,0,1,0,0,2,3,0,0,0,0,0,0,0,0,0,0,0,0,0,0,0,0,0,0,0,0,0,0,0,0,0,0,0,0,0,0],"split_type":[0,0,0,0,0,0,0,0,0,0,0,0,0,0,0,0,0,0,0,0,0,0,0,0,0,0,0,0,0,0,0,0,0,0,0,0,0,0,0,0,0,0,0,0,0,0,0,0,0,0,0,0,0,0,0,0,0,0,0],"sum_hessian":[4.567E4,3.139E4,1.428E4,3.08E2,3.1082E4,1.3318E4,9.62E2,1.4E2,1.68E2,3.0374E4,7.08E2,1.3283E4,3.5E1,7.83E2,1.79E2,1.28E2,1.2E1,1.52E2,1.6E1,3.793E3,2.6581E4,6.2E1,6.46E2,1.7E1,1.3266E4,9E0,2.6E1,7.01E2,8.2E1,1.72E2,7E0,1.06E2,2.2E1,1E0,1.1E1,1.13E2,3.9E1,9E0,7E0,8.15E2,2.978E3,2.2661E4,3.92E3,4.5E1,1.7E1,4.78E2,1.68E2,1.229E4,9.76E2,2E0,7E0,2.3E1,3E0,6.84E2,1.7E1,7.8E1,4E0,1E1,1.62E2],"tree_param":{"num_deleted":"0","num_feature":"4","num_nodes":"59","size_leaf_vector":"1"}},{"base_weights":[-1.2419343E-2,-3.316761E-2,3.31882E-2,-2.9627044E-2,-7.444848E-2,3.6914896E-2,-1.8389197E-2,-3.917513E-2,-1.0903269E-2,-5.6644257E-2,-1.0003012E-1,-3.5551157E-2,3.7537657E-2,-2.823128E-2,2.0023322E-2,5.3966537E-2,-4.0771093E-2,-4.9805686E-2,1.2139343E-2,1.0420661E-1,-6.111962E-2,-9.373147E-2,-2.127068E-1,1.129929E-2,-3.0353895E-1,3.7711244E-2,-8.49244E-2,-6.692891E-2,-1.3996504E-2,1.6240679E-1,-2.575373E-3,-2.6312286E-2,8.372402E-2,-5.8035366E-3,-1.2442977E-2,-2.8380483E-2,-1.1370922E-2,1.3367241E-3,2.7469842E-2,-3.222351E-2,1.1064556E-1,-2.5387798E-2,-1.4243593E-2,-3.6875326E-2,-2.6034474E-2,-4.7756046E-2,-7.137992E-2,5.1908374E-2,-8.936307E-3,-2.145595E-2,-1.5054947E-1,1.1358238E-2,-2.2143532E-2,-1.0869856E-2,-3.7537057E-2,5.741573E-3,-3.2292087E-2,3.5228508E-3,-1.1300274E-2,1.6792038E-2,1.22456774E-1,1.0630346E-2,-1.1648474E-2],"categories":[],"categories_nodes":[],"categories_segments":[],"categories_sizes":[],"default_left":[0,0,0,0,0,0,0,0,0,0,0,0,0,0,0,0,0,0,0,0,0,0,0,0,0,0,0,0,0,0,0,0,0,0,0,0,0,0,0,0,0,0,0,0,0,0,0,0,0,0,0,0,0,0,0,0,0,0,0,0,0,0,0],"id":7,"left_children":[1,3,5,7,9,11,13,15,17,19,21,23,25,27,29,31,33,35,37,39,41,43,45,47,49,51,53,55,57,59,61,-1,-1,-1,-1,-1,-1,-1,-1,-1,-1,-1,-1,-1,-1,-1,-1,-1,-1,-1,-1,-1,-1,-1,-1,-1,-1,-1,-1,-1,-1,-1,-1],"loss_changes":[4.321854E1,4.5858345E0,2.745676E0,5.1685314E0,1.1234226E0,6.0241127E-1,3.6463627E-1,2.8485603E0,8.754977E0,1.0602522E0,7.0112896E-1,1.4347394E0,2.8393173E-1,4.2156678E-1,6.3430125E-1,1.0325841E1,2.837696E-1,1.9334879E0,3.7430701E0,2.2794843E0,4.5290804E-1,1.8487263E-1,3.3679962E-2,6.563583E-1,7.462394E-1,2.2274399E-1,3.2656193E-2,7.238688E-1,3.4285653E-1,6.834572E-1,2.3700814E-1,0E0,0E0,0E0,0E0,0E0,0E0,0E0,0E0,0E0,0E0,0E0,0E0,0E0,0E0,0E0,0E0,0E0,0E0,0E0,0E0,0E0,0E0,0E0,0E0,0E0,0E0,0E0,0E0,0E0,0E0,0E0,0E0],"parents":[2147483647,0,0,1,1,2,2,3,3,4,4,5,5,6,6,7,7,8,8,9,9,10,10,11,11,12,12,13,13,14,14,15,15,16,16,17,17,18,18,19,19,20,20,21,21,22,22,23,23,24,24,25,25,26,26,27,27,28,28,29,29,30,30],"right_children":[2,4,6,8,10,12,14,16,18,20,22,24,26,28,30,32,34,36,38,40,42,44,46,48,50,52,54,56,58,60,62,-1,-1,-1,-1,-1,-1,-1,-1,-1,-1,-1,-1,-1,-1,-1,-1,-1,-1,-1,-1,-1,-1,-1,-1,-1,-1,-1,-1,-1,-1,-1,-1],"split_conditions":[6.739E2,2.5641026E0,2.5233334E4,4.75E1,6.454545E-1,-3.4625E4,9.3240094E-1,-4.6416665E3,-1.1019284E0,-1.4166667E4,1.2983333E4,7.5757575E-1,8.666667E-1,8.455E2,4.212121E-1,2.5252524E-1,-1.5916666E3,3.4545454E-1,8.25E3,5.6969696E-1,4.3939394E-1,-7.65E3,3.995E2,2.7878788E-1,1.1515152E-1,1.7676767E0,8.818182E-1,-4.6620047E-1,6.745E4,3.7575758E-1,1.6317016E0,-2.6312286E-2,8.372402E-2,-5.8035366E-3,-1.2442977E-2,-2.8380483E-2,-1.1370922E-2,1.3367241E-3,2.7469842E-2,-3.222351E-2,1.1064556E-1,-2.5387798E-2,-1.4243593E-2,-3.6875326E-2,-2.6034474E-2,-4.7756046E-2,-7.137992E-2,5.1908374E-2,-8.936307E-3,-2.145595E-2,-1.5054947E-1,1.1358238E-2,-2.2143532E-2,-1.0869856E-2,-3.7537057E-2,5.741573E-3,-3.2292087E-2,3.5228508E-3,-1.1300274E-2,1.6792038E-2,1.22456774E-1,1.0630346E-2,-1.1648474E-2],"split_indices":[0,3,1,0,2,1,3,1,3,1,1,3,2,0,2,3,1,2,1,2,2,1,0,2,2,3,2,3,1,2,3,0,0,0,0,0,0,0,0,0,0,0,0,0,0,0,0,0,0,0,0,0,0,0,0,0,0,0,0,0,0,0,0],"split_type":[0,0,0,0,0,0,0,0,0,0,0,0,0,0,0,0,0,0,0,0,0,0,0,0,0,0,0,0,0,0,0,0,0,0,0,0,0,0,0,0,0,0,0,0,0,0,0,0,0,0,0,0,0,0,0,0,0,0,0,0,0,0,0],"sum_hessian":[4.567E4,3.139E4,1.428E4,2.8912E4,2.478E3,1.3318E4,9.62E2,1.9147E4,9.765E3,1.463E3,1.015E3,1.13E2,1.3205E4,7.66E2,1.96E2,3.22E2,1.8825E4,3.632E3,6.133E3,3.9E1,1.424E3,9.63E2,5.2E1,9.7E1,1.6E1,1.3187E4,1.8E1,2.05E2,5.61E2,2.6E1,1.7E2,1.98E2,1.24E2,6.01E2,1.8224E4,7.61E2,2.871E3,5.593E3,5.4E2,2.2E1,1.7E1,5.21E2,9.03E2,1.82E2,7.81E2,1.9E1,3.3E1,1.9E1,7.8E1,8E0,8E0,1.317E4,1.7E1,9E0,9E0,6.6E1,1.39E2,2.69E2,2.92E2,1.9E1,7E0,8.3E1,8.7E1],"tree_param":{"num_deleted":"0","num_feature":"4","num_nodes":"63","size_leaf_vector":"1"}},{"base_weights":[-8.697913E-3,-2.3220994E-2,2.3225814E-2,5.9810743E-2,-2.4430525E-2,2.599785E-2,-1.0749308E-2,1.0554848E-1,-2.0873874E-2,-2.1804515E-2,-5.045692E-2,-1.2361741E-1,2.6200099E-2,-3.7738085E-2,-9.092107E-4,8.598474E-2,3.1716692E-1,8.054553E-2,-1.4531025E-1,-2.3334572E-2,4.9471937E-2,-1.669523E-1,-4.5201614E-2,-4.3534297E-2,-6.910593E-2,2.638737E-2,-6.9608904E-2,-1.1941858E-2,-8.3955176E-2,3.3341873E-2,-1.6706003E-2,2.9543824E-2,-5.5695396E-2,-1.3206477E-2,1.05600975E-1,3.4769103E-2,-4.855293E-2,-2.479507E-2,-7.190739E-2,1.8530568E-3,-7.5881793E-3,-7.1163154E-3,7.887199E-2,-5.5528574E-2,-3.753957E-2,4.8062563E-2,-1.4081946E-2,-2.8872894E-2,-1.1700756E-2,3.6503298E-3,8.166044E-3,-1.2752076E-2,-4.585931E-2,-8.680821E-3,1.1093893E-1,-4.8491266E-2,-1.7095413E-2,4.677631E-3,5.0420914E-2,-3.867264E-3,-3.0670393E-2],"categories":[],"categories_nodes":[],"categories_segments":[],"categories_sizes":[],"default_left":[0,0,0,0,0,0,0,0,0,0,0,0,0,0,0,0,0,0,0,0,0,0,0,0,0,0,0,0,0,0,0,0,0,0,0,0,0,0,0,0,0,0,0,0,0,0,0,0,0,0,0,0,0,0,0,0,0,0,0,0,0],"id":8,"left_children":[1,3,5,7,9,11,13,15,17,19,21,23,25,27,29,31,33,35,37,39,41,43,45,-1,47,49,51,53,55,57,59,-1,-1,-1,-1,-1,-1,-1,-1,-1,-1,-1,-1,-1,-1,-1,-1,-1,-1,-1,-1,-1,-1,-1,-1,-1,-1,-1,-1,-1,-1],"loss_changes":[2.1175026E1,3.1540413E0,1.3452673E0,1.6665429E0,2.1135807E0,4.0278816E-1,2.8625256E-1,1.1650622E0,2.081427E0,3.0664206E0,1.7280931E0,1.1064649E-2,2.3843956E-1,3.423587E-1,4.285333E-1,9.176942E-1,3.1747484E-1,7.9851747E-1,4.178195E-1,1.5912828E0,9.238791E0,6.9405556E-2,9.7653675E-1,0E0,1.9647032E-3,1.5552998E-1,5.216831E-2,1.2173462E0,2.065875E-1,5.952264E-1,1.75538E-1,0E0,0E0,0E0,0E0,0E0,0E0,0E0,0E0,0E0,0E0,0E0,0E0,0E0,0E0,0E0,0E0,0E0,0E0,0E0,0E0,0E0,0E0,0E0,0E0,0E0,0E0,0E0,0E0,0E0,0E0],"parents":[2147483647,0,0,1,1,2,2,3,3,4,4,5,5,6,6,7,7,8,8,9,9,10,10,11,11,12,12,13,13,14,14,15,15,16,16,17,17,18,18,19,19,20,20,21,21,22,22,24,24,25,25,26,26,27,27,28,28,29,29,30,30],"right_children":[2,4,6,8,10,12,14,16,18,20,22,24,26,28,30,32,34,36,38,40,42,44,46,-1,48,50,52,54,56,58,60,-1,-1,-1,-1,-1,-1,-1,-1,-1,-1,-1,-1,-1,-1,-1,-1,-1,-1,-1,-1,-1,-1,-1,-1,-1,-1,-1,-1,-1,-1],"split_conditions":[6.739E2,-4.1091668E4,1.2983333E4,3.747E2,2.3310022E0,1.1515152E-1,3.7878788E-1,1.6317016E0,-5.06E4,1.2983333E4,1.9393939E-1,7.319E2,8.666667E-1,2.9090908E-1,5.6969696E-1,8.363636E-1,1.335E2,5.509642E-1,-2.3310024E-1,-7.65E3,8.6580086E-1,2.7777777E0,-2.555E4,-4.3534297E-2,5.509642E-1,-3.75E2,-9.0909094E-1,2.7878788E-1,6.745E4,5.3636366E-1,2.2727273E0,2.9543824E-2,-5.5695396E-2,-1.3206477E-2,1.05600975E-1,3.4769103E-2,-4.855293E-2,-2.479507E-2,-7.190739E-2,1.8530568E-3,-7.5881793E-3,-7.1163154E-3,7.887199E-2,-5.5528574E-2,-3.753957E-2,4.8062563E-2,-1.4081946E-2,-2.8872894E-2,-1.1700756E-2,3.6503298E-3,8.166044E-3,-1.2752076E-2,-4.585931E-2,-8.680821E-3,1.1093893E-1,-4.8491266E-2,-1.7095413E-2,4.677631E-3,5.0420914E-2,-3.867264E-3,-3.0670393E-2],"split_indices":[0,1,1,0,3,2,2,3,1,1,2,0,2,2,2,2,0,3,3,1,3,3,1,0,3,1,3,2,1,2,3,0,0,0,0,0,0,0,0,0,0,0,0,0,0,0,0,0,0,0,0,0,0,0,0,0,0,0,0,0,0],"split_type":[0,0,0,0,0,0,0,0,0,0,0,0,0,0,0,0,0,0,0,0,0,0,0,0,0,0,0,0,0,0,0,0,0,0,0,0,0,0,0,0,0,0,0,0,0,0,0,0,0,0,0,0,0,0,0,0,0,0,0,0,0],"sum_hessian":[4.567E4,3.139E4,1.428E4,4.5E2,3.094E4,1.3203E4,1.077E3,2.87E2,1.63E2,2.8106E4,2.834E3,1.7E1,1.3186E4,2.87E2,7.9E2,2.64E2,2.3E1,9E1,7.3E1,2.7516E4,5.9E2,1.21E2,2.713E3,1.1E1,6E0,1.3161E4,2.5E1,1.85E2,1.02E2,2.49E2,5.41E2,2.53E2,1.1E1,2E0,2.1E1,7.9E1,1.1E1,4.5E1,2.8E1,1.713E3,2.5803E4,4.4E2,1.5E2,8.2E1,3.9E1,2.2E1,2.691E3,2E0,4E0,7.29E2,1.2432E4,2E1,5E0,1.78E2,7E0,2.5E1,7.7E1,2.21E2,2.8E1,5.19E2,2.2E1],"tree_param":{"num_deleted":"0","num_feature":"4","num_nodes":"61","size_leaf_vector":"1"}},{"base_weights":[-6.09096E-3,-1.6449712E-2,1.5866615E-2,3.043776E-2,-1.7588198E-2,1.8930042E-2,-2.7241672E-3,9.961876E-2,-9.436161E-2,-2.2038663E-2,-4.2544403E-3,-2.5705105E-2,1.9518567E-2,-4.1537046E-2,1.0578835E-3,4.2333934E-2,1.5482637E-1,-2.0503359E-1,-2.0682873E-2,-1.55702215E-2,-3.28239E-2,-2.1182084E-2,4.9591623E-2,3.7805E-2,-2.372861E-1,4.0819056E-2,1.8971104E-2,-1.9224812E-1,-1.8812804E-2,1.0937245E-2,-1.7184818E-2,5.0915834E-3,2.4600599E-2,6.469199E-2,5.9878384E-3,-2.4405567E-2,-8.893171E-2,3.8461395E-2,-2.1041907E-2,5.308831E-3,-6.3908417E-3,-4.853298E-3,-1.5786178E-2,1.09372385E-1,-6.514171E-3,-6.3063174E-2,1.8462718E-2,7.357058E-2,1.7087441E-3,-9.03698E-3,-1.3973807E-1,2.5433004E-2,1.0794243E-2,4.067543E-3,6.2635513E-3,-8.575518E-2,9.206437E-3,4.675519E-2,-6.9346786E-3,5.701E-3,-1.1092266E-2,-2.9623063E-2,-2.2221862E-3],"categories":[],"categories_nodes":[],"categories_segments":[],"categories_sizes":[],"default_left":[0,0,0,0,0,0,0,0,0,0,0,0,0,0,0,0,0,0,0,0,0,0,0,0,0,0,0,0,0,0,0,0,0,0,0,0,0,0,0,0,0,0,0,0,0,0,0,0,0,0,0,0,0,0,0,0,0,0,0,0,0,0,0],"id":9,"left_children":[1,3,5,7,9,11,13,15,17,19,21,23,25,27,29,31,33,35,37,39,41,43,45,47,49,51,53,55,57,59,61,-1,-1,-1,-1,-1,-1,-1,-1,-1,-1,-1,-1,-1,-1,-1,-1,-1,-1,-1,-1,-1,-1,-1,-1,-1,-1,-1,-1,-1,-1,-1,-1],"loss_changes":[1.038827E1,1.6570463E0,8.33822E-1,6.3638377E0,1.7977734E0,3.3067513E-1,3.0419758E-1,1.4924979E0,2.140306E0,1.5841713E0,6.9128566E0,2.2127256E0,1.4389467E-1,6.2654555E-1,3.4063536E-1,2.3402649E-1,1.9723163E0,1.1629281E0,1.1797891E0,2.7085357E0,2.8051863E0,1.1916473E0,5.6451097E0,8.444761E-1,1.784822E0,6.28798E-2,1.24607086E-1,5.0958925E-1,1.2460056E-1,4.7450018E-1,5.287707E-1,0E0,0E0,0E0,0E0,0E0,0E0,0E0,0E0,0E0,0E0,0E0,0E0,0E0,0E0,0E0,0E0,0E0,0E0,0E0,0E0,0E0,0E0,0E0,0E0,0E0,0E0,0E0,0E0,0E0,0E0,0E0,0E0],"parents":[2147483647,0,0,1,1,2,2,3,3,4,4,5,5,6,6,7,7,8,8,9,9,10,10,11,11,12,12,13,13,14,14,15,15,16,16,17,17,18,18,19,19,20,20,21,21,22,22,23,23,24,24,25,25,26,26,27,27,28,28,29,29,30,30],"right_children":[2,4,6,8,10,12,14,16,18,20,22,24,26,28,30,32,34,36,38,40,42,44,46,48,50,52,54,56,58,60,62,-1,-1,-1,-1,-1,-1,-1,-1,-1,-1,-1,-1,-1,-1,-1,-1,-1,-1,-1,-1,-1,-1,-1,-1,-1,-1,-1,-1,-1,-1,-1,-1],"split_conditions":[6.558E2,-2.9808334E4,2.1666667E2,4.243E2,8.787879E-1,-2.555E4,-9.3240094E-1,-5.06E4,5.212121E-1,6.454545E-1,5.72E1,3.7878788E-1,1.6666667E-1,8.25E3,6.575758E-1,1.927E2,3.336E2,3.121212E-1,-5.06E4,-2.4E3,3.9E1,-1.6283333E4,-4.2333335E3,2.7878788E-1,2.7878788E-1,6.674E2,3.8787878E-1,3.3636364E-1,6.674E2,6.745E4,6.757576E-1,5.0915834E-3,2.4600599E-2,6.469199E-2,5.9878384E-3,-2.4405567E-2,-8.893171E-2,3.8461395E-2,-2.1041907E-2,5.308831E-3,-6.3908417E-3,-4.853298E-3,-1.5786178E-2,1.09372385E-1,-6.514171E-3,-6.3063174E-2,1.8462718E-2,7.357058E-2,1.7087441E-3,-9.03698E-3,-1.3973807E-1,2.5433004E-2,1.0794243E-2,4.067543E-3,6.2635513E-3,-8.575518E-2,9.206437E-3,4.675519E-2,-6.9346786E-3,5.701E-3,-1.1092266E-2,-2.9623063E-2,-2.2221862E-3],"split_indices":[0,1,1,0,2,1,3,1,2,2,0,3,2,1,2,0,0,2,1,1,0,1,1,2,2,0,2,2,0,1,2,0,0,0,0,0,0,0,0,0,0,0,0,0,0,0,0,0,0,0,0,0,0,0,0,0,0,0,0,0,0,0,0],"split_type":[0,0,0,0,0,0,0,0,0,0,0,0,0,0,0,0,0,0,0,0,0,0,0,0,0,0,0,0,0,0,0,0,0,0,0,0,0,0,0,0,0,0,0,0,0,0,0,0,0,0,0,0,0,0,0,0,0,0,0,0,0,0,0],"sum_hessian":[4.567E4,3.1031E4,1.4639E4,7.35E2,3.0296E4,1.2568E4,2.071E3,4.73E2,2.62E2,2.2714E4,7.582E3,1.63E2,1.2405E4,1.83E2,1.888E3,2.33E2,2.4E2,1.04E2,1.58E2,1.42E4,8.514E3,5.769E3,1.813E3,1.26E2,3.7E1,3.09E2,1.2096E4,2.3E1,1.6E2,1.225E3,6.63E2,1.43E2,9E1,1.65E2,7.5E1,4.5E1,5.9E1,3.9E1,1.19E2,2.087E3,1.2113E4,4.626E3,3.888E3,7E0,5.762E3,7.9E1,1.734E3,1.6E1,1.1E2,2E1,1.7E1,2.9E1,2.8E2,3.154E3,8.942E3,1.6E1,7E0,3E0,1.57E2,1.049E3,1.76E2,7E1,5.93E2],"tree_param":{"num_deleted":"0","num_feature":"4","num_nodes":"63","size_leaf_vector":"1"}},{"base_weights":[-4.264984E-3,-1.1420943E-2,1.1464795E-2,-1.111783E-2,-1.6440687E-1,-5.4038487E-2,1.1851527E-2,-1.1697141E-2,1.4622936E-1,-3.5727328E-1,1.3532637E-1,-8.1785165E-2,-1.2856425E-2,1.235817E-2,-3.6995802E-2,-3.512608E-2,-9.894325E-3,1.9968465E-1,-1.736708E-1,-4.1457888E-1,7.004067E-2,2.7284828E-1,-1.3947348E-1,-1.0036285E-1,-5.747755E-2,-1.0508423E-3,-3.908552E-3,1.2149363E-2,1.0070134E-1,-1.0485021E-1,-3.0690257E-2,-8.67372E-3,-4.2675998E-2,-2.449418E-3,-1.0006364E-2,-2.5496893E-2,7.919846E-2,-6.2437985E-2,-3.2667655E-2,3.1721544E-2,-1.399989E-1,1.02153465E-1,2.7614115E-2,2.4720056E-2,-6.4391226E-2,-1.5321496E-2,-3.6651343E-2,-6.1962097E-3,-1.7965898E-2,3.788765E-3,-7.4456595E-3,-1.7642742E-2,9.6414156E-2,-7.4848123E-3,-3.5500634E-2,5.5885976E-3,-1.1828835E-2],"categories":[],"categories_nodes":[],"categories_segments":[],"categories_sizes":[],"default_left":[0,0,0,0,0,0,0,0,0,0,0,0,0,0,0,0,0,0,0,0,0,0,0,0,0,0,0,0,0,0,0,0,0,0,0,0,0,0,0,0,0,0,0,0,0,0,0,0,0,0,0,0,0,0,0,0,0],"id":10,"left_children":[1,3,5,7,9,11,13,15,17,19,21,23,25,27,29,31,33,35,37,39,-1,41,43,45,47,-1,-1,49,51,53,55,-1,-1,-1,-1,-1,-1,-1,-1,-1,-1,-1,-1,-1,-1,-1,-1,-1,-1,-1,-1,-1,-1,-1,-1,-1,-1],"loss_changes":[5.1409345E0,1.4538393E0,3.6240935E-1,2.8575385E0,3.632475E0,9.493242E-2,3.5183167E-1,1.3181562E0,2.00122E0,1.3831987E0,9.8283017E-1,1.6810358E-2,1.0699499E-5,2.5800753E-1,5.924955E-2,1.4802961E0,1.1759274E0,1.8348756E0,1.5280604E-2,9.978528E-1,0E0,1.7662811E-1,1.6777824E-1,2.2784352E-2,8.918941E-4,0E0,0E0,2.4903655E-1,1.1805212E0,9.977385E-3,5.8920518E-2,0E0,0E0,0E0,0E0,0E0,0E0,0E0,0E0,0E0,0E0,0E0,0E0,0E0,0E0,0E0,0E0,0E0,0E0,0E0,0E0,0E0,0E0,0E0,0E0,0E0,0E0],"parents":[2147483647,0,0,1,1,2,2,3,3,4,4,5,5,6,6,7,7,8,8,9,9,10,10,11,11,12,12,13,13,14,14,15,15,16,16,17,17,18,18,19,19,21,21,22,22,23,23,24,24,27,27,28,28,29,29,30,30],"right_children":[2,4,6,8,10,12,14,16,18,20,22,24,26,28,30,32,34,36,38,40,-1,42,44,46,48,-1,-1,50,52,54,56,-1,-1,-1,-1,-1,-1,-1,-1,-1,-1,-1,-1,-1,-1,-1,-1,-1,-1,-1,-1,-1,-1,-1,-1,-1,-1],"split_conditions":[6.739E2,4.4391668E4,1.1515152E-1,3.2008334E4,6.69697E-1,8.6241664E4,9E-1,-2.7777777E0,2.097902E0,8.264463E-1,9E-1,8.23E2,8.23E2,8.848485E-1,-4.6620047E-1,3.1166667E3,3.030303E0,-1.8648019E0,7.848485E-1,-9.3240094E-1,7.004067E-2,8.484849E-1,3.014E2,-5.06E4,8.455E2,-1.0508423E-3,-3.908552E-3,6.745E4,7.866E2,-9.3240094E-1,9.030303E-1,-8.67372E-3,-4.2675998E-2,-2.449418E-3,-1.0006364E-2,-2.5496893E-2,7.919846E-2,-6.2437985E-2,-3.2667655E-2,3.1721544E-2,-1.399989E-1,1.02153465E-1,2.7614115E-2,2.4720056E-2,-6.4391226E-2,-1.5321496E-2,-3.6651343E-2,-6.1962097E-3,-1.7965898E-2,3.788765E-3,-7.4456595E-3,-1.7642742E-2,9.6414156E-2,-7.4848123E-3,-3.5500634E-2,5.5885976E-3,-1.1828835E-2],"split_indices":[0,1,2,1,2,1,2,3,3,3,2,0,0,2,3,1,3,3,2,3,0,2,0,1,0,0,0,1,0,3,2,0,0,0,0,0,0,0,0,0,0,0,0,0,0,0,0,0,0,0,0,0,0,0,0,0,0],"split_type":[0,0,0,0,0,0,0,0,0,0,0,0,0,0,0,0,0,0,0,0,0,0,0,0,0,0,0,0,0,0,0,0,0,0,0,0,0,0,0,0,0,0,0,0,0,0,0,0,0,0,0,0,0,0,0,0,0],"sum_hessian":[4.567E4,3.139E4,1.428E4,3.1329E4,6.1E1,8.3E1,1.4197E4,3.1215E4,1.14E2,3.7E1,2.4E1,4.9E1,3.4E1,1.4052E4,1.45E2,2.229E3,2.8986E4,9.8E1,1.6E1,3.4E1,3E0,1.6E1,8E0,2.6E1,2.3E1,1E0,3.3E1,1.402E4,3.2E1,1.1E1,1.34E2,2.108E3,1.21E2,2.6997E4,1.989E3,1.8E1,8E1,9E0,7E0,3E0,3.1E1,1.1E1,5E0,2E0,6E0,9E0,1.7E1,2E0,2.1E1,1.3841E4,1.79E2,1.9E1,1.3E1,2E0,9E0,2E1,1.14E2],"tree_param":{"num_deleted":"0","num_feature":"4","num_nodes":"57","size_leaf_vector":"1"}},{"base_weights":[-2.987868E-3,-9.734696E-3,5.8132177E-3,2.6926508E-2,-1.0727593E-2,8.1576845E-3,-2.8902244E-2,5.7417177E-2,-6.744542E-2,-1.0968777E-2,1.373742E-1,-2.1864299E-2,1.1036776E-2,-1.8972309E-1,-1.0133174E-2,-9.760339E-2,7.612376E-2,-1.2646861E-1,1.2188924E-2,-1.020214E-2,-3.698507E-2,-3.062556E-2,2.9471162E-1,-1.2243572E-1,1.4665481E-3,-9.293454E-2,1.1883678E-2,-2.3949188E-1,-4.065124E-2,1.7861472E-2,-6.4127706E-2,-6.0853E-2,1.0979869E-4,2.9667033E-2,-1.573658E-2,7.43374E-2,-4.8992418E-2,-1.8465187E-2,1.0547631E-1,-3.688186E-3,-8.524082E-4,-6.146437E-3,-3.1339668E-2,1.5026276E-1,-1.938669E-2,-4.492201E-2,6.107134E-3,4.40245E-2,-4.2367E-3,-5.7524964E-2,-1.2263038E-2,1.9576645E-2,2.9567378E-3,-4.3714523E-2,-7.4921295E-2,2.0007385E-2,-9.868643E-3,-6.851227E-2,-1.1314343E-2],"categories":[],"categories_nodes":[],"categories_segments":[],"categories_sizes":[],"default_left":[0,0,0,0,0,0,0,0,0,0,0,0,0,0,0,0,0,0,0,0,0,0,0,0,0,0,0,0,0,0,0,0,0,0,0,0,0,0,0,0,0,0,0,0,0,0,0,0,0,0,0,0,0,0,0,0,0,0,0],"id":11,"left_children":[1,3,5,7,9,11,13,15,17,19,21,23,25,27,29,31,33,35,37,39,41,-1,43,45,47,49,51,53,-1,55,57,-1,-1,-1,-1,-1,-1,-1,-1,-1,-1,-1,-1,-1,-1,-1,-1,-1,-1,-1,-1,-1,-1,-1,-1,-1,-1,-1,-1],"loss_changes":[2.7119734E0,9.413588E-1,1.6132895E0,1.9663024E0,9.006467E-1,1.6050128E0,3.7832232E0,1.503781E0,7.864872E-1,5.008819E-1,1.5747986E0,3.8131065E0,1.4929068E0,3.2104015E-1,1.7001364E0,5.774506E-1,1.3546612E0,1.3640689E0,1.8235925E0,3.7587643E-1,7.9826635E-1,0E0,1.884413E0,1.1960988E0,2.9915829E0,6.9690406E-1,1.8183033E0,2.7983665E-2,0E0,1.8387266E0,1.657287E0,0E0,0E0,0E0,0E0,0E0,0E0,0E0,0E0,0E0,0E0,0E0,0E0,0E0,0E0,0E0,0E0,0E0,0E0,0E0,0E0,0E0,0E0,0E0,0E0,0E0,0E0,0E0,0E0],"parents":[2147483647,0,0,1,1,2,2,3,3,4,4,5,5,6,6,7,7,8,8,9,9,10,10,11,11,12,12,13,13,14,14,15,15,16,16,17,17,18,18,19,19,20,20,22,22,23,23,24,24,25,25,26,26,27,27,29,29,30,30],"right_children":[2,4,6,8,10,12,14,16,18,20,22,24,26,28,30,32,34,36,38,40,42,-1,44,46,48,50,52,54,-1,56,58,-1,-1,-1,-1,-1,-1,-1,-1,-1,-1,-1,-1,-1,-1,-1,-1,-1,-1,-1,-1,-1,-1,-1,-1,-1,-1,-1,-1],"split_conditions":[1.927E2,-1.0041667E4,2.020202E0,8.30303E-1,8.25E3,-1.1019284E0,1.6666667E-1,-3.2634032E0,1.3986014E0,1.35E3,6.636364E-1,3.939394E-1,1.1515152E-1,2.3310022E0,3.519E2,5.72E1,2.3310022E0,2.15E1,8.666667E-1,4.75E1,8.939394E-1,-3.062556E-2,8.848485E-1,7.866E2,5.151515E-1,6.427E2,-2.8666667E3,1.1515152E-1,-4.065124E-2,3.030303E0,-1.8366666E4,-6.0853E-2,1.0979869E-4,2.9667033E-2,-1.573658E-2,7.43374E-2,-4.8992418E-2,-1.8465187E-2,1.0547631E-1,-3.688186E-3,-8.524082E-4,-6.146437E-3,-3.1339668E-2,1.5026276E-1,-1.938669E-2,-4.492201E-2,6.107134E-3,4.40245E-2,-4.2367E-3,-5.7524964E-2,-1.2263038E-2,1.9576645E-2,2.9567378E-3,-4.3714523E-2,-7.4921295E-2,2.0007385E-2,-9.868643E-3,-6.851227E-2,-1.1314343E-2],"split_indices":[0,1,3,2,1,3,2,3,3,1,2,2,2,3,0,0,3,0,2,0,2,0,2,0,2,0,1,2,0,3,1,0,0,0,0,0,0,0,0,0,0,0,0,0,0,0,0,0,0,0,0,0,0,0,0,0,0,0,0],"split_type":[0,0,0,0,0,0,0,0,0,0,0,0,0,0,0,0,0,0,0,0,0,0,0,0,0,0,0,0,0,0,0,0,0,0,0,0,0,0,0,0,0,0,0,0,0,0,0,0,0,0,0,0,0,0,0,0,0,0,0],"sum_hessian":[4.567E4,2.5852E4,1.9818E4,6.81E2,2.5171E4,1.8565E4,1.253E3,5.15E2,1.66E2,2.5131E4,4E1,1.624E3,1.6941E4,1.3E2,1.123E3,5.5E1,4.6E2,9.5E1,7.1E1,2.4413E4,7.18E2,1.6E1,2.4E1,3.05E2,1.319E3,1.36E2,1.6805E4,6.6E1,6.4E1,7.4E2,3.83E2,2.6E1,2.9E1,3.91E2,6.9E1,8E0,8.7E1,5.9E1,1.2E1,1.901E4,5.403E3,5.78E2,1.4E2,1.5E1,9E0,2.56E2,4.9E1,1.27E2,1.192E3,4.6E1,9E1,6.14E2,1.6191E4,8E0,5.8E1,3.77E2,3.63E2,5.2E1,3.31E2],"tree_param":{"num_deleted":"0","num_feature":"4","num_nodes":"59","size_leaf_vector":"1"}},{"base_weights":[-2.0948278E-3,-6.8094986E-3,4.0553557E-3,1.5933625E-2,-7.6692137E-3,-4.2483106E-2,5.084748E-3,4.164628E-2,-4.408858E-2,-6.9145807E-3,-3.9540455E-2,7.032026E-3,-9.921309E-2,9.362698E-3,-7.8068166E-3,-9.69807E-3,1.1918774E-1,-3.0492038E-2,-2.6907513E-1,-7.2528296E-3,8.230386E-2,-7.5378574E-2,2.6180917E-2,1.8820192E-1,-1.5979921E-2,-1.2687361E-1,4.7305105E-3,5.8159016E-2,4.7154245E-3,-1.9970873E-2,2.8661625E-2,-2.596741E-2,1.3028552E-2,5.7192568E-2,-2.4163494E-2,-1.6484817E-2,1.2674827E-2,-8.660491E-2,-4.1424204E-2,-2.3842994E-3,2.9327082E-3,-1.3642175E-2,4.536297E-2,-6.21868E-3,-3.2779884E-2,-1.6722615E-3,1.8802326E-2,7.3735744E-2,-5.6986775E-2,9.454986E-2,-6.7374483E-3,-4.1216496E-2,2.6235195E-2,-4.2991966E-4,3.954011E-2,4.626488E-2,-3.5697832E-3,-1.9126283E-2,2.2138115E-3,-2.2941902E-2,-2.9127292E-5,1.4879579E-2,-1.4611577E-2],"categories":[],"categories_nodes":[],"categories_segments":[],"categories_sizes":[],"default_left":[0,0,0,0,0,0,0,0,0,0,0,0,0,0,0,0,0,0,0,0,0,0,0,0,0,0,0,0,0,0,0,0,0,0,0,0,0,0,0,0,0,0,0,0,0,0,0,0,0,0,0,0,0,0,0,0,0,0,0,0,0,0,0],"id":12,"left_children":[1,3,5,7,9,11,13,15,17,19,21,23,25,27,29,31,33,35,37,39,41,43,45,47,49,51,53,55,57,59,61,-1,-1,-1,-1,-1,-1,-1,-1,-1,-1,-1,-1,-1,-1,-1,-1,-1,-1,-1,-1,-1,-1,-1,-1,-1,-1,-1,-1,-1,-1,-1,-1],"loss_changes":[1.324308E0,5.056156E-1,9.496716E-1,1.4556531E0,5.9888744E-1,1.2057556E0,1.0694764E0,2.6288242E0,8.575035E-1,7.350397E-1,1.3586438E0,9.618941E-1,5.7562685E-1,3.3014944E0,2.1440678E0,1.6289151E0,3.76882E0,4.7911054E-1,1.234889E-3,2.8695667E-1,8.169049E-1,6.8851256E-1,2.3675591E-1,6.1285925E-1,4.4685304E-1,3.6807656E-1,3.3866677E-2,8.521517E0,2.425474E0,4.0694222E0,1.9607877E0,0E0,0E0,0E0,0E0,0E0,0E0,0E0,0E0,0E0,0E0,0E0,0E0,0E0,0E0,0E0,0E0,0E0,0E0,0E0,0E0,0E0,0E0,0E0,0E0,0E0,0E0,0E0,0E0,0E0,0E0,0E0,0E0],"parents":[2147483647,0,0,1,1,2,2,3,3,4,4,5,5,6,6,7,7,8,8,9,9,10,10,11,11,12,12,13,13,14,14,15,15,16,16,17,17,18,18,19,19,20,20,21,21,22,22,23,23,24,24,25,25,26,26,27,27,28,28,29,29,30,30],"right_children":[2,4,6,8,10,12,14,16,18,20,22,24,26,28,30,32,34,36,38,40,42,44,46,48,50,52,54,56,58,60,62,-1,-1,-1,-1,-1,-1,-1,-1,-1,-1,-1,-1,-1,-1,-1,-1,-1,-1,-1,-1,-1,-1,-1,-1,-1,-1,-1,-1,-1,-1,-1,-1],"split_conditions":[1.927E2,-7.65E3,-2.7972028E0,8.151515E-1,1.733E2,-6.2916665E3,7.969697E-1,2.5252524E-1,8.878788E-1,5.2666665E3,8.272727E-1,4.7878787E-1,7.7575755E-1,3.519E2,8.787879E-1,6.12E1,2.5641026E0,8.666667E-1,9E-1,1.474E2,-9.3240094E-1,-4.2333335E3,1.821E2,3.519E2,-2.555E4,5.322E2,8.212121E-1,2.2727273E0,-2.1808334E4,4.243E2,8.939394E-1,-2.596741E-2,1.3028552E-2,5.7192568E-2,-2.4163494E-2,-1.6484817E-2,1.2674827E-2,-8.660491E-2,-4.1424204E-2,-2.3842994E-3,2.9327082E-3,-1.3642175E-2,4.536297E-2,-6.21868E-3,-3.2779884E-2,-1.6722615E-3,1.8802326E-2,7.3735744E-2,-5.6986775E-2,9.454986E-2,-6.7374483E-3,-4.1216496E-2,2.6235195E-2,-4.2991966E-4,3.954011E-2,4.626488E-2,-3.5697832E-3,-1.9126283E-2,2.2138115E-3,-2.2941902E-2,-2.9127292E-5,1.4879579E-2,-1.4611577E-2],"split_indices":[0,1,3,2,0,1,2,3,2,1,2,2,2,0,2,0,3,2,2,0,3,1,0,0,1,0,2,3,1,0,2,0,0,0,0,0,0,0,0,0,0,0,0,0,0,0,0,0,0,0,0,0,0,0,0,0,0,0,0,0,0,0,0],"split_type":[0,0,0,0,0,0,0,0,0,0,0,0,0,0,0,0,0,0,0,0,0,0,0,0,0,0,0,0,0,0,0,0,0,0,0,0,0,0,0,0,0,0,0,0,0,0,0,0,0,0,0,0,0,0,0,0,0,0,0,0,0,0,0],"sum_hessian":[4.567E4,2.5852E4,1.9818E4,9.41E2,2.4911E4,4.28E2,1.939E4,6.59E2,2.82E2,2.4336E4,5.75E2,2.29E2,1.99E2,1.4559E4,4.831E3,3.97E2,2.62E2,2.67E2,1.5E1,2.4245E4,9.1E1,3.72E2,2.03E2,2.5E1,2.04E2,1.57E2,4.2E1,1.265E3,1.3294E4,3.623E3,1.208E3,1.62E2,2.35E2,1.93E2,6.9E1,2E2,6.7E1,1.2E1,3E0,2.3295E4,9.5E2,3.2E1,5.9E1,1.43E2,2.29E2,1.09E2,9.4E1,2.2E1,3E0,3E0,2.01E2,1.5E2,7E0,4.1E1,1E0,5.33E2,7.32E2,4.97E2,1.2797E4,9.42E2,2.681E3,9.51E2,2.57E2],"tree_param":{"num_deleted":"0","num_feature":"4","num_nodes":"63","size_leaf_vector":"1"}},{"base_weights":[-1.4657185E-3,-1.7140796E-2,-4.7458848E-4,-1.28103085E-2,-1.0605473E-1,-5.7898536E-3,3.4072914E-3,7.737976E-2,-1.6124178E-2,-1.1695681E-1,-1.0484054E-2,1.2769441E-1,-6.5968223E-3,6.2663583E-3,-1.4303176E-2,2.3560204E-1,-4.886049E-2,-8.518308E-2,-1.24229975E-2,-2.7201153E-2,-1.3041735E-1,7.1507283E-3,-9.659711E-3,4.0871292E-1,5.1934414E-2,-6.7947097E-3,6.613009E-2,3.627192E-3,2.4313364E-2,-1.1215219E-1,-7.864107E-3,-1.0153958E-2,9.708383E-2,-1.718086E-2,5.7000082E-2,-4.365013E-2,-2.8454832E-4,-8.5089216E-4,-1.3469728E-2,-1.6206269E-3,-1.8789774E-2,-4.236298E-2,-2.4002285E-3,6.905773E-2,1.747608E-1,3.873709E-2,-2.7500836E-2,2.9274229E-2,-2.0696854E-3,8.005955E-2,-6.5366006E-3,2.4073727E-3,-5.5453633E-3,1.1786849E-2,-1.1888365E-2,-1.35715315E-2,-3.5541724E-2,-6.4386486E-4,-2.260209E-2],"categories":[],"categories_nodes":[],"categories_segments":[],"categories_sizes":[],"default_left":[0,0,0,0,0,0,0,0,0,0,0,0,0,0,0,0,0,0,0,0,0,0,0,0,0,0,0,0,0,0,0,0,0,0,0,0,0,0,0,0,0,0,0,0,0,0,0,0,0,0,0,0,0,0,0,0,0,0,0],"id":13,"left_children":[1,3,5,7,9,11,13,15,17,19,21,23,25,27,29,31,33,35,37,39,41,-1,-1,43,45,47,49,51,53,55,57,-1,-1,-1,-1,-1,-1,-1,-1,-1,-1,-1,-1,-1,-1,-1,-1,-1,-1,-1,-1,-1,-1,-1,-1,-1,-1,-1,-1],"loss_changes":[7.0953834E-1,1.0444121E0,8.863404E-1,7.756411E-1,1.3005567E-1,1.9538703E0,1.2571644E0,1.8491217E0,6.3794047E-1,1.3297462E-1,1.1201045E-2,2.2993803E0,2.5983143E-1,1.0180304E0,2.1734428E0,9.832418E-1,1.1532791E-1,6.451247E-1,7.3898953E-1,1.2019604E-2,1.283468E-1,0E0,0E0,5.7961726E-1,9.762029E-1,1.9624513E-1,8.705851E-1,1.8135581E0,2.612912E0,8.472037E-2,1.2495143E0,0E0,0E0,0E0,0E0,0E0,0E0,0E0,0E0,0E0,0E0,0E0,0E0,0E0,0E0,0E0,0E0,0E0,0E0,0E0,0E0,0E0,0E0,0E0,0E0,0E0,0E0,0E0,0E0],"parents":[2147483647,0,0,1,1,2,2,3,3,4,4,5,5,6,6,7,7,8,8,9,9,10,10,11,11,12,12,13,13,14,14,15,15,16,16,17,17,18,18,19,19,20,20,23,23,24,24,25,25,26,26,27,27,28,28,29,29,30,30],"right_children":[2,4,6,8,10,12,14,16,18,20,22,24,26,28,30,32,34,36,38,40,42,-1,-1,44,46,48,50,52,54,56,58,-1,-1,-1,-1,-1,-1,-1,-1,-1,-1,-1,-1,-1,-1,-1,-1,-1,-1,-1,-1,-1,-1,-1,-1,-1,-1,-1,-1],"split_conditions":[-2.5252526E0,5.2666665E3,2.73E1,-1.8366666E4,7.7575755E-1,-6.9E3,1.7676767E0,7.7575755E-1,4.3E1,2.9090908E-1,-2.7972028E0,2.7878788E-1,2.2727273E0,8.666667E-1,1.9393939E-1,1.545E2,5.322E2,-6.9E3,7.121212E-1,-2.7972028E0,4.935E2,7.1507283E-3,-9.659711E-3,-1.0041667E4,1.1363636E0,-2.097902E0,6.424242E-1,8E-1,1.35E3,1.8181819E0,4.579E2,-1.0153958E-2,9.708383E-2,-1.718086E-2,5.7000082E-2,-4.365013E-2,-2.8454832E-4,-8.5089216E-4,-1.3469728E-2,-1.6206269E-3,-1.8789774E-2,-4.236298E-2,-2.4002285E-3,6.905773E-2,1.747608E-1,3.873709E-2,-2.7500836E-2,2.9274229E-2,-2.0696854E-3,8.005955E-2,-6.5366006E-3,2.4073727E-3,-5.5453633E-3,1.1786849E-2,-1.1888365E-2,-1.35715315E-2,-3.5541724E-2,-6.4386486E-4,-2.260209E-2],"split_indices":[3,1,0,1,2,1,3,2,0,2,3,2,3,2,2,0,0,1,2,3,0,0,0,1,3,3,2,2,1,3,0,0,0,0,0,0,0,0,0,0,0,0,0,0,0,0,0,0,0,0,0,0,0,0,0,0,0,0,0],"split_type":[0,0,0,0,0,0,0,0,0,0,0,0,0,0,0,0,0,0,0,0,0,0,0,0,0,0,0,0,0,0,0,0,0,0,0,0,0,0,0,0,0,0,0,0,0,0,0,0,0,0,0,0,0,0,0,0,0,0,0],"sum_hessian":[4.567E4,2.715E3,4.2955E4,2.59E3,1.25E2,1.813E4,2.4825E4,9.1E1,2.499E3,1.12E2,1.3E1,1.08E2,1.8022E4,2.1375E4,3.45E3,4E1,5.1E1,1.26E2,2.373E3,1.5E1,9.7E1,5E0,8E0,2.2E1,8.6E1,1.7974E4,4.8E1,1.8649E4,2.726E3,2.12E2,3.238E3,1E1,3E1,5E1,1E0,7.3E1,5.3E1,1.833E3,5.4E2,1E1,5E0,8.9E1,8E0,1.2E1,1E1,5.6E1,3E1,1.7E1,1.7957E4,1.4E1,3.4E1,1.5556E4,3.093E3,2.209E3,5.17E2,1.9E1,1.93E2,2.986E3,2.52E2],"tree_param":{"num_deleted":"0","num_feature":"4","num_nodes":"59","size_leaf_vector":"1"}},{"base_weights":[-1.0198503E-3,-6.6183624E-3,9.744713E-4,-3.4359567E-2,-3.3824772E-3,8.635619E-3,-2.3438032E-3,-7.867701E-3,-9.2097245E-2,-1.5290156E-3,-3.0854588E-2,4.317245E-2,2.8097588E-3,-8.1584917E-4,-1.7562388E-2,-9.0621926E-2,-1.100249E-3,-1.19457394E-1,1.3461577E-2,-4.1700867E-3,5.0879996E-2,-6.454032E-2,2.832265E-2,-3.3930026E-2,5.514031E-2,-9.2700886E-4,5.3139724E-2,-1.900092E-2,1.7262727E-4,-1.0018716E-2,-5.0027657E-2,-4.479639E-2,-1.7763797E-2,-3.7912435E-3,2.0538447E-3,-2.5328593E-2,-6.418421E-2,1.5273706E-2,-8.7392837E-4,-8.7102136E-4,-1.8632453E-2,2.658184E-2,-5.9247825E-2,-2.6901376E-2,-1.0526208E-2,4.1192487E-2,-6.554738E-3,-2.5636762E-2,3.4790125E-3,2.8240561E-2,5.4094857E-3,-2.532142E-3,2.2937655E-3,-2.7654305E-2,2.2010308E-2,-4.320097E-3,-2.0971272E-2,8.346827E-4,-2.6770858E-3,-3.619885E-3,9.393144E-2,-3.7641928E-2,1.9340569E-3],"categories":[],"categories_nodes":[],"categories_segments":[],"categories_sizes":[],"default_left":[0,0,0,0,0,0,0,0,0,0,0,0,0,0,0,0,0,0,0,0,0,0,0,0,0,0,0,0,0,0,0,0,0,0,0,0,0,0,0,0,0,0,0,0,0,0,0,0,0,0,0,0,0,0,0,0,0,0,0,0,0,0,0],"id":14,"left_children":[1,3,5,7,9,11,13,15,17,19,21,23,25,27,29,31,33,35,37,39,41,43,45,47,49,51,53,55,57,59,61,-1,-1,-1,-1,-1,-1,-1,-1,-1,-1,-1,-1,-1,-1,-1,-1,-1,-1,-1,-1,-1,-1,-1,-1,-1,-1,-1,-1,-1,-1,-1,-1],"loss_changes":[5.099338E-1,1.0767329E0,8.561244E-1,1.9158375E0,5.470212E-1,2.047761E0,5.464149E-1,4.815306E-1,1.1395218E0,1.3935069E0,1.3553661E0,1.3573928E0,1.6381508E0,3.8388836E-1,5.2458006E-1,1.1099911E-1,7.306334E-2,1.0179253E0,5.043433E-2,7.031811E-1,4.543278E0,3.173517E-1,1.3535967E0,4.6546012E-1,1.8389502E0,5.223825E-1,1.7763679E0,2.5683174E-1,4.808618E-1,1.1556537E0,1.7221496E0,0E0,0E0,0E0,0E0,0E0,0E0,0E0,0E0,0E0,0E0,0E0,0E0,0E0,0E0,0E0,0E0,0E0,0E0,0E0,0E0,0E0,0E0,0E0,0E0,0E0,0E0,0E0,0E0,0E0,0E0,0E0,0E0],"parents":[2147483647,0,0,1,1,2,2,3,3,4,4,5,5,6,6,7,7,8,8,9,9,10,10,11,11,12,12,13,13,14,14,15,15,16,16,17,17,18,18,19,19,20,20,21,21,22,22,23,23,24,24,25,25,26,26,27,27,28,28,29,29,30,30],"right_children":[2,4,6,8,10,12,14,16,18,20,22,24,26,28,30,32,34,36,38,40,42,44,46,48,50,52,54,56,58,60,62,-1,-1,-1,-1,-1,-1,-1,-1,-1,-1,-1,-1,-1,-1,-1,-1,-1,-1,-1,-1,-1,-1,-1,-1,-1,-1,-1,-1,-1,-1,-1,-1],"split_conditions":[3.8181818E-1,-6.993007E-1,6.181818E-1,1.733E2,1.8181819E0,-1.775E3,8.264463E-1,-5.6583335E3,7.866E2,6.993007E-1,2.9090908E-1,-3.2828283E0,5.2666665E3,-2.5252526E0,3.519E2,-9.166667E3,8.43E1,3.121212E-1,-1.3986014E0,2.05E4,3.5454544E-1,-4.2333335E3,-4.6416665E3,-4.6416665E3,1.6317016E0,7.319E2,-2.3310022E0,1.35E3,9.030303E-1,2.05E4,1.6725E4,-4.479639E-2,-1.7763797E-2,-3.7912435E-3,2.0538447E-3,-2.5328593E-2,-6.418421E-2,1.5273706E-2,-8.7392837E-4,-8.7102136E-4,-1.8632453E-2,2.658184E-2,-5.9247825E-2,-2.6901376E-2,-1.0526208E-2,4.1192487E-2,-6.554738E-3,-2.5636762E-2,3.4790125E-3,2.8240561E-2,5.4094857E-3,-2.532142E-3,2.2937655E-3,-2.7654305E-2,2.2010308E-2,-4.320097E-3,-2.0971272E-2,8.346827E-4,-2.6770858E-3,-3.619885E-3,9.393144E-2,-3.7641928E-2,1.9340569E-3],"split_indices":[2,3,2,0,3,1,3,1,0,3,2,3,1,3,0,1,0,2,3,1,2,1,1,1,3,0,3,1,2,1,1,0,0,0,0,0,0,0,0,0,0,0,0,0,0,0,0,0,0,0,0,0,0,0,0,0,0,0,0,0,0,0,0],"split_type":[0,0,0,0,0,0,0,0,0,0,0,0,0,0,0,0,0,0,0,0,0,0,0,0,0,0,0,0,0,0,0,0,0,0,0,0,0,0,0,0,0,0,0,0,0,0,0,0,0,0,0,0,0,0,0,0,0,0,0,0,0,0,0],"sum_hessian":[4.567E4,1.1995E4,3.3675E4,1.252E3,1.0743E4,1.0177E4,2.3498E4,8.59E2,3.93E2,1.0065E4,6.78E2,1.468E3,8.709E3,2.1355E4,2.143E3,6.4E1,7.95E2,3.12E2,8.1E1,9.583E3,4.82E2,4.32E2,2.46E2,1.97E2,1.271E3,8.108E3,6.01E2,1.1E3,2.0255E4,1.74E3,4.03E2,2.1E1,4.3E1,3.24E2,4.71E2,2.29E2,8.3E1,2.4E1,5.7E1,9.379E3,2.04E2,4.19E2,6.3E1,2.32E2,2E2,7.7E1,1.69E2,9.2E1,1.05E2,6.19E2,6.52E2,4.321E3,3.787E3,7.3E1,5.28E2,1.01E3,9E1,1.574E4,4.515E3,1.73E3,1E1,1.72E2,2.31E2],"tree_param":{"num_deleted":"0","num_feature":"4","num_nodes":"63","size_leaf_vector":"1"}}]},"name":"gbtree"},"learner_model_param":{"base_score":"5E-1","boost_from_average":"0","num_class":"0","num_feature":"4","num_target":"1"},"objective":{"name":"reg:squarederror","reg_loss_param":{"scale_pos_weight":"1"}}},"version":[3,0,0]}